%YAML:1.0
---
opencv_ml_svm:
   format: 3
   svmType: C_SVC
   kernel:
      type: RBF
      gamma: 1.5000000000000001e-04
   C: 2.5000000000000000e+00
   term_criteria: { iterations:100 }
   var_count: 50
   class_count: 2
   class_labels: !!opencv-matrix
      rows: 2
      cols: 1
      dt: i
      data: [ 0, 1 ]
   sv_total: 140
   support_vectors:
      - [ 17., 17., 15., 4., 10., 6., 15., 13., 5., 1., 4., 56., 6., 7.,
          4., 5., 3., 17., 71., 3., 76., 5., 16., 10., 11., 9., 14., 0.,
          20., 16., 13., 6., 11., 6., 16., 1., 13., 13., 9., 14., 2., 5.,
          43., 0., 15., 12., 12., 2., 13., 1. ]
      - [ 18., 4., 4., 2., 0., 3., 7., 4., 0., 0., 0., 15., 5., 6., 0.,
          2., 0., 8., 125., 6., 102., 1., 7., 8., 5., 4., 11., 0., 3.,
          4., 8., 6., 6., 4., 6., 0., 6., 3., 1., 6., 0., 0., 27., 0.,
          7., 10., 8., 0., 15., 0. ]
      - [ 56., 8., 10., 6., 3., 8., 24., 10., 1., 1., 2., 79., 10., 8.,
          1., 4., 7., 13., 106., 15., 114., 9., 15., 19., 17., 13., 18.,
          5., 34., 11., 40., 13., 8., 21., 22., 8., 19., 4., 9., 12., 2.,
          2., 80., 7., 13., 13., 21., 2., 39., 2. ]
      - [ 117., 244., 47., 91., 134., 95., 65., 74., 125., 50., 108.,
          234., 85., 113., 117., 120., 248., 130., 327., 51., 362., 109.,
          109., 292., 59., 147., 101., 119., 224., 119., 114., 109., 88.,
          242., 264., 134., 114., 90., 78., 254., 101., 38., 368., 118.,
          97., 73., 113., 64., 128., 48. ]
      - [ 3., 0., 3., 0., 2., 2., 1., 1., 0., 0., 0., 0., 1., 3., 0., 0.,
          1., 0., 0., 1., 3., 2., 1., 2., 1., 0., 0., 0., 2., 4., 1., 1.,
          4., 0., 1., 0., 0., 0., 0., 1., 0., 1., 9., 0., 2., 0., 0., 0.,
          2., 0. ]
      - [ 54., 20., 17., 35., 23., 11., 18., 10., 12., 10., 12., 12.,
          16., 16., 16., 10., 18., 24., 42., 13., 42., 21., 34., 31.,
          33., 16., 37., 14., 40., 17., 38., 18., 14., 66., 44., 11.,
          12., 9., 23., 14., 13., 10., 38., 42., 17., 17., 18., 19., 27.,
          14. ]
      - [ 64., 7., 14., 5., 2., 8., 16., 11., 3., 6., 1., 17., 6., 19.,
          4., 7., 9., 21., 74., 28., 62., 7., 14., 16., 18., 10., 10.,
          10., 15., 6., 51., 27., 14., 17., 23., 3., 11., 14., 7., 3.,
          6., 7., 20., 2., 11., 18., 11., 16., 13., 19. ]
      - [ 45., 18., 16., 18., 23., 14., 28., 16., 11., 5., 4., 63., 21.,
          12., 14., 13., 9., 38., 74., 7., 80., 9., 27., 22., 24., 36.,
          27., 7., 15., 18., 66., 10., 41., 27., 15., 5., 26., 33., 22.,
          11., 8., 5., 85., 3., 18., 26., 22., 3., 30., 6. ]
      - [ 13., 2., 0., 1., 0., 1., 1., 3., 1., 1., 2., 15., 4., 5., 2.,
          2., 0., 1., 3., 1., 9., 0., 0., 4., 0., 2., 1., 0., 0., 1.,
          13., 6., 5., 1., 0., 0., 0., 3., 0., 1., 0., 1., 7., 0., 1.,
          2., 1., 4., 4., 0. ]
      - [ 75., 72., 17., 17., 20., 23., 48., 45., 16., 17., 12., 109.,
          58., 45., 24., 19., 27., 59., 171., 67., 227., 17., 51., 62.,
          30., 35., 43., 18., 65., 51., 65., 46., 39., 55., 46., 17.,
          56., 25., 21., 53., 30., 24., 100., 19., 42., 44., 53., 17.,
          55., 10. ]
      - [ 30., 9., 4., 2., 4., 3., 3., 5., 1., 0., 2., 48., 5., 10., 4.,
          3., 5., 7., 7., 7., 28., 10., 6., 13., 15., 5., 5., 3., 13.,
          3., 30., 8., 6., 17., 11., 1., 7., 6., 3., 8., 4., 2., 30., 2.,
          5., 11., 7., 2., 24., 1. ]
      - [ 46., 11., 7., 7., 4., 6., 18., 15., 11., 6., 5., 73., 13., 14.,
          4., 16., 11., 19., 34., 2., 53., 6., 15., 50., 14., 31., 18.,
          11., 32., 22., 50., 10., 6., 49., 44., 12., 25., 9., 9., 24.,
          8., 4., 75., 6., 17., 29., 23., 7., 40., 6. ]
      - [ 18., 4., 1., 0., 2., 0., 4., 0., 1., 0., 1., 13., 0., 5., 1.,
          0., 1., 2., 11., 1., 18., 1., 0., 19., 0., 10., 2., 2., 0., 0.,
          9., 1., 0., 8., 12., 1., 1., 3., 0., 8., 0., 0., 19., 0., 1.,
          4., 0., 1., 11., 2. ]
      - [ 21., 18., 29., 9., 7., 19., 11., 13., 3., 3., 6., 35., 25.,
          15., 6., 11., 10., 30., 34., 15., 67., 14., 24., 11., 29., 21.,
          20., 7., 15., 20., 27., 18., 20., 10., 8., 6., 6., 18., 14.,
          9., 10., 6., 38., 4., 14., 13., 22., 6., 14., 20. ]
      - [ 38., 68., 8., 34., 41., 21., 18., 42., 92., 49., 52., 79., 42.,
          53., 20., 75., 64., 57., 18., 19., 28., 10., 24., 46., 10.,
          28., 23., 20., 72., 32., 23., 41., 37., 73., 31., 102., 39.,
          75., 39., 54., 20., 52., 145., 69., 70., 42., 17., 14., 33.,
          13. ]
      - [ 15., 9., 4., 2., 2., 6., 6., 7., 1., 3., 4., 18., 4., 6., 6.,
          4., 4., 8., 18., 5., 23., 7., 6., 11., 7., 13., 8., 6., 5., 5.,
          22., 2., 6., 10., 11., 1., 9., 3., 4., 8., 6., 3., 24., 2.,
          10., 6., 11., 3., 10., 3. ]
      - [ 20., 5., 13., 7., 8., 6., 3., 3., 1., 3., 0., 1., 4., 11., 4.,
          1., 3., 4., 5., 15., 6., 8., 7., 6., 12., 3., 7., 6., 2., 8.,
          34., 11., 5., 9., 4., 1., 3., 0., 0., 1., 8., 3., 8., 2., 2.,
          8., 5., 3., 10., 9. ]
      - [ 46., 30., 15., 8., 6., 7., 12., 7., 3., 4., 2., 74., 10., 8.,
          6., 5., 27., 21., 403., 31., 339., 3., 20., 17., 18., 20., 17.,
          4., 45., 17., 48., 7., 17., 16., 11., 5., 9., 7., 10., 27., 8.,
          6., 91., 4., 11., 13., 17., 3., 20., 7. ]
      - [ 2., 3., 6., 4., 2., 5., 5., 1., 1., 0., 0., 9., 4., 2., 2., 3.,
          4., 3., 13., 1., 8., 3., 3., 5., 1., 5., 5., 1., 10., 6., 4.,
          5., 5., 8., 8., 3., 2., 8., 3., 3., 3., 0., 15., 0., 5., 4.,
          9., 1., 5., 3. ]
      - [ 0., 3., 1., 4., 1., 1., 4., 0., 2., 0., 1., 21., 1., 2., 0.,
          1., 2., 6., 6., 1., 5., 1., 7., 3., 0., 5., 6., 0., 7., 4., 0.,
          2., 4., 5., 3., 3., 2., 3., 4., 2., 1., 0., 22., 0., 3., 2.,
          3., 1., 2., 0. ]
      - [ 9., 6., 2., 3., 2., 0., 9., 2., 2., 2., 2., 15., 1., 2., 1.,
          6., 2., 5., 6., 0., 6., 2., 6., 8., 3., 3., 4., 2., 9., 4., 5.,
          2., 6., 2., 4., 3., 2., 5., 2., 3., 6., 0., 13., 1., 5., 1.,
          8., 3., 4., 2. ]
      - [ 1., 4., 1., 3., 1., 1., 5., 1., 1., 2., 0., 16., 0., 1., 1.,
          7., 3., 5., 5., 4., 7., 1., 2., 5., 2., 3., 4., 1., 8., 6., 5.,
          1., 4., 7., 5., 1., 1., 8., 2., 4., 4., 1., 13., 1., 4., 4.,
          8., 2., 3., 1. ]
      - [ 1., 1., 3., 2., 3., 3., 5., 3., 1., 1., 3., 10., 2., 4., 2.,
          7., 1., 3., 6., 5., 8., 2., 3., 2., 4., 3., 4., 4., 4., 2., 1.,
          2., 4., 2., 3., 3., 1., 4., 4., 1., 0., 1., 19., 0., 0., 3.,
          7., 1., 2., 0. ]
      - [ 12., 3., 4., 1., 0., 2., 4., 1., 1., 0., 1., 20., 4., 2., 1.,
          9., 3., 11., 4., 0., 6., 5., 12., 7., 2., 8., 9., 6., 5., 7.,
          13., 4., 2., 8., 11., 1., 2., 2., 6., 3., 0., 1., 11., 2., 5.,
          3., 7., 2., 3., 3. ]
      - [ 3., 4., 2., 5., 1., 3., 6., 2., 0., 0., 1., 17., 0., 1., 2.,
          4., 3., 5., 7., 3., 4., 4., 2., 4., 1., 5., 4., 1., 8., 8., 0.,
          1., 3., 3., 5., 3., 3., 6., 3., 5., 2., 2., 13., 0., 3., 4.,
          10., 0., 4., 1. ]
      - [ 16., 16., 8., 1., 3., 5., 2., 6., 6., 2., 2., 11., 6., 11., 4.,
          3., 9., 17., 15., 1., 5., 8., 11., 19., 8., 11., 4., 7., 10.,
          5., 26., 7., 9., 10., 13., 5., 6., 3., 7., 12., 7., 1., 22.,
          3., 3., 13., 10., 3., 10., 7. ]
      - [ 25., 0., 13., 1., 2., 0., 1., 2., 0., 3., 1., 1., 4., 7., 2.,
          1., 1., 4., 4., 6., 2., 5., 2., 13., 12., 2., 6., 3., 1., 6.,
          24., 5., 3., 2., 5., 1., 2., 1., 3., 1., 3., 1., 1., 1., 1.,
          2., 2., 6., 4., 4. ]
      - [ 3., 3., 1., 0., 3., 2., 5., 5., 1., 1., 1., 10., 3., 3., 3.,
          2., 2., 5., 7., 1., 8., 2., 5., 2., 2., 8., 4., 0., 7., 4., 2.,
          2., 9., 7., 2., 1., 0., 5., 4., 4., 2., 1., 11., 1., 1., 1.,
          4., 2., 3., 0. ]
      - [ 2., 2., 5., 4., 2., 1., 0., 4., 0., 1., 2., 8., 2., 0., 4., 3.,
          0., 5., 8., 2., 7., 0., 6., 2., 2., 6., 1., 3., 9., 4., 0., 1.,
          5., 1., 3., 1., 0., 2., 5., 8., 3., 3., 13., 0., 3., 0., 6.,
          2., 2., 0. ]
      - [ 2., 4., 1., 3., 2., 0., 6., 1., 2., 0., 1., 8., 0., 3., 3., 5.,
          1., 2., 10., 1., 4., 0., 6., 3., 2., 5., 2., 2., 6., 6., 3.,
          2., 6., 3., 4., 1., 1., 2., 10., 2., 2., 0., 12., 2., 2., 0.,
          5., 2., 3., 0. ]
      - [ 15., 3., 6., 5., 4., 2., 4., 5., 3., 2., 1., 9., 4., 6., 1.,
          3., 2., 3., 12., 2., 11., 0., 7., 9., 2., 9., 5., 3., 0., 2.,
          18., 5., 2., 1., 1., 3., 1., 3., 2., 8., 3., 2., 7., 2., 2.,
          3., 3., 2., 2., 5. ]
      - [ 8., 4., 13., 5., 2., 1., 9., 7., 3., 3., 2., 19., 8., 6., 3.,
          3., 3., 11., 23., 7., 37., 4., 13., 12., 9., 6., 12., 3., 8.,
          7., 9., 10., 13., 16., 14., 5., 4., 10., 9., 0., 3., 3., 24.,
          2., 11., 5., 3., 4., 12., 6. ]
      - [ 15., 1., 4., 3., 0., 1., 0., 3., 0., 2., 0., 1., 1., 6., 10.,
          0., 0., 0., 8., 5., 0., 2., 8., 8., 3., 1., 6., 5., 1., 1.,
          10., 4., 0., 1., 4., 0., 0., 0., 3., 0., 3., 1., 0., 1., 3.,
          4., 2., 4., 3., 3. ]
      - [ 97., 76., 60., 45., 76., 68., 61., 32., 20., 38., 22., 74.,
          46., 39., 59., 26., 53., 49., 159., 86., 103., 86., 100., 58.,
          56., 50., 112., 43., 28., 65., 144., 42., 39., 49., 47., 24.,
          29., 32., 38., 77., 78., 54., 62., 37., 30., 31., 47., 62.,
          56., 63. ]
      - [ 75., 54., 90., 51., 39., 64., 85., 71., 27., 28., 20., 76.,
          91., 62., 33., 40., 51., 124., 236., 59., 188., 75., 60., 38.,
          86., 34., 64., 26., 76., 91., 106., 46., 99., 24., 47., 24.,
          54., 30., 58., 65., 42., 47., 124., 23., 80., 34., 81., 46.,
          67., 42. ]
      - [ 63., 9., 11., 22., 2., 15., 17., 15., 2., 9., 3., 40., 11.,
          18., 8., 10., 3., 20., 39., 21., 43., 15., 19., 92., 11., 14.,
          16., 9., 15., 10., 43., 14., 20., 28., 22., 3., 22., 14., 18.,
          11., 13., 10., 35., 1., 13., 16., 19., 14., 35., 7. ]
      - [ 171., 65., 171., 93., 72., 107., 95., 131., 43., 82., 52.,
          183., 114., 116., 90., 53., 45., 121., 178., 214., 181., 129.,
          104., 82., 164., 69., 130., 90., 79., 115., 182., 98., 102.,
          69., 96., 37., 82., 51., 94., 61., 101., 95., 83., 58., 76.,
          76., 99., 113., 102., 166. ]
      - [ 148., 49., 58., 47., 28., 35., 95., 38., 25., 37., 26., 83.,
          50., 61., 25., 35., 24., 74., 206., 51., 220., 38., 68., 70.,
          55., 58., 60., 32., 47., 61., 134., 57., 56., 57., 85., 21.,
          49., 26., 38., 55., 41., 24., 122., 20., 53., 71., 53., 35.,
          79., 22. ]
      - [ 47., 44., 23., 39., 27., 15., 60., 35., 17., 11., 17., 74.,
          33., 26., 12., 27., 30., 36., 100., 19., 99., 20., 34., 38.,
          21., 38., 36., 14., 22., 25., 48., 22., 25., 49., 42., 16.,
          26., 17., 35., 48., 25., 15., 89., 12., 29., 20., 24., 19.,
          46., 20. ]
      - [ 50., 23., 42., 26., 9., 12., 36., 33., 10., 9., 10., 104., 39.,
          26., 13., 11., 9., 61., 125., 36., 129., 26., 48., 35., 45.,
          18., 42., 8., 39., 39., 49., 27., 38., 43., 34., 7., 30., 28.,
          22., 17., 18., 10., 56., 8., 41., 29., 37., 17., 51., 17. ]
      - [ 30., 7., 15., 11., 5., 14., 14., 10., 6., 3., 5., 40., 8., 12.,
          9., 8., 4., 15., 87., 1., 62., 8., 14., 22., 14., 10., 19., 5.,
          11., 7., 99., 12., 10., 22., 17., 5., 14., 14., 9., 9., 8., 5.,
          35., 6., 12., 14., 6., 4., 12., 4. ]
      - [ 48., 54., 97., 66., 55., 70., 62., 110., 39., 61., 36., 24.,
          103., 72., 54., 25., 34., 116., 92., 120., 82., 79., 70., 31.,
          92., 47., 83., 55., 101., 110., 62., 70., 88., 11., 46., 29.,
          79., 29., 75., 72., 66., 70., 31., 46., 101., 65., 109., 59.,
          32., 64. ]
      - [ 9., 2., 1., 9., 7., 2., 9., 1., 4., 1., 1., 9., 4., 3., 1., 2.,
          6., 4., 18., 4., 3., 3., 16., 16., 1., 4., 22., 4., 11., 10.,
          2., 8., 7., 7., 9., 3., 1., 3., 12., 8., 4., 0., 24., 5., 2.,
          9., 8., 1., 4., 4. ]
      - [ 106., 91., 27., 29., 52., 35., 39., 36., 39., 23., 39., 83.,
          43., 69., 55., 50., 68., 44., 98., 55., 112., 44., 93., 94.,
          34., 43., 97., 50., 38., 46., 131., 72., 41., 94., 57., 36.,
          41., 37., 37., 102., 59., 31., 79., 18., 42., 39., 40., 46.,
          70., 41. ]
      - [ 85., 35., 16., 30., 15., 8., 31., 10., 9., 15., 13., 35., 5.,
          27., 34., 21., 30., 27., 74., 21., 64., 16., 50., 65., 17.,
          28., 57., 21., 29., 31., 66., 30., 23., 44., 41., 17., 21.,
          17., 21., 30., 28., 13., 64., 14., 11., 19., 32., 24., 54.,
          19. ]
      - [ 55., 19., 8., 7., 5., 5., 16., 4., 1., 5., 4., 0., 16., 24.,
          17., 6., 4., 9., 33., 23., 11., 10., 18., 13., 12., 5., 13.,
          7., 1., 7., 47., 15., 8., 3., 10., 3., 3., 3., 10., 12., 12.,
          7., 8., 1., 6., 8., 8., 5., 5., 9. ]
      - [ 21., 8., 3., 13., 6., 4., 16., 5., 5., 3., 3., 29., 11., 4.,
          1., 5., 3., 14., 19., 0., 19., 3., 16., 14., 8., 15., 24., 3.,
          23., 13., 8., 4., 15., 8., 8., 3., 9., 8., 18., 11., 11., 2.,
          18., 3., 6., 10., 8., 11., 13., 1. ]
      - [ 147., 42., 139., 56., 17., 51., 69., 88., 24., 21., 17., 69.,
          91., 57., 27., 27., 10., 153., 235., 46., 216., 65., 61., 37.,
          162., 42., 62., 27., 99., 88., 139., 69., 108., 34., 61., 21.,
          94., 36., 68., 53., 54., 30., 70., 19., 101., 63., 87., 37.,
          95., 49. ]
      - [ 22., 15., 3., 14., 4., 4., 16., 3., 21., 9., 5., 58., 4., 2.,
          1., 8., 5., 10., 26., 1., 17., 8., 19., 54., 2., 10., 17., 2.,
          35., 11., 32., 1., 15., 33., 23., 21., 5., 11., 19., 13., 7.,
          6., 41., 19., 4., 7., 10., 2., 3., 7. ]
      - [ 95., 15., 42., 32., 11., 14., 57., 17., 12., 10., 7., 26., 17.,
          27., 10., 14., 9., 36., 174., 25., 119., 20., 50., 33., 46.,
          22., 45., 22., 42., 27., 154., 19., 40., 22., 32., 6., 24.,
          20., 42., 14., 27., 7., 45., 5., 35., 36., 32., 18., 56., 22. ]
      - [ 4., 11., 6., 6., 17., 9., 14., 5., 8., 7., 0., 6., 3., 4., 5.,
          5., 8., 15., 20., 3., 6., 6., 8., 8., 6., 5., 8., 4., 10., 7.,
          5., 7., 12., 5., 7., 6., 5., 4., 2., 5., 4., 7., 15., 16., 3.,
          9., 18., 4., 2., 2. ]
      - [ 26., 26., 22., 26., 17., 17., 43., 20., 12., 12., 15., 42.,
          20., 23., 12., 18., 15., 35., 76., 23., 87., 9., 37., 22., 37.,
          21., 35., 15., 23., 43., 43., 20., 31., 14., 25., 9., 19., 21.,
          29., 24., 16., 12., 46., 11., 28., 16., 32., 7., 34., 24. ]
      - [ 58., 71., 35., 18., 48., 33., 35., 37., 13., 35., 16., 38.,
          40., 50., 62., 32., 72., 28., 38., 66., 33., 45., 31., 81.,
          41., 58., 21., 55., 17., 36., 44., 58., 30., 51., 68., 25.,
          39., 26., 25., 51., 45., 36., 68., 36., 25., 44., 43., 46.,
          49., 45. ]
      - [ 123., 49., 28., 42., 28., 31., 70., 27., 21., 11., 12., 66.,
          31., 36., 39., 20., 27., 52., 149., 30., 119., 26., 80., 90.,
          25., 46., 69., 35., 28., 40., 158., 31., 51., 75., 80., 17.,
          39., 19., 40., 36., 22., 14., 66., 21., 18., 54., 42., 31.,
          78., 27. ]
      - [ 6., 16., 17., 15., 9., 20., 18., 12., 13., 4., 13., 139., 16.,
          9., 13., 26., 8., 34., 78., 3., 65., 17., 14., 34., 13., 23.,
          20., 7., 26., 13., 27., 10., 35., 31., 48., 12., 12., 48., 25.,
          18., 20., 4., 100., 1., 16., 15., 13., 16., 44., 16. ]
      - [ 37., 25., 72., 17., 19., 51., 20., 38., 7., 23., 14., 17., 45.,
          33., 35., 9., 5., 38., 37., 103., 29., 54., 25., 32., 71., 9.,
          32., 41., 21., 49., 34., 37., 23., 26., 26., 10., 25., 11.,
          26., 17., 40., 23., 36., 15., 30., 24., 34., 39., 27., 62. ]
      - [ 115., 46., 18., 13., 24., 20., 23., 23., 6., 15., 13., 54.,
          32., 43., 42., 25., 24., 22., 59., 31., 52., 22., 32., 87.,
          26., 32., 22., 29., 19., 36., 77., 37., 27., 69., 55., 19.,
          27., 29., 26., 29., 16., 15., 94., 10., 29., 28., 32., 14.,
          28., 25. ]
      - [ 15., 42., 13., 26., 11., 14., 4., 17., 8., 4., 12., 74., 8.,
          9., 13., 21., 10., 24., 34., 6., 40., 10., 27., 32., 11., 21.,
          20., 9., 14., 14., 8., 6., 39., 56., 33., 20., 7., 31., 17.,
          37., 9., 4., 76., 1., 11., 5., 7., 2., 44., 11. ]
      - [ 70., 11., 25., 24., 8., 17., 28., 18., 4., 9., 8., 68., 24.,
          25., 12., 8., 5., 28., 135., 22., 109., 10., 38., 88., 26.,
          16., 42., 14., 26., 23., 114., 19., 38., 74., 34., 7., 20.,
          13., 21., 14., 18., 17., 48., 6., 20., 27., 32., 14., 50., 12. ]
      - [ 36., 15., 29., 26., 11., 16., 26., 21., 7., 6., 6., 85., 16.,
          12., 6., 16., 5., 52., 72., 7., 88., 15., 27., 29., 36., 12.,
          24., 9., 66., 20., 54., 16., 47., 26., 33., 11., 23., 35., 17.,
          15., 33., 6., 69., 10., 34., 17., 31., 28., 38., 5. ]
      - [ 117., 26., 31., 14., 10., 18., 24., 27., 9., 5., 7., 137., 19.,
          27., 11., 10., 9., 54., 183., 19., 193., 18., 32., 79., 34.,
          29., 33., 8., 39., 37., 128., 27., 55., 83., 47., 12., 15.,
          32., 20., 24., 19., 13., 206., 3., 43., 12., 37., 10., 54.,
          16. ]
      - [ 4., 12., 2., 10., 8., 5., 6., 1., 2., 1., 4., 92., 3., 4., 7.,
          7., 12., 15., 41., 8., 64., 3., 9., 25., 3., 18., 15., 2., 23.,
          8., 5., 2., 19., 21., 48., 5., 3., 10., 4., 9., 8., 4., 45.,
          1., 10., 1., 4., 3., 23., 5. ]
      - [ 351., 121., 127., 103., 93., 102., 138., 85., 57., 76., 62.,
          230., 102., 155., 141., 84., 91., 115., 173., 217., 155., 105.,
          113., 303., 150., 133., 109., 109., 81., 119., 558., 137.,
          110., 272., 183., 75., 90., 71., 112., 129., 102., 69., 207.,
          71., 103., 116., 110., 81., 152., 180. ]
      - [ 17., 18., 15., 16., 12., 23., 16., 13., 9., 2., 6., 134., 19.,
          3., 5., 16., 10., 32., 46., 0., 100., 11., 17., 34., 18., 32.,
          24., 2., 56., 19., 24., 4., 27., 31., 55., 6., 30., 26., 25.,
          19., 22., 5., 91., 11., 37., 4., 27., 17., 33., 8. ]
      - [ 204., 53., 27., 37., 50., 34., 46., 34., 23., 24., 38., 75.,
          31., 72., 59., 28., 59., 29., 47., 81., 13., 35., 49., 128.,
          40., 70., 46., 57., 11., 34., 248., 65., 24., 66., 54., 18.,
          20., 24., 47., 50., 30., 27., 96., 46., 20., 63., 45., 39.,
          45., 46. ]
      - [ 184., 57., 69., 42., 42., 74., 59., 44., 15., 38., 19., 148.,
          51., 51., 63., 27., 44., 53., 180., 101., 123., 58., 66., 105.,
          76., 49., 72., 76., 31., 61., 253., 60., 43., 43., 63., 19.,
          35., 36., 34., 55., 69., 44., 114., 15., 52., 34., 49., 69.,
          59., 68. ]
      - [ 10., 5., 11., 2., 4., 2., 7., 3., 1., 3., 1., 23., 2., 6., 3.,
          5., 3., 3., 11., 1., 11., 3., 4., 6., 12., 14., 6., 2., 9., 9.,
          12., 8., 5., 12., 3., 4., 6., 11., 2., 12., 2., 2., 19., 0.,
          5., 12., 4., 3., 1., 4. ]
      - [ 93., 24., 35., 23., 8., 15., 25., 26., 14., 11., 8., 41., 22.,
          30., 29., 15., 14., 33., 48., 30., 47., 13., 29., 28., 41.,
          19., 30., 18., 31., 27., 117., 35., 26., 24., 16., 9., 28.,
          18., 21., 22., 15., 7., 45., 10., 26., 15., 38., 14., 22., 27. ]
      - [ 393., 167., 436., 138., 121., 226., 174., 234., 73., 114., 60.,
          64., 239., 246., 251., 61., 116., 220., 207., 481., 177., 242.,
          187., 183., 462., 116., 187., 259., 127., 219., 541., 300.,
          152., 79., 139., 77., 154., 69., 147., 168., 206., 158., 85.,
          93., 156., 127., 196., 207., 114., 416. ]
      - [ 11., 3., 1., 1., 3., 0., 1., 0., 1., 0., 1., 12., 2., 4., 1.,
          2., 8., 1., 4., 0., 2., 2., 1., 6., 0., 2., 0., 4., 1., 0., 5.,
          1., 2., 7., 2., 0., 1., 0., 0., 5., 1., 1., 37., 0., 2., 0.,
          1., 2., 0., 1. ]
      - [ 11., 11., 21., 6., 4., 9., 25., 20., 7., 5., 7., 165., 15.,
          11., 4., 32., 3., 32., 143., 2., 187., 13., 19., 12., 20., 24.,
          20., 4., 31., 18., 43., 8., 41., 14., 30., 10., 10., 31., 10.,
          16., 15., 3., 120., 5., 23., 10., 29., 7., 35., 11. ]
      - [ 135., 161., 131., 63., 124., 131., 89., 90., 59., 91., 40.,
          178., 97., 105., 141., 65., 115., 104., 178., 155., 193., 144.,
          125., 112., 142., 96., 129., 140., 97., 152., 240., 109., 79.,
          49., 71., 50., 93., 52., 68., 134., 120., 98., 97., 83., 70.,
          101., 127., 123., 72., 151. ]
      - [ 27., 9., 15., 8., 9., 4., 12., 15., 2., 1., 3., 77., 23., 7.,
          4., 9., 14., 28., 106., 0., 131., 7., 16., 17., 17., 18., 13.,
          8., 18., 19., 38., 10., 19., 18., 19., 3., 8., 9., 4., 12., 9.,
          3., 90., 2., 15., 9., 20., 3., 29., 3. ]
      - [ 41., 23., 28., 22., 21., 24., 12., 27., 17., 16., 16., 84.,
          25., 20., 15., 14., 23., 39., 99., 55., 137., 21., 31., 28.,
          35., 30., 22., 17., 33., 15., 64., 24., 33., 20., 35., 9., 35.,
          21., 23., 13., 17., 8., 39., 12., 25., 11., 27., 9., 35., 14. ]
      - [ 52., 21., 36., 27., 15., 26., 21., 21., 8., 3., 8., 341., 26.,
          12., 14., 33., 9., 57., 239., 5., 298., 21., 42., 89., 34.,
          83., 34., 11., 46., 50., 80., 18., 55., 109., 101., 5., 37.,
          40., 23., 23., 32., 8., 372., 15., 42., 38., 45., 10., 100.,
          14. ]
      - [ 26., 12., 12., 14., 11., 12., 14., 14., 7., 6., 7., 33., 28.,
          9., 9., 11., 5., 18., 40., 12., 17., 18., 16., 15., 20., 24.,
          17., 9., 11., 13., 29., 16., 24., 17., 16., 5., 8., 14., 15.,
          18., 7., 7., 47., 6., 14., 11., 15., 8., 23., 11. ]
      - [ 239., 306., 189., 172., 228., 229., 120., 206., 181., 166.,
          141., 89., 237., 276., 240., 164., 206., 190., 96., 255., 86.,
          217., 192., 414., 196., 154., 218., 229., 149., 189., 302.,
          246., 144., 361., 233., 164., 139., 157., 193., 315., 245.,
          203., 220., 188., 132., 143., 155., 212., 213., 218. ]
      - [ 31., 8., 16., 7., 1., 5., 20., 7., 3., 1., 0., 49., 6., 7., 2.,
          9., 0., 14., 68., 7., 62., 9., 11., 5., 18., 11., 11., 1., 10.,
          16., 66., 9., 11., 10., 14., 0., 5., 9., 11., 6., 9., 6., 29.,
          0., 10., 8., 9., 10., 13., 9. ]
      - [ 26., 6., 28., 26., 5., 12., 13., 20., 8., 3., 6., 167., 24.,
          18., 5., 25., 2., 39., 108., 41., 64., 11., 14., 39., 29., 27.,
          17., 2., 23., 17., 21., 13., 51., 54., 34., 6., 10., 40., 13.,
          12., 13., 4., 126., 1., 14., 10., 26., 11., 42., 25. ]
      - [ 24., 46., 16., 11., 23., 14., 39., 18., 10., 15., 7., 32., 29.,
          24., 14., 15., 35., 27., 29., 19., 37., 21., 25., 28., 17.,
          24., 20., 11., 28., 31., 20., 24., 24., 27., 37., 9., 13., 24.,
          18., 49., 32., 17., 72., 12., 9., 11., 26., 15., 17., 10. ]
      - [ 15., 6., 12., 4., 2., 4., 15., 4., 3., 1., 5., 28., 8., 4., 2.,
          5., 4., 13., 15., 7., 17., 7., 6., 11., 9., 20., 15., 2., 11.,
          11., 20., 6., 13., 9., 15., 2., 2., 13., 7., 7., 6., 2., 37.,
          1., 2., 3., 10., 6., 11., 7. ]
      - [ 8., 1., 2., 0., 2., 1., 2., 0., 0., 1., 1., 0., 0., 3., 2., 1.,
          2., 0., 1., 2., 2., 0., 1., 11., 0., 1., 0., 1., 0., 0., 1.,
          6., 1., 2., 0., 3., 0., 0., 0., 3., 1., 1., 17., 0., 2., 0.,
          0., 0., 0., 1. ]
      - [ 11., 7., 3., 4., 5., 4., 11., 8., 3., 2., 2., 1., 3., 5., 9.,
          4., 3., 7., 7., 2., 3., 4., 6., 6., 4., 3., 8., 5., 4., 11.,
          12., 3., 5., 1., 2., 1., 3., 7., 3., 6., 2., 5., 5., 4., 5.,
          1., 11., 9., 5., 1. ]
      - [ 18., 20., 15., 26., 22., 14., 12., 23., 27., 22., 10., 49.,
          36., 19., 12., 19., 37., 39., 23., 21., 45., 8., 9., 10., 15.,
          18., 21., 16., 37., 17., 10., 22., 22., 14., 16., 23., 17.,
          22., 17., 22., 17., 18., 43., 25., 29., 16., 15., 14., 14.,
          11. ]
      - [ 63., 26., 13., 16., 8., 10., 15., 14., 12., 10., 11., 91., 18.,
          17., 15., 18., 9., 17., 64., 17., 62., 15., 20., 55., 15., 31.,
          23., 7., 28., 27., 81., 13., 20., 47., 27., 7., 17., 20., 14.,
          18., 17., 13., 86., 11., 10., 26., 18., 9., 30., 17. ]
      - [ 1763., 2042., 519., 896., 1608., 981., 835., 1038., 1171.,
          1158., 1210., 868., 951., 1905., 1621., 1213., 2208., 586.,
          944., 1949., 611., 988., 782., 2033., 479., 795., 787., 1658.,
          415., 845., 1884., 1783., 460., 1733., 1178., 1354., 540.,
          913., 981., 1950., 1027., 1132., 1151., 1522., 453., 767.,
          572., 1068., 933., 914. ]
      - [ 11., 12., 7., 2., 6., 2., 1., 11., 0., 5., 2., 54., 8., 5., 2.,
          10., 5., 16., 15., 5., 25., 6., 9., 5., 5., 6., 4., 5., 16.,
          9., 6., 6., 13., 19., 7., 9., 24., 19., 6., 16., 7., 5., 33.,
          3., 12., 12., 5., 4., 12., 2. ]
      - [ 63., 29., 7., 4., 12., 19., 10., 18., 5., 9., 2., 85., 9., 13.,
          9., 15., 9., 17., 40., 11., 98., 9., 17., 37., 11., 23., 23.,
          6., 9., 13., 63., 17., 13., 39., 36., 2., 19., 16., 6., 30.,
          13., 4., 72., 11., 17., 10., 8., 12., 17., 12. ]
      - [ 56., 15., 39., 12., 8., 10., 39., 13., 11., 6., 8., 30., 18.,
          31., 12., 10., 9., 29., 98., 22., 71., 13., 19., 38., 48., 18.,
          14., 10., 8., 20., 64., 29., 12., 34., 38., 8., 15., 8., 16.,
          20., 13., 17., 59., 5., 24., 18., 20., 19., 45., 30. ]
      - [ 75., 15., 17., 11., 8., 11., 14., 16., 7., 16., 5., 44., 17.,
          27., 17., 10., 6., 16., 33., 21., 36., 15., 16., 51., 13., 28.,
          14., 11., 4., 8., 57., 40., 21., 42., 24., 2., 8., 14., 3.,
          18., 19., 9., 63., 7., 10., 18., 11., 9., 26., 20. ]
      - [ 8., 7., 1., 7., 3., 4., 1., 3., 6., 0., 3., 23., 3., 2., 1.,
          3., 8., 9., 5., 0., 12., 3., 12., 5., 1., 8., 9., 1., 14., 5.,
          5., 1., 11., 6., 9., 4., 2., 6., 9., 11., 4., 0., 33., 2., 3.,
          0., 3., 0., 2., 0. ]
      - [ 41., 15., 4., 6., 11., 2., 6., 5., 7., 4., 4., 32., 9., 14.,
          7., 9., 5., 3., 3., 3., 10., 8., 9., 30., 4., 8., 10., 5., 7.,
          7., 36., 8., 4., 10., 12., 2., 5., 5., 4., 11., 9., 5., 28.,
          1., 2., 5., 3., 5., 6., 14. ]
      - [ 23., 7., 4., 4., 2., 8., 2., 5., 1., 4., 3., 27., 6., 1., 5.,
          4., 2., 11., 40., 8., 37., 8., 4., 9., 11., 13., 6., 2., 14.,
          9., 10., 2., 5., 12., 11., 2., 5., 4., 6., 14., 4., 6., 31.,
          2., 11., 7., 16., 1., 9., 4. ]
      - [ 232., 11., 10., 8., 12., 5., 17., 5., 1., 10., 4., 26., 9.,
          17., 14., 1., 4., 6., 23., 24., 26., 6., 44., 52., 6., 10.,
          38., 15., 4., 13., 255., 16., 5., 29., 26., 5., 3., 0., 4., 8.,
          12., 9., 9., 16., 4., 17., 12., 12., 19., 14. ]
      - [ 40., 19., 10., 5., 7., 7., 8., 14., 7., 7., 7., 100., 7., 18.,
          6., 15., 11., 17., 47., 12., 60., 12., 25., 48., 18., 24., 24.,
          6., 13., 20., 75., 9., 19., 63., 31., 5., 8., 24., 8., 15., 9.,
          6., 127., 7., 14., 6., 16., 7., 26., 13. ]
      - [ 0., 1., 2., 2., 2., 0., 1., 0., 0., 0., 1., 43., 1., 0., 0.,
          2., 1., 6., 0., 0., 2., 0., 1., 3., 2., 3., 2., 0., 3., 2., 0.,
          0., 4., 2., 2., 2., 0., 7., 1., 2., 1., 0., 27., 0., 1., 0.,
          1., 0., 2., 0. ]
      - [ 133., 32., 38., 19., 9., 15., 62., 28., 11., 11., 7., 63., 26.,
          29., 13., 23., 19., 37., 184., 19., 130., 15., 59., 97., 29.,
          59., 62., 9., 31., 27., 166., 23., 49., 58., 63., 10., 24.,
          23., 32., 32., 15., 7., 95., 13., 23., 60., 25., 8., 51., 17. ]
      - [ 19., 16., 30., 11., 19., 13., 15., 20., 9., 12., 7., 5., 20.,
          22., 9., 11., 18., 18., 16., 32., 10., 15., 10., 9., 29., 12.,
          6., 16., 12., 20., 21., 18., 11., 7., 7., 7., 10., 16., 12.,
          17., 12., 14., 26., 8., 25., 9., 17., 19., 7., 27. ]
      - [ 246., 20., 81., 25., 4., 24., 26., 44., 8., 24., 5., 22., 60.,
          69., 21., 21., 3., 63., 82., 129., 66., 21., 29., 62., 93.,
          20., 19., 22., 15., 35., 250., 88., 36., 68., 42., 13., 68.,
          17., 35., 19., 34., 23., 27., 9., 64., 49., 37., 34., 68., 35. ]
      - [ 442., 66., 46., 47., 21., 21., 80., 29., 36., 24., 4., 370.,
          23., 67., 31., 35., 28., 53., 192., 22., 152., 29., 70., 164.,
          54., 72., 90., 45., 52., 37., 554., 49., 31., 118., 69., 32.,
          32., 46., 53., 75., 22., 15., 485., 37., 39., 80., 44., 21.,
          112., 22. ]
      - [ 6., 4., 4., 4., 2., 3., 0., 1., 4., 0., 1., 21., 5., 1., 3.,
          3., 1., 7., 3., 1., 3., 2., 7., 6., 1., 6., 7., 1., 7., 3., 6.,
          2., 4., 8., 4., 2., 1., 5., 2., 3., 2., 0., 27., 0., 3., 0.,
          2., 1., 2., 2. ]
      - [ 7., 12., 10., 9., 10., 10., 15., 4., 3., 2., 3., 120., 10., 7.,
          3., 20., 2., 30., 34., 3., 30., 9., 7., 17., 10., 19., 9., 4.,
          14., 10., 5., 5., 31., 43., 45., 6., 6., 18., 6., 13., 8., 4.,
          83., 1., 21., 9., 17., 5., 70., 1. ]
      - [ 107., 19., 20., 17., 12., 16., 54., 10., 10., 16., 5., 39.,
          20., 36., 18., 9., 24., 15., 151., 52., 68., 18., 60., 62.,
          25., 22., 43., 18., 15., 25., 272., 23., 17., 21., 29., 14.,
          32., 5., 19., 26., 8., 20., 19., 18., 21., 25., 27., 14., 99.,
          21. ]
      - [ 21., 5., 11., 3., 5., 4., 3., 6., 1., 3., 3., 0., 6., 9., 8.,
          3., 3., 6., 3., 11., 1., 6., 4., 8., 8., 3., 2., 6., 1., 2.,
          18., 8., 7., 3., 13., 0., 1., 2., 2., 10., 4., 3., 4., 2., 2.,
          5., 4., 3., 1., 7. ]
      - [ 4., 2., 12., 3., 2., 2., 5., 2., 2., 5., 0., 6., 2., 4., 2.,
          3., 4., 7., 25., 3., 18., 2., 4., 1., 12., 4., 7., 1., 3., 4.,
          4., 1., 4., 8., 1., 3., 2., 1., 7., 3., 2., 2., 15., 4., 8.,
          4., 7., 1., 4., 5. ]
      - [ 115., 32., 64., 27., 28., 28., 72., 38., 12., 25., 13., 27.,
          49., 42., 32., 17., 17., 53., 73., 54., 80., 32., 35., 46.,
          83., 39., 40., 28., 22., 49., 100., 56., 43., 23., 35., 17.,
          35., 9., 30., 34., 34., 33., 48., 12., 41., 36., 44., 28., 44.,
          49. ]
      - [ 112., 157., 71., 50., 55., 53., 24., 64., 108., 85., 147.,
          280., 60., 197., 114., 182., 209., 83., 266., 136., 249., 52.,
          52., 235., 73., 87., 58., 117., 70., 63., 154., 130., 69.,
          363., 179., 141., 147., 136., 38., 199., 74., 49., 340., 136.,
          78., 80., 57., 73., 116., 42. ]
      - [ 36., 10., 7., 5., 7., 6., 12., 8., 3., 4., 2., 5., 4., 4., 6.,
          1., 10., 5., 9., 2., 7., 6., 13., 18., 5., 9., 6., 10., 7.,
          15., 27., 8., 7., 7., 11., 3., 4., 7., 1., 7., 5., 2., 15., 4.,
          9., 8., 12., 1., 8., 3. ]
      - [ 148., 75., 35., 51., 81., 60., 44., 52., 45., 57., 39., 98.,
          39., 92., 66., 38., 85., 53., 75., 144., 50., 49., 49., 121.,
          51., 82., 46., 72., 21., 43., 222., 79., 39., 75., 63., 30.,
          54., 36., 39., 67., 84., 59., 125., 61., 38., 45., 39., 67.,
          89., 84. ]
      - [ 9., 18., 3., 17., 9., 11., 11., 7., 10., 4., 10., 39., 8., 8.,
          14., 16., 11., 14., 27., 8., 31., 9., 16., 26., 9., 9., 25.,
          8., 27., 17., 15., 4., 14., 27., 20., 11., 12., 13., 26., 9.,
          8., 7., 45., 14., 14., 10., 11., 7., 17., 7. ]
      - [ 1., 5., 6., 3., 2., 3., 5., 7., 3., 1., 4., 16., 10., 3., 3.,
          7., 2., 11., 28., 0., 20., 4., 6., 13., 5., 10., 12., 3., 5.,
          2., 1., 3., 10., 5., 9., 1., 4., 10., 8., 3., 10., 0., 9., 5.,
          4., 2., 6., 6., 14., 1. ]
      - [ 27., 15., 2., 20., 7., 5., 8., 5., 6., 2., 2., 68., 7., 3., 2.,
          11., 2., 7., 15., 0., 9., 3., 11., 26., 2., 17., 6., 3., 7.,
          7., 15., 1., 7., 35., 20., 5., 2., 9., 14., 14., 5., 2., 78.,
          3., 7., 1., 3., 2., 16., 2. ]
      - [ 13., 3., 0., 3., 2., 2., 6., 1., 2., 0., 1., 4., 4., 5., 4.,
          2., 0., 0., 17., 2., 11., 1., 10., 6., 4., 3., 17., 2., 6., 3.,
          28., 3., 1., 2., 3., 4., 1., 1., 6., 5., 0., 0., 1., 4., 1.,
          8., 4., 2., 4., 2. ]
      - [ 1., 4., 0., 5., 2., 5., 1., 3., 3., 0., 1., 15., 3., 1., 0.,
          7., 3., 9., 4., 1., 8., 4., 3., 0., 2., 5., 6., 1., 6., 8., 0.,
          3., 0., 6., 1., 0., 3., 8., 8., 3., 3., 0., 19., 1., 4., 2.,
          1., 0., 3., 0. ]
      - [ 27., 3., 5., 1., 4., 2., 6., 2., 1., 1., 0., 1., 4., 8., 2.,
          0., 2., 5., 5., 7., 1., 7., 9., 8., 4., 1., 5., 1., 8., 5.,
          46., 8., 5., 1., 4., 2., 4., 5., 4., 6., 4., 0., 8., 1., 0.,
          4., 10., 2., 2., 4. ]
      - [ 0., 6., 5., 8., 4., 11., 6., 6., 5., 2., 4., 64., 7., 11., 3.,
          12., 6., 16., 43., 2., 101., 5., 10., 9., 13., 11., 11., 1.,
          11., 11., 1., 7., 31., 34., 11., 4., 9., 17., 9., 6., 8., 1.,
          33., 0., 8., 3., 13., 2., 35., 4. ]
      - [ 40., 5., 9., 7., 6., 4., 12., 8., 5., 4., 0., 27., 7., 18., 5.,
          6., 1., 16., 32., 13., 33., 9., 9., 21., 14., 3., 15., 7., 9.,
          11., 39., 18., 13., 8., 9., 0., 8., 6., 9., 6., 5., 2., 23.,
          5., 18., 5., 13., 6., 13., 5. ]
      - [ 2., 5., 3., 1., 4., 7., 4., 5., 3., 0., 1., 34., 5., 2., 0.,
          5., 2., 11., 11., 0., 16., 4., 11., 2., 4., 21., 10., 1., 8.,
          12., 2., 1., 7., 4., 7., 4., 1., 8., 8., 5., 1., 0., 22., 0.,
          2., 0., 8., 4., 2., 1. ]
      - [ 143., 25., 34., 8., 8., 21., 34., 15., 10., 11., 9., 75., 22.,
          35., 19., 30., 9., 35., 75., 18., 93., 20., 13., 114., 37.,
          33., 8., 21., 13., 30., 107., 33., 26., 72., 55., 14., 44.,
          27., 8., 32., 27., 12., 93., 4., 22., 51., 14., 20., 43., 16. ]
      - [ 17., 18., 10., 9., 5., 10., 11., 14., 6., 5., 4., 67., 14.,
          13., 7., 11., 6., 19., 43., 6., 33., 7., 14., 18., 16., 17.,
          6., 6., 26., 10., 26., 10., 21., 23., 14., 4., 8., 23., 9.,
          19., 4., 5., 58., 4., 17., 10., 15., 7., 15., 10. ]
      - [ 105., 95., 84., 39., 69., 62., 50., 67., 34., 38., 32., 208.,
          69., 56., 65., 50., 58., 85., 113., 83., 136., 74., 57., 118.,
          76., 71., 57., 68., 53., 87., 232., 62., 65., 85., 96., 35.,
          72., 67., 48., 96., 66., 49., 181., 46., 57., 44., 58., 70.,
          87., 72. ]
      - [ 106., 117., 66., 39., 84., 83., 51., 51., 33., 41., 39., 146.,
          43., 70., 71., 62., 96., 79., 102., 101., 142., 66., 47., 105.,
          67., 74., 61., 57., 47., 70., 118., 57., 55., 71., 87., 39.,
          82., 53., 46., 102., 84., 67., 144., 52., 64., 46., 79., 92.,
          64., 78. ]
      - [ 4., 3., 0., 2., 2., 4., 1., 2., 0., 0., 1., 23., 1., 2., 2.,
          4., 3., 4., 5., 1., 7., 0., 4., 11., 4., 3., 6., 1., 4., 3.,
          7., 0., 9., 4., 6., 2., 1., 6., 3., 5., 1., 0., 27., 0., 1.,
          0., 2., 2., 1., 2. ]
      - [ 29., 13., 38., 8., 6., 12., 20., 9., 5., 2., 1., 94., 20., 12.,
          4., 12., 5., 41., 120., 15., 126., 12., 19., 51., 24., 29.,
          17., 6., 9., 22., 22., 14., 47., 52., 33., 5., 6., 16., 10.,
          13., 17., 10., 118., 1., 20., 5., 20., 20., 28., 11. ]
      - [ 5., 6., 7., 3., 4., 0., 7., 2., 1., 3., 1., 17., 5., 4., 3.,
          7., 5., 8., 9., 0., 6., 2., 5., 2., 1., 8., 3., 7., 7., 7., 2.,
          3., 8., 4., 5., 0., 0., 4., 5., 2., 2., 4., 7., 1., 0., 3., 6.,
          2., 3., 2. ]
      - [ 4., 12., 11., 10., 3., 9., 20., 8., 9., 0., 5., 119., 10., 5.,
          0., 17., 5., 21., 92., 3., 103., 8., 10., 5., 10., 23., 6., 2.,
          31., 11., 12., 3., 19., 19., 15., 5., 4., 21., 8., 11., 10.,
          2., 85., 0., 15., 6., 11., 6., 33., 2. ]
      - [ 1., 6., 4., 2., 2., 3., 3., 2., 1., 1., 2., 66., 0., 0., 1.,
          3., 1., 6., 19., 1., 40., 5., 8., 5., 5., 5., 9., 2., 13., 4.,
          0., 1., 6., 4., 3., 0., 3., 8., 3., 7., 0., 0., 21., 0., 7.,
          1., 5., 2., 4., 0. ]
      - [ 4., 7., 2., 3., 4., 1., 3., 0., 3., 0., 1., 65., 4., 0., 3.,
          6., 2., 12., 63., 4., 43., 1., 4., 8., 1., 10., 6., 3., 14.,
          5., 6., 4., 16., 12., 15., 5., 11., 5., 2., 5., 2., 1., 55.,
          1., 6., 7., 5., 1., 4., 3. ]
      - [ 10., 10., 11., 9., 6., 7., 15., 6., 7., 4., 3., 52., 9., 9.,
          5., 4., 3., 10., 38., 7., 38., 7., 10., 8., 15., 9., 18., 4.,
          16., 8., 10., 8., 18., 11., 12., 7., 6., 8., 13., 10., 6., 3.,
          43., 2., 6., 3., 11., 2., 12., 5. ]
      - [ 0., 4., 3., 6., 2., 1., 2., 2., 1., 0., 0., 26., 4., 1., 0.,
          3., 0., 11., 21., 4., 16., 0., 5., 4., 1., 2., 8., 0., 24., 5.,
          6., 0., 8., 5., 10., 0., 1., 5., 5., 3., 1., 0., 27., 1., 1.,
          1., 8., 1., 8., 1. ]
      - [ 10., 3., 3., 5., 3., 2., 4., 7., 1., 1., 1., 44., 9., 2., 1.,
          1., 1., 9., 37., 3., 26., 3., 2., 0., 11., 9., 8., 1., 5., 2.,
          10., 3., 9., 7., 3., 1., 0., 1., 1., 3., 1., 1., 20., 1., 8.,
          6., 6., 2., 4., 1. ]
      - [ 26., 6., 3., 5., 3., 2., 0., 2., 2., 2., 2., 49., 1., 5., 2.,
          5., 1., 19., 39., 2., 25., 5., 3., 30., 5., 20., 1., 4., 10.,
          8., 24., 3., 5., 34., 13., 0., 4., 4., 6., 9., 3., 0., 64., 1.,
          8., 13., 5., 5., 12., 0. ]
      - [ 13., 3., 8., 8., 1., 7., 7., 6., 2., 3., 2., 49., 8., 8., 1.,
          3., 1., 11., 40., 12., 43., 11., 2., 16., 4., 14., 7., 6., 6.,
          7., 19., 7., 8., 18., 22., 4., 6., 5., 5., 7., 7., 5., 38., 1.,
          9., 9., 9., 5., 22., 2. ]
      - [ 19., 15., 14., 16., 12., 4., 19., 7., 9., 8., 4., 38., 13.,
          17., 9., 12., 11., 18., 65., 16., 36., 13., 19., 11., 17., 12.,
          23., 6., 17., 10., 25., 9., 16., 29., 15., 5., 12., 15., 16.,
          17., 8., 5., 52., 10., 13., 12., 17., 3., 16., 15. ]
      - [ 6., 4., 12., 2., 4., 8., 7., 3., 2., 0., 2., 21., 2., 5., 1.,
          2., 2., 9., 25., 4., 13., 4., 6., 8., 15., 7., 10., 4., 6., 8.,
          8., 3., 5., 4., 8., 1., 5., 4., 8., 2., 4., 4., 14., 1., 1.,
          5., 5., 2., 2., 0. ]
      - [ 29., 7., 12., 6., 2., 4., 11., 10., 3., 7., 5., 12., 10., 11.,
          4., 4., 3., 22., 23., 6., 22., 6., 9., 6., 14., 6., 6., 2., 6.,
          5., 34., 9., 10., 1., 6., 2., 12., 5., 6., 7., 6., 6., 8., 4.,
          17., 7., 11., 1., 5., 8. ]
      - [ 21., 18., 10., 10., 13., 6., 17., 21., 11., 7., 2., 12., 17.,
          10., 7., 11., 11., 21., 25., 8., 24., 10., 16., 7., 14., 20.,
          14., 6., 21., 14., 31., 9., 15., 4., 12., 6., 18., 11., 8.,
          15., 11., 7., 18., 11., 15., 11., 15., 14., 11., 7. ]
      - [ 20., 15., 10., 10., 4., 8., 15., 12., 3., 7., 4., 34., 11.,
          11., 11., 7., 3., 7., 23., 12., 18., 12., 9., 9., 10., 16., 7.,
          6., 9., 9., 24., 11., 16., 9., 11., 5., 11., 10., 11., 13., 2.,
          4., 17., 7., 13., 15., 7., 8., 23., 8. ]
      - [ 5., 13., 31., 11., 8., 19., 13., 21., 7., 9., 4., 11., 22., 8.,
          9., 5., 6., 22., 18., 17., 15., 22., 9., 6., 41., 10., 9., 9.,
          12., 21., 14., 14., 14., 3., 7., 6., 17., 6., 10., 9., 23., 6.,
          11., 7., 20., 13., 15., 16., 6., 15. ]
      - [ 9., 14., 18., 15., 4., 8., 20., 9., 8., 3., 5., 28., 9., 4.,
          2., 9., 4., 18., 20., 7., 18., 11., 15., 15., 10., 13., 16.,
          4., 15., 21., 17., 5., 17., 18., 16., 10., 8., 13., 26., 16.,
          9., 6., 46., 2., 11., 12., 18., 5., 12., 10. ]
   decision_functions:
      -
         sv_count: 140
         rho: 1.2785324459222844e-01
         alpha: [ 1.0000001192093038e+00, 6.8283025841177380e-01,
             1.8183082884834187e+00, 1.2435957474987975e+00,
             1.2388748386487625e+00, 1.0315260341378416e+00,
             1.4375265425120383e+00, 8.8425181321774815e-01,
             2.1517253893121691e+00, 1.2611251613512375e+00,
             2.5000000000000000e+00, 1.9561832567966293e+00,
             1.8264136530617112e+00, 1.3742173032543012e+00,
             1.0347525326427822e+00, 1.5663560981675086e+00,
             2.5000000000000000e+00, 1.1865995214004774e+00,
             1.6416670495680477e+00, 2.5000000000000000e+00,
             1.4150177060020475e+00, 2.5000000000000000e+00,
             2.5000000000000000e+00, 2.5000000000000000e+00,
             1.8390180788303869e+00, 6.1986475252094797e-01,
             1.1800600142732938e+00, 6.7601657099563317e-01,
             1.2890833918277269e+00, 1.4490355146030900e+00,
             1.5784583414929412e+00, 1.4837819304916309e+00,
             1.7704322486682780e+00, 1.0129263184452701e+00,
             1.1260235318191008e+00, 1.0041546462446136e+00,
             1.1502858831632330e+00, 1.1350172787491855e+00,
             7.2956775133172203e-01, 1.4958453537553864e+00,
             1.5244404656340220e+00, 9.7834237358269127e-01,
             9.4722218349970477e-01, 9.7371843221756194e-01,
             1.0901126741835494e+00, 1.8171697415882262e+00,
             8.3523171647258099e-01, 1.2945907199732909e+00,
             1.0802263008425883e+00, 9.7056694013385258e-01,
             2.3208364486111361e+00, 9.6470844144017187e-01,
             1.1934717256787324e+00, 1.0074646619908243e+00,
             2.4850329745960114e+00, 1.5216576264173087e+00,
             1.4197736991574117e+00, 2.3982636939706832e+00,
             1.4150057729165959e+00, 1.4869244528763741e+00,
             2.5000000000000000e+00, 6.9499126195981598e-01,
             2.1474676845713656e+00, 2.2177570428700757e+00,
             9.3863027620936179e-01, 8.7388620160547759e-01,
             2.0990326307017710e+00, 1.3238969185892211e+00,
             1.9211752584507840e+00, 1.4512782016170434e+00,
             1.5109384423808672e+00, 1.1995821255312833e+00,
             1.1230065487743945e+00, -1.0000001192093038e+00,
             -1.1995821255312833e+00, -6.5812881795212408e-01,
             -1.5109384423808672e+00, -9.7056694013385258e-01,
             -1.1230065487743945e+00, -2.5000000000000000e+00,
             -1.1640015901961245e+00, -5.1925431699465618e-01,
             -2.4296984174847456e+00, -6.1986475252094797e-01,
             -5.9466208092488071e-01, -1.3827508936158643e+00,
             -1.4852569779156204e+00, -9.4722218349970477e-01,
             -2.5000000000000000e+00, -1.1172491063841357e+00,
             -9.1046982177900837e-01, -2.5000000000000000e+00,
             -2.5000000000000000e+00, -1.1727323742784699e+00,
             -2.5000000000000000e+00, -2.5000000000000000e+00,
             -2.5000000000000000e+00, -2.5000000000000000e+00,
             -1.5244404656340220e+00, -2.5000000000000000e+00,
             -2.5000000000000000e+00, -1.3736980495435982e+00,
             -2.5000000000000000e+00, -8.5277432161926114e-01,
             -1.1263019504564018e+00, -2.5000000000000000e+00,
             -7.7518250152639168e-01, -2.5000000000000000e+00,
             -8.3917123710682373e-01, -1.8264136530617112e+00,
             -1.6416670495680477e+00, -1.5663560981675086e+00,
             -2.5000000000000000e+00, -2.5000000000000000e+00,
             -2.5000000000000000e+00, -4.8809638861470628e-01,
             -1.4512782016170434e+00, -9.7371843221756194e-01,
             -7.7332337815775742e-01, -9.2854825705137856e-01,
             -2.1977831201946989e+00, -1.4837819304916309e+00,
             -1.6488732010565297e+00, -6.3095457387560283e-01,
             -2.5000000000000000e+00, -8.3523171647258099e-01,
             -1.0168370192371912e-01, -2.5000000000000000e+00,
             -1.1800600142732938e+00, -2.3876657908124517e+00,
             -1.1001595441577132e+00, -9.6494780154205695e-01,
             -2.5000000000000000e+00, -1.5784583414929412e+00,
             -5.3796885409638862e-01, -2.5000000000000000e+00,
             -2.5000000000000000e+00, -1.2343147078801564e+00,
             -1.1887077677458540e+00, -2.5000000000000000e+00 ]
         index: [ 0, 1, 2, 3, 4, 5, 6, 7, 8, 9, 10, 11, 12, 13, 14, 15,
             16, 17, 18, 19, 20, 21, 22, 23, 24, 25, 26, 27, 28, 29, 30,
             31, 32, 33, 34, 35, 36, 37, 38, 39, 40, 41, 42, 43, 44, 45,
             46, 47, 48, 49, 50, 51, 52, 53, 54, 55, 56, 57, 58, 59, 139,
             137, 127, 128, 129, 130, 131, 132, 133, 134, 135, 136, 138,
             60, 61, 62, 63, 64, 65, 66, 67, 68, 69, 70, 71, 72, 73, 74,
             75, 76, 108, 109, 110, 111, 112, 113, 77, 114, 115, 116,
             117, 118, 119, 120, 121, 122, 123, 124, 125, 126, 78, 79,
             80, 81, 82, 83, 84, 85, 86, 87, 88, 89, 90, 91, 92, 93, 94,
             95, 96, 97, 98, 99, 100, 101, 102, 103, 104, 105, 106, 107 ]
