%YAML:1.0
---
opencv_ml_svm:
   format: 3
   svmType: C_SVC
   kernel:
      type: RBF
      gamma: 1.5000000000000001e-04
   C: 2.5000000000000000e+00
   term_criteria: { iterations:100 }
   var_count: 50
   class_count: 2
   class_labels: !!opencv-matrix
      rows: 2
      cols: 1
      dt: i
      data: [ 0, 1 ]
   sv_total: 130
   support_vectors:
      - [ 17., 17., 15., 4., 10., 6., 15., 13., 5., 1., 4., 56., 6., 7.,
          4., 5., 3., 17., 71., 3., 76., 5., 16., 10., 11., 9., 14., 0.,
          20., 16., 13., 6., 11., 6., 16., 1., 13., 13., 9., 14., 2., 5.,
          43., 0., 15., 12., 12., 2., 13., 1. ]
      - [ 28., 7., 11., 9., 1., 8., 20., 11., 1., 5., 4., 17., 10., 6.,
          5., 15., 14., 19., 56., 9., 53., 5., 13., 12., 16., 7., 13.,
          3., 9., 7., 45., 4., 10., 24., 21., 4., 11., 11., 10., 4., 13.,
          5., 15., 0., 9., 15., 14., 8., 17., 6. ]
      - [ 17., 4., 3., 6., 4., 3., 12., 4., 1., 1., 0., 18., 2., 3., 1.,
          0., 0., 9., 24., 2., 33., 3., 7., 6., 6., 13., 8., 1., 8., 9.,
          7., 3., 8., 3., 6., 0., 2., 0., 7., 7., 4., 1., 26., 1., 5.,
          4., 6., 2., 5., 1. ]
      - [ 2., 1., 0., 0., 0., 0., 0., 0., 1., 0., 0., 2., 0., 0., 0., 2.,
          0., 6., 20., 0., 30., 0., 3., 0., 0., 0., 2., 1., 2., 1., 2.,
          1., 5., 0., 0., 0., 2., 0., 2., 0., 2., 0., 0., 0., 1., 0., 1.,
          0., 1., 0. ]
      - [ 24., 6., 12., 6., 1., 7., 15., 7., 0., 0., 3., 22., 9., 12.,
          6., 3., 3., 11., 82., 5., 77., 5., 17., 11., 21., 7., 19., 2.,
          14., 12., 45., 8., 10., 5., 14., 1., 5., 6., 6., 9., 3., 5.,
          30., 0., 11., 8., 10., 3., 12., 5. ]
      - [ 8., 8., 7., 8., 2., 6., 11., 6., 0., 1., 1., 11., 5., 5., 4.,
          4., 2., 15., 36., 3., 47., 4., 11., 8., 9., 6., 13., 2., 13.,
          9., 6., 3., 14., 3., 13., 2., 20., 4., 1., 9., 5., 0., 19., 0.,
          12., 11., 14., 1., 13., 0. ]
      - [ 3., 8., 5., 13., 6., 3., 10., 4., 1., 0., 4., 25., 6., 6., 2.,
          6., 6., 9., 65., 2., 39., 3., 8., 2., 1., 8., 7., 5., 12., 4.,
          16., 4., 4., 4., 2., 3., 1., 4., 7., 10., 5., 0., 36., 0., 2.,
          0., 6., 6., 3., 14. ]
      - [ 5., 8., 5., 4., 3., 7., 9., 4., 2., 1., 3., 21., 6., 5., 3.,
          2., 1., 13., 28., 3., 26., 4., 4., 6., 10., 2., 5., 1., 13.,
          5., 10., 2., 20., 10., 7., 7., 13., 4., 6., 3., 5., 2., 20.,
          3., 12., 4., 6., 3., 4., 7. ]
      - [ 1., 0., 2., 1., 0., 0., 2., 3., 1., 1., 0., 8., 3., 4., 0., 1.,
          0., 6., 25., 0., 23., 1., 5., 0., 6., 1., 2., 1., 9., 7., 5.,
          3., 6., 1., 1., 0., 1., 0., 1., 2., 1., 0., 2., 0., 6., 1., 6.,
          2., 7., 1. ]
      - [ 64., 7., 14., 5., 2., 8., 16., 11., 3., 6., 1., 17., 6., 19.,
          4., 7., 9., 21., 74., 28., 62., 7., 14., 16., 18., 10., 10.,
          10., 15., 6., 51., 27., 14., 17., 23., 3., 11., 14., 7., 3.,
          6., 7., 20., 2., 11., 18., 11., 16., 13., 19. ]
      - [ 1., 13., 4., 9., 8., 0., 15., 3., 6., 2., 2., 27., 4., 2., 6.,
          5., 8., 11., 35., 3., 35., 5., 6., 4., 8., 10., 10., 5., 22.,
          12., 7., 3., 16., 10., 7., 4., 5., 12., 8., 3., 5., 2., 38.,
          4., 10., 2., 9., 4., 7., 1. ]
      - [ 15., 2., 6., 5., 0., 0., 4., 4., 1., 0., 2., 27., 8., 3., 0.,
          1., 1., 5., 54., 4., 65., 3., 2., 34., 4., 4., 4., 3., 7., 3.,
          23., 4., 4., 25., 9., 0., 3., 2., 5., 5., 3., 1., 23., 1., 5.,
          11., 6., 0., 11., 1. ]
      - [ 11., 4., 0., 2., 0., 2., 5., 0., 2., 0., 0., 16., 2., 2., 0.,
          0., 0., 6., 42., 1., 47., 2., 2., 12., 2., 5., 1., 0., 3., 3.,
          22., 5., 1., 6., 10., 1., 1., 0., 2., 2., 4., 2., 13., 0., 4.,
          3., 5., 0., 9., 1. ]
      - [ 7., 2., 5., 2., 4., 2., 5., 4., 2., 0., 1., 15., 1., 2., 0.,
          2., 0., 6., 23., 2., 19., 1., 4., 2., 0., 6., 7., 0., 4., 6.,
          12., 2., 7., 4., 5., 0., 3., 5., 1., 2., 2., 1., 14., 0., 3.,
          0., 7., 3., 8., 0. ]
      - [ 3., 4., 1., 0., 0., 1., 0., 0., 0., 0., 0., 3., 1., 0., 0., 1.,
          0., 4., 17., 0., 32., 2., 2., 0., 1., 3., 4., 0., 2., 1., 2.,
          1., 1., 5., 3., 0., 0., 1., 0., 5., 0., 0., 3., 1., 0., 1., 1.,
          0., 2., 0. ]
      - [ 10., 2., 3., 3., 3., 1., 2., 6., 0., 0., 0., 25., 8., 4., 0.,
          2., 1., 8., 9., 1., 29., 4., 5., 3., 1., 3., 4., 1., 15., 5.,
          9., 1., 4., 3., 2., 0., 1., 0., 2., 2., 4., 0., 16., 0., 3.,
          3., 7., 1., 12., 0. ]
      - [ 3., 3., 3., 0., 0., 1., 0., 0., 1., 0., 1., 5., 1., 1., 0., 0.,
          1., 1., 8., 0., 14., 0., 4., 1., 2., 3., 3., 1., 14., 3., 3.,
          1., 4., 2., 0., 0., 1., 1., 1., 2., 1., 0., 4., 0., 3., 1., 2.,
          1., 0., 0. ]
      - [ 29., 5., 3., 1., 1., 4., 5., 3., 0., 3., 2., 29., 5., 5., 4.,
          6., 1., 3., 37., 3., 25., 3., 2., 20., 4., 2., 5., 4., 1., 6.,
          35., 3., 3., 13., 17., 1., 10., 2., 4., 6., 2., 5., 26., 1.,
          4., 24., 1., 3., 20., 3. ]
      - [ 13., 12., 7., 5., 5., 4., 4., 9., 3., 2., 2., 33., 3., 19., 3.,
          2., 3., 6., 44., 2., 48., 5., 6., 13., 9., 12., 7., 6., 10.,
          4., 36., 8., 4., 14., 15., 1., 14., 2., 4., 15., 2., 0., 39.,
          0., 7., 13., 2., 4., 12., 4. ]
      - [ 0., 3., 0., 1., 0., 0., 0., 0., 0., 0., 0., 4., 0., 0., 0., 0.,
          0., 1., 14., 0., 12., 0., 1., 0., 1., 1., 2., 0., 2., 1., 0.,
          0., 0., 0., 0., 0., 0., 1., 0., 3., 0., 0., 5., 0., 0., 0., 1.,
          0., 2., 0. ]
      - [ 1., 2., 4., 1., 0., 4., 5., 2., 2., 1., 0., 8., 4., 2., 0., 2.,
          1., 7., 14., 3., 27., 5., 2., 0., 2., 2., 0., 0., 4., 7., 2.,
          2., 6., 0., 0., 1., 1., 1., 1., 1., 2., 0., 5., 0., 4., 1.,
          10., 0., 1., 1. ]
      - [ 19., 4., 10., 7., 3., 1., 10., 12., 0., 1., 2., 27., 11., 8.,
          4., 3., 4., 8., 38., 4., 40., 2., 15., 7., 5., 5., 10., 2.,
          18., 6., 11., 4., 5., 14., 13., 3., 7., 8., 5., 6., 3., 0.,
          18., 1., 5., 6., 5., 2., 10., 5. ]
      - [ 2., 3., 4., 1., 1., 1., 3., 1., 1., 0., 2., 17., 2., 1., 0.,
          0., 1., 3., 22., 0., 16., 2., 3., 3., 2., 3., 0., 1., 6., 4.,
          7., 0., 8., 0., 4., 1., 1., 0., 3., 2., 3., 0., 12., 0., 0.,
          0., 4., 0., 3., 0. ]
      - [ 2., 2., 0., 0., 0., 1., 2., 0., 0., 0., 0., 8., 0., 1., 0., 0.,
          0., 1., 3., 0., 6., 1., 0., 2., 0., 2., 0., 0., 3., 1., 16.,
          1., 1., 2., 0., 0., 1., 0., 1., 3., 1., 0., 2., 0., 2., 2., 2.,
          1., 0., 0. ]
      - [ 12., 4., 4., 3., 1., 0., 3., 3., 1., 0., 0., 16., 1., 5., 0.,
          0., 1., 6., 26., 0., 35., 2., 6., 5., 1., 3., 2., 0., 4., 4.,
          2., 1., 2., 7., 11., 0., 5., 1., 2., 3., 0., 0., 8., 0., 2.,
          3., 6., 0., 10., 0. ]
      - [ 6., 1., 4., 0., 1., 1., 7., 1., 1., 1., 0., 13., 0., 1., 1.,
          0., 3., 2., 28., 0., 27., 2., 1., 8., 0., 4., 4., 0., 3., 2.,
          14., 1., 3., 9., 21., 0., 3., 1., 2., 1., 1., 0., 17., 0., 2.,
          1., 1., 1., 34., 0. ]
      - [ 3., 2., 0., 4., 6., 0., 7., 0., 3., 0., 2., 5., 0., 0., 1., 3.,
          1., 4., 9., 0., 17., 1., 3., 4., 3., 1., 3., 1., 8., 1., 9.,
          2., 2., 5., 4., 1., 0., 4., 3., 0., 1., 0., 8., 1., 3., 4., 8.,
          2., 7., 1. ]
      - [ 3., 5., 0., 4., 0., 1., 6., 1., 1., 0., 0., 12., 4., 2., 2.,
          3., 0., 5., 17., 0., 7., 3., 3., 2., 1., 4., 5., 1., 7., 1.,
          3., 2., 2., 4., 3., 1., 0., 2., 1., 3., 0., 0., 18., 1., 3.,
          8., 6., 1., 4., 0. ]
      - [ 3., 2., 0., 2., 2., 0., 4., 1., 0., 0., 2., 3., 5., 3., 1., 3.,
          1., 8., 9., 5., 16., 1., 1., 6., 2., 5., 6., 3., 11., 9., 2.,
          3., 4., 5., 6., 2., 0., 3., 2., 3., 2., 0., 5., 0., 5., 0., 7.,
          1., 6., 1. ]
      - [ 8., 11., 7., 10., 4., 1., 6., 6., 7., 3., 1., 11., 3., 3., 4.,
          5., 1., 9., 37., 2., 21., 3., 14., 8., 3., 16., 13., 3., 16.,
          9., 8., 5., 5., 1., 10., 1., 3., 5., 7., 10., 6., 3., 12., 3.,
          4., 6., 10., 3., 7., 2. ]
      - [ 0., 4., 1., 3., 0., 1., 2., 2., 0., 0., 1., 12., 2., 1., 0.,
          2., 0., 3., 16., 0., 11., 1., 7., 2., 2., 4., 7., 1., 10., 2.,
          5., 1., 3., 5., 4., 0., 2., 1., 2., 4., 0., 0., 6., 0., 5., 4.,
          3., 0., 9., 0. ]
      - [ 41., 13., 12., 12., 9., 11., 14., 10., 5., 6., 7., 11., 15.,
          15., 11., 8., 6., 13., 30., 19., 32., 11., 9., 20., 15., 16.,
          9., 9., 10., 10., 45., 22., 10., 3., 10., 4., 17., 5., 6., 12.,
          10., 3., 21., 5., 5., 10., 11., 4., 6., 19. ]
      - [ 10., 6., 5., 10., 6., 8., 14., 6., 4., 1., 2., 23., 8., 5., 7.,
          7., 4., 10., 41., 1., 17., 4., 10., 3., 10., 12., 14., 4., 8.,
          8., 16., 7., 2., 4., 8., 6., 3., 2., 9., 2., 4., 1., 11., 2.,
          9., 1., 8., 2., 7., 3. ]
      - [ 29., 6., 4., 19., 4., 3., 15., 2., 7., 0., 0., 16., 6., 1., 1.,
          4., 5., 17., 38., 0., 35., 5., 10., 31., 5., 13., 21., 0., 6.,
          10., 14., 3., 14., 17., 15., 0., 4., 5., 18., 4., 3., 0., 24.,
          6., 8., 4., 6., 4., 12., 3. ]
      - [ 34., 10., 12., 12., 13., 8., 10., 8., 3., 1., 1., 45., 8., 6.,
          5., 8., 11., 18., 37., 4., 40., 10., 14., 21., 9., 13., 22.,
          4., 26., 8., 38., 12., 13., 29., 23., 6., 7., 16., 17., 4., 6.,
          3., 46., 4., 12., 15., 18., 7., 18., 10. ]
      - [ 12., 1., 5., 8., 2., 2., 5., 4., 2., 0., 3., 7., 6., 8., 0.,
          5., 0., 14., 41., 3., 11., 1., 12., 74., 9., 8., 9., 1., 12.,
          8., 20., 11., 7., 20., 9., 2., 1., 9., 10., 4., 4., 4., 14.,
          0., 4., 7., 9., 2., 16., 3. ]
      - [ 15., 8., 2., 16., 5., 3., 16., 8., 1., 8., 1., 30., 7., 2., 2.,
          7., 3., 15., 43., 7., 25., 4., 16., 20., 5., 8., 14., 4., 21.,
          11., 12., 0., 13., 8., 11., 1., 4., 9., 12., 5., 8., 4., 14.,
          2., 5., 6., 11., 3., 6., 4. ]
      - [ 3., 1., 1., 6., 1., 2., 8., 2., 3., 0., 1., 7., 0., 0., 0., 2.,
          0., 8., 22., 3., 29., 4., 14., 7., 8., 4., 15., 1., 15., 9.,
          12., 1., 6., 17., 9., 0., 3., 5., 11., 2., 1., 0., 5., 1., 7.,
          2., 14., 0., 17., 0. ]
      - [ 16., 6., 11., 5., 6., 4., 12., 8., 3., 1., 6., 56., 6., 9., 6.,
          3., 3., 17., 41., 16., 36., 6., 6., 10., 11., 17., 13., 1.,
          16., 14., 15., 4., 20., 14., 10., 4., 17., 3., 11., 3., 6., 4.,
          38., 3., 3., 9., 13., 1., 11., 10. ]
      - [ 18., 12., 11., 13., 5., 4., 16., 13., 1., 2., 3., 25., 15., 6.,
          7., 7., 5., 16., 51., 9., 32., 9., 34., 25., 15., 15., 26., 6.,
          13., 15., 32., 6., 10., 22., 15., 2., 11., 5., 24., 9., 12.,
          2., 13., 2., 15., 11., 9., 11., 31., 8. ]
      - [ 11., 7., 15., 18., 8., 8., 27., 16., 6., 2., 5., 57., 5., 8.,
          2., 5., 7., 30., 97., 5., 74., 4., 17., 19., 21., 28., 12., 5.,
          24., 14., 25., 5., 25., 18., 12., 2., 20., 7., 25., 7., 12.,
          0., 54., 3., 21., 4., 16., 1., 37., 6. ]
      - [ 13., 3., 2., 9., 4., 3., 13., 9., 0., 0., 0., 20., 6., 3., 1.,
          3., 5., 16., 62., 3., 50., 3., 45., 7., 4., 7., 43., 2., 21.,
          7., 24., 2., 12., 9., 10., 4., 9., 6., 11., 4., 4., 5., 40.,
          2., 7., 6., 14., 4., 10., 2. ]
      - [ 32., 6., 9., 4., 4., 4., 11., 3., 3., 3., 3., 20., 7., 4., 4.,
          3., 3., 16., 30., 0., 39., 3., 11., 9., 6., 11., 15., 3., 23.,
          6., 15., 2., 14., 9., 8., 10., 8., 5., 8., 6., 7., 1., 21., 7.,
          5., 3., 9., 3., 16., 2. ]
      - [ 4., 1., 5., 7., 3., 2., 7., 2., 1., 0., 1., 11., 3., 2., 0.,
          4., 4., 14., 32., 2., 19., 5., 6., 1., 9., 11., 7., 2., 4., 6.,
          1., 4., 10., 4., 4., 3., 8., 4., 7., 5., 1., 2., 6., 0., 6.,
          2., 7., 1., 10., 4. ]
      - [ 26., 12., 12., 14., 11., 12., 14., 14., 7., 6., 7., 33., 28.,
          9., 9., 11., 5., 18., 40., 12., 17., 18., 16., 15., 20., 24.,
          17., 9., 11., 13., 29., 16., 24., 17., 16., 5., 8., 14., 15.,
          18., 7., 7., 47., 6., 14., 11., 15., 8., 23., 11. ]
      - [ 31., 8., 16., 7., 1., 5., 20., 7., 3., 1., 0., 49., 6., 7., 2.,
          9., 0., 14., 68., 7., 62., 9., 11., 5., 18., 11., 11., 1., 10.,
          16., 66., 9., 11., 10., 14., 0., 5., 9., 11., 6., 9., 6., 29.,
          0., 10., 8., 9., 10., 13., 9. ]
      - [ 23., 7., 4., 4., 2., 8., 2., 5., 1., 4., 3., 27., 6., 1., 5.,
          4., 2., 11., 40., 8., 37., 8., 4., 9., 11., 13., 6., 2., 14.,
          9., 10., 2., 5., 12., 11., 2., 5., 4., 6., 14., 4., 6., 31.,
          2., 11., 7., 16., 1., 9., 4. ]
      - [ 27., 15., 2., 20., 7., 5., 8., 5., 6., 2., 2., 68., 7., 3., 2.,
          11., 2., 7., 15., 0., 9., 3., 11., 26., 2., 17., 6., 3., 7.,
          7., 15., 1., 7., 35., 20., 5., 2., 9., 14., 14., 5., 2., 78.,
          3., 7., 1., 3., 2., 16., 2. ]
      - [ 17., 18., 10., 9., 5., 10., 11., 14., 6., 5., 4., 67., 14.,
          13., 7., 11., 6., 19., 43., 6., 33., 7., 14., 18., 16., 17.,
          6., 6., 26., 10., 26., 10., 21., 23., 14., 4., 8., 23., 9.,
          19., 4., 5., 58., 4., 17., 10., 15., 7., 15., 10. ]
      - [ 6., 4., 16., 4., 2., 5., 7., 5., 0., 2., 2., 50., 9., 4., 2.,
          3., 3., 10., 22., 2., 22., 6., 3., 13., 3., 6., 5., 2., 11.,
          7., 8., 6., 12., 9., 8., 5., 2., 8., 1., 4., 9., 1., 54., 1.,
          6., 3., 7., 3., 8., 3. ]
      - [ 1., 6., 4., 2., 2., 3., 3., 2., 1., 1., 2., 66., 0., 0., 1.,
          3., 1., 6., 19., 1., 40., 5., 8., 5., 5., 5., 9., 2., 13., 4.,
          0., 1., 6., 4., 3., 0., 3., 8., 3., 7., 0., 0., 21., 0., 7.,
          1., 5., 2., 4., 0. ]
      - [ 2., 2., 2., 2., 1., 5., 1., 3., 2., 2., 0., 14., 4., 2., 2.,
          0., 1., 10., 19., 3., 32., 6., 6., 1., 5., 4., 5., 0., 8., 2.,
          1., 3., 3., 3., 1., 2., 3., 2., 4., 1., 4., 3., 14., 0., 2.,
          0., 3., 5., 4., 2. ]
      - [ 4., 7., 2., 3., 4., 1., 3., 0., 3., 0., 1., 65., 4., 0., 3.,
          6., 2., 12., 63., 4., 43., 1., 4., 8., 1., 10., 6., 3., 14.,
          5., 6., 4., 16., 12., 15., 5., 11., 5., 2., 5., 2., 1., 55.,
          1., 6., 7., 5., 1., 4., 3. ]
      - [ 10., 10., 11., 9., 6., 7., 15., 6., 7., 4., 3., 52., 9., 9.,
          5., 4., 3., 10., 38., 7., 38., 7., 10., 8., 15., 9., 18., 4.,
          16., 8., 10., 8., 18., 11., 12., 7., 6., 8., 13., 10., 6., 3.,
          43., 2., 6., 3., 11., 2., 12., 5. ]
      - [ 20., 8., 5., 6., 1., 3., 12., 3., 1., 2., 1., 45., 2., 7., 4.,
          1., 6., 13., 81., 8., 61., 3., 12., 8., 8., 11., 14., 3., 23.,
          14., 35., 6., 7., 13., 9., 2., 9., 6., 5., 6., 5., 1., 22., 1.,
          8., 12., 16., 2., 16., 0. ]
      - [ 14., 10., 1., 5., 2., 4., 5., 6., 5., 2., 1., 24., 4., 2., 3.,
          4., 8., 6., 29., 2., 26., 5., 10., 9., 3., 10., 7., 3., 18.,
          9., 6., 4., 2., 6., 14., 2., 8., 5., 3., 5., 4., 5., 17., 3.,
          11., 12., 10., 1., 8., 3. ]
      - [ 43., 4., 2., 12., 4., 13., 10., 8., 4., 2., 3., 18., 11., 9.,
          10., 7., 3., 23., 57., 9., 30., 20., 7., 16., 15., 8., 12., 6.,
          21., 18., 53., 14., 13., 25., 16., 3., 12., 5., 10., 7., 8.,
          5., 20., 3., 10., 14., 20., 10., 20., 7. ]
      - [ 7., 7., 9., 6., 1., 3., 5., 5., 2., 4., 4., 29., 5., 4., 3.,
          2., 1., 11., 21., 2., 17., 3., 13., 12., 8., 6., 12., 2., 16.,
          12., 10., 4., 9., 4., 13., 2., 9., 6., 5., 7., 6., 2., 19., 4.,
          4., 13., 7., 3., 13., 2. ]
      - [ 2., 3., 3., 5., 0., 1., 7., 1., 1., 0., 1., 7., 2., 2., 0., 0.,
          0., 4., 9., 9., 23., 0., 2., 0., 3., 1., 3., 0., 5., 5., 4.,
          2., 6., 2., 4., 2., 1., 2., 2., 2., 0., 0., 4., 0., 7., 2., 6.,
          1., 8., 1. ]
      - [ 14., 5., 11., 8., 1., 7., 9., 2., 4., 1., 1., 12., 3., 1., 4.,
          1., 2., 16., 38., 3., 17., 11., 9., 8., 8., 7., 16., 2., 17.,
          6., 10., 3., 9., 4., 9., 1., 5., 3., 6., 3., 8., 1., 19., 1.,
          9., 7., 6., 0., 23., 4. ]
      - [ 2., 2., 6., 1., 1., 2., 7., 3., 1., 0., 0., 7., 0., 0., 0., 1.,
          0., 7., 31., 0., 22., 3., 5., 2., 6., 3., 5., 0., 12., 6., 3.,
          1., 6., 1., 1., 1., 0., 1., 2., 3., 1., 0., 12., 0., 4., 1.,
          8., 1., 6., 0. ]
      - [ 54., 5., 17., 8., 7., 4., 15., 8., 4., 7., 3., 7., 21., 12.,
          9., 5., 4., 23., 46., 5., 17., 7., 13., 23., 12., 10., 9., 9.,
          21., 14., 38., 13., 18., 16., 15., 5., 17., 4., 14., 8., 12.,
          8., 29., 5., 14., 21., 18., 1., 20., 10. ]
      - [ 4., 2., 7., 6., 0., 4., 8., 2., 3., 0., 2., 16., 3., 2., 0.,
          1., 2., 11., 34., 1., 15., 4., 11., 4., 4., 7., 6., 0., 14.,
          3., 7., 3., 16., 3., 5., 3., 2., 2., 7., 1., 2., 0., 11., 0.,
          3., 4., 6., 1., 6., 5. ]
      - [ 39., 1., 13., 2., 0., 3., 6., 9., 2., 1., 5., 18., 8., 5., 2.,
          1., 0., 6., 43., 3., 47., 6., 7., 9., 10., 10., 6., 4., 15.,
          5., 32., 2., 7., 7., 13., 0., 8., 0., 6., 3., 5., 1., 24., 0.,
          5., 5., 6., 2., 10., 7. ]
      - [ 42., 8., 19., 5., 0., 7., 10., 6., 2., 1., 3., 16., 8., 9., 5.,
          1., 2., 15., 49., 6., 38., 5., 11., 18., 13., 16., 15., 11.,
          10., 10., 41., 5., 14., 8., 15., 4., 18., 7., 6., 4., 11., 5.,
          20., 2., 8., 18., 14., 3., 21., 7. ]
      - [ 33., 3., 6., 9., 2., 2., 9., 5., 2., 3., 2., 20., 5., 7., 4.,
          4., 3., 14., 54., 0., 56., 3., 19., 3., 9., 9., 14., 4., 12.,
          3., 32., 6., 11., 4., 3., 1., 14., 1., 6., 10., 2., 1., 21.,
          0., 5., 3., 8., 0., 9., 3. ]
      - [ 3., 2., 2., 0., 0., 1., 1., 2., 1., 0., 1., 6., 3., 0., 0., 0.,
          0., 6., 18., 0., 10., 2., 2., 1., 1., 0., 2., 0., 6., 0., 3.,
          1., 4., 2., 4., 0., 0., 1., 0., 2., 0., 0., 6., 0., 0., 1., 3.,
          0., 4., 0. ]
      - [ 5., 1., 2., 2., 0., 1., 0., 1., 1., 1., 0., 11., 1., 5., 0.,
          1., 3., 4., 36., 0., 33., 0., 2., 5., 2., 9., 1., 1., 2., 4.,
          9., 1., 4., 6., 14., 0., 5., 0., 2., 2., 0., 0., 6., 0., 2.,
          8., 1., 0., 33., 1. ]
      - [ 8., 1., 1., 0., 0., 5., 2., 2., 1., 0., 0., 12., 3., 2., 1.,
          1., 0., 5., 24., 0., 24., 2., 0., 0., 2., 2., 2., 1., 5., 4.,
          6., 3., 5., 1., 5., 1., 5., 3., 1., 3., 2., 1., 8., 0., 4., 7.,
          7., 1., 6., 0. ]
      - [ 17., 3., 7., 10., 10., 4., 21., 7., 6., 2., 8., 12., 8., 4.,
          1., 6., 1., 17., 67., 4., 58., 8., 8., 8., 9., 28., 10., 1.,
          8., 15., 10., 5., 7., 4., 4., 12., 0., 5., 10., 6., 8., 2., 7.,
          7., 12., 8., 18., 6., 13., 2. ]
      - [ 25., 7., 12., 12., 4., 6., 8., 5., 3., 2., 3., 31., 7., 6., 1.,
          3., 2., 11., 42., 7., 25., 6., 12., 10., 8., 9., 10., 1., 5.,
          3., 18., 8., 17., 9., 8., 1., 4., 15., 6., 6., 6., 3., 34., 1.,
          4., 5., 4., 2., 12., 8. ]
      - [ 1., 1., 5., 5., 0., 8., 5., 6., 2., 0., 0., 8., 2., 5., 1., 6.,
          0., 11., 26., 3., 34., 6., 4., 4., 3., 2., 6., 0., 13., 5., 2.,
          5., 8., 4., 0., 0., 4., 3., 3., 6., 5., 1., 7., 2., 5., 1., 6.,
          7., 5., 0. ]
      - [ 8., 8., 13., 12., 5., 8., 21., 10., 3., 10., 7., 28., 10., 8.,
          6., 3., 1., 17., 55., 11., 36., 12., 13., 7., 13., 6., 15., 5.,
          8., 8., 13., 7., 17., 8., 3., 2., 3., 1., 10., 7., 7., 9., 39.,
          5., 6., 6., 7., 1., 12., 4. ]
      - [ 0., 4., 3., 6., 2., 1., 2., 2., 1., 0., 0., 26., 4., 1., 0.,
          3., 0., 11., 21., 4., 16., 0., 5., 4., 1., 2., 8., 0., 24., 5.,
          6., 0., 8., 5., 10., 0., 1., 5., 5., 3., 1., 0., 27., 1., 1.,
          1., 8., 1., 8., 1. ]
      - [ 14., 20., 13., 6., 7., 10., 10., 18., 5., 7., 4., 15., 12.,
          12., 3., 13., 13., 13., 34., 4., 37., 5., 10., 24., 10., 18.,
          9., 4., 11., 11., 22., 11., 10., 26., 27., 5., 9., 7., 15.,
          20., 11., 11., 29., 5., 13., 16., 17., 15., 19., 6. ]
      - [ 4., 3., 4., 5., 2., 3., 6., 5., 0., 2., 1., 22., 1., 1., 0.,
          6., 0., 5., 30., 0., 26., 1., 7., 3., 5., 3., 5., 2., 8., 5.,
          10., 1., 8., 6., 1., 1., 2., 6., 5., 1., 6., 1., 19., 0., 4.,
          2., 8., 2., 3., 1. ]
      - [ 18., 0., 3., 2., 2., 4., 3., 2., 0., 1., 0., 3., 3., 5., 0.,
          0., 0., 4., 28., 4., 19., 5., 3., 1., 9., 3., 3., 1., 8., 7.,
          20., 8., 5., 3., 3., 0., 0., 0., 2., 0., 1., 0., 2., 0., 4.,
          2., 5., 3., 4., 0. ]
      - [ 5., 4., 2., 2., 0., 0., 2., 1., 2., 0., 1., 4., 1., 1., 0., 2.,
          0., 3., 19., 0., 32., 2., 1., 1., 1., 6., 2., 0., 4., 1., 6.,
          1., 1., 5., 2., 1., 0., 1., 2., 3., 0., 1., 10., 0., 2., 0.,
          2., 1., 10., 0. ]
      - [ 7., 2., 13., 16., 5., 8., 9., 4., 1., 5., 0., 12., 3., 5., 2.,
          6., 3., 14., 38., 3., 28., 7., 16., 8., 15., 8., 10., 2., 11.,
          16., 17., 3., 15., 1., 7., 1., 5., 4., 6., 3., 7., 7., 14., 1.,
          9., 4., 17., 5., 7., 7. ]
      - [ 3., 0., 1., 0., 0., 1., 0., 1., 0., 0., 0., 4., 0., 0., 1., 0.,
          0., 1., 25., 2., 26., 0., 3., 0., 1., 0., 0., 0., 5., 0., 5.,
          0., 1., 0., 0., 0., 0., 1., 0., 2., 0., 1., 2., 0., 1., 0., 7.,
          0., 1., 1. ]
      - [ 4., 14., 16., 7., 6., 9., 30., 12., 6., 7., 2., 45., 14., 8.,
          6., 12., 7., 26., 73., 5., 57., 11., 16., 26., 16., 8., 19.,
          2., 31., 10., 24., 10., 19., 15., 14., 4., 10., 11., 9., 17.,
          13., 4., 39., 4., 10., 13., 17., 9., 23., 9. ]
      - [ 26., 3., 8., 4., 2., 3., 7., 8., 8., 2., 2., 14., 12., 14., 4.,
          1., 1., 9., 54., 2., 48., 4., 7., 9., 18., 11., 7., 1., 4., 6.,
          29., 15., 8., 10., 4., 3., 13., 6., 7., 0., 6., 4., 11., 0.,
          7., 9., 9., 6., 11., 1. ]
      - [ 0., 3., 4., 3., 1., 3., 2., 1., 0., 0., 0., 4., 1., 2., 1., 0.,
          1., 8., 26., 2., 26., 2., 4., 1., 5., 2., 5., 0., 9., 2., 0.,
          3., 9., 0., 4., 0., 0., 1., 3., 1., 1., 0., 3., 1., 2., 0., 4.,
          0., 2., 2. ]
      - [ 11., 9., 9., 5., 5., 6., 12., 4., 2., 1., 3., 34., 0., 3., 0.,
          1., 5., 8., 34., 2., 23., 1., 5., 6., 6., 5., 12., 1., 8., 6.,
          7., 0., 12., 9., 7., 4., 8., 6., 5., 6., 4., 5., 33., 2., 5.,
          3., 2., 0., 9., 4. ]
      - [ 6., 4., 4., 7., 0., 2., 5., 2., 1., 0., 1., 13., 3., 4., 0.,
          3., 0., 6., 13., 0., 26., 1., 4., 4., 4., 7., 3., 1., 6., 4.,
          15., 4., 4., 7., 2., 2., 2., 3., 1., 1., 2., 1., 20., 0., 3.,
          6., 4., 0., 8., 4. ]
      - [ 26., 6., 3., 5., 3., 2., 0., 2., 2., 2., 2., 49., 1., 5., 2.,
          5., 1., 19., 39., 2., 25., 5., 3., 30., 5., 20., 1., 4., 10.,
          8., 24., 3., 5., 34., 13., 0., 4., 4., 6., 9., 3., 0., 64., 1.,
          8., 13., 5., 5., 12., 0. ]
      - [ 7., 1., 4., 4., 1., 3., 6., 2., 2., 0., 3., 34., 2., 3., 2.,
          4., 2., 7., 25., 1., 29., 5., 9., 6., 4., 0., 10., 1., 8., 3.,
          10., 0., 5., 18., 3., 4., 2., 3., 11., 8., 4., 4., 10., 0., 4.,
          12., 6., 6., 12., 4. ]
      - [ 19., 1., 5., 7., 3., 6., 15., 7., 3., 1., 2., 12., 5., 2., 3.,
          6., 1., 14., 46., 3., 26., 6., 15., 11., 8., 8., 15., 3., 19.,
          14., 16., 1., 8., 3., 15., 3., 11., 5., 20., 5., 4., 0., 10.,
          0., 12., 5., 22., 1., 11., 4. ]
      - [ 2., 2., 8., 4., 0., 1., 4., 5., 0., 0., 0., 12., 4., 1., 0.,
          2., 0., 7., 9., 7., 14., 1., 0., 3., 8., 4., 5., 0., 4., 3.,
          6., 2., 4., 2., 2., 1., 2., 4., 4., 1., 4., 0., 7., 0., 6., 1.,
          4., 3., 4., 1. ]
      - [ 7., 2., 7., 6., 1., 3., 5., 6., 1., 1., 1., 21., 6., 2., 0.,
          3., 1., 8., 26., 1., 20., 4., 3., 7., 8., 7., 6., 3., 19., 12.,
          6., 2., 10., 6., 5., 0., 3., 5., 3., 7., 2., 3., 24., 0., 5.,
          2., 4., 1., 6., 1. ]
      - [ 15., 2., 6., 4., 5., 2., 6., 11., 5., 3., 3., 12., 6., 4., 4.,
          6., 8., 9., 50., 3., 26., 2., 11., 4., 4., 9., 9., 1., 10.,
          11., 17., 6., 5., 12., 10., 1., 13., 6., 9., 10., 1., 3., 27.,
          0., 11., 3., 8., 4., 6., 0. ]
      - [ 0., 3., 3., 1., 1., 9., 9., 3., 0., 0., 0., 9., 5., 1., 1., 0.,
          1., 9., 25., 1., 18., 7., 4., 2., 5., 7., 4., 0., 6., 1., 4.,
          2., 8., 5., 2., 0., 2., 4., 5., 2., 5., 3., 7., 0., 5., 3.,
          10., 1., 4., 4. ]
      - [ 3., 3., 3., 2., 1., 1., 3., 2., 1., 2., 0., 26., 3., 4., 2.,
          1., 1., 9., 28., 0., 26., 1., 5., 6., 1., 5., 4., 2., 14., 8.,
          0., 1., 3., 2., 5., 0., 5., 0., 3., 3., 1., 0., 9., 0., 4., 0.,
          5., 0., 5., 1. ]
      - [ 28., 4., 2., 1., 2., 3., 10., 3., 1., 0., 1., 13., 6., 6., 4.,
          1., 0., 15., 39., 1., 56., 5., 11., 18., 5., 11., 7., 2., 4.,
          9., 34., 7., 9., 18., 7., 1., 1., 0., 3., 2., 4., 3., 19., 0.,
          5., 10., 10., 1., 22., 0. ]
      - [ 15., 5., 8., 3., 2., 2., 11., 8., 1., 2., 0., 8., 12., 3., 2.,
          3., 1., 8., 44., 2., 32., 3., 10., 6., 14., 4., 8., 5., 9., 4.,
          14., 2., 3., 5., 6., 0., 3., 3., 4., 5., 2., 1., 9., 2., 6.,
          5., 8., 3., 16., 6. ]
      - [ 5., 3., 2., 3., 0., 2., 2., 1., 2., 0., 1., 5., 2., 1., 1., 2.,
          0., 4., 25., 1., 33., 0., 0., 2., 0., 4., 1., 1., 7., 1., 8.,
          3., 2., 0., 1., 3., 3., 1., 1., 2., 0., 0., 8., 0., 4., 3., 4.,
          1., 3., 0. ]
      - [ 9., 5., 0., 2., 0., 0., 6., 1., 0., 0., 1., 2., 1., 3., 1., 0.,
          0., 4., 33., 3., 45., 1., 4., 4., 2., 3., 3., 2., 5., 2., 14.,
          2., 4., 6., 1., 1., 1., 1., 2., 4., 0., 1., 8., 0., 0., 1., 5.,
          1., 7., 4. ]
      - [ 4., 4., 6., 5., 6., 6., 14., 5., 4., 3., 1., 17., 11., 4., 4.,
          3., 2., 6., 33., 9., 42., 8., 4., 7., 10., 7., 3., 2., 13., 5.,
          6., 5., 6., 6., 10., 2., 14., 4., 6., 3., 6., 4., 22., 1., 7.,
          6., 6., 7., 12., 1. ]
      - [ 2., 1., 1., 2., 0., 1., 3., 2., 0., 0., 0., 6., 3., 1., 0., 1.,
          0., 0., 18., 1., 23., 3., 6., 2., 3., 3., 3., 0., 0., 2., 5.,
          0., 1., 2., 4., 0., 2., 0., 2., 2., 0., 0., 4., 0., 0., 4., 3.,
          0., 4., 0. ]
      - [ 22., 4., 5., 12., 7., 5., 13., 6., 5., 0., 4., 52., 7., 4., 2.,
          4., 8., 13., 90., 0., 47., 6., 4., 26., 6., 14., 4., 5., 19.,
          15., 21., 3., 12., 32., 23., 3., 7., 3., 7., 8., 6., 1., 76.,
          1., 3., 5., 12., 2., 20., 2. ]
      - [ 13., 3., 8., 8., 1., 7., 7., 6., 2., 3., 2., 49., 8., 8., 1.,
          3., 1., 11., 40., 12., 43., 11., 2., 16., 4., 14., 7., 6., 6.,
          7., 19., 7., 8., 18., 22., 4., 6., 5., 5., 7., 7., 5., 38., 1.,
          9., 9., 9., 5., 22., 2. ]
      - [ 8., 9., 2., 7., 4., 7., 17., 2., 4., 3., 3., 20., 4., 7., 2.,
          1., 1., 14., 42., 4., 51., 9., 9., 67., 9., 18., 9., 0., 34.,
          10., 38., 1., 6., 32., 13., 1., 14., 8., 9., 10., 12., 1., 14.,
          0., 13., 8., 12., 9., 19., 1. ]
      - [ 40., 7., 13., 9., 6., 1., 13., 6., 2., 2., 1., 52., 6., 7., 4.,
          3., 2., 9., 59., 1., 27., 2., 13., 58., 10., 13., 9., 4., 16.,
          5., 63., 9., 5., 24., 14., 2., 5., 1., 8., 8., 2., 2., 39., 4.,
          5., 16., 4., 5., 13., 5. ]
      - [ 25., 5., 19., 22., 2., 5., 19., 13., 3., 2., 2., 30., 15., 14.,
          3., 8., 5., 21., 68., 12., 62., 7., 19., 11., 16., 16., 19.,
          4., 15., 22., 26., 11., 17., 15., 5., 3., 6., 10., 19., 6., 3.,
          5., 34., 3., 15., 4., 16., 5., 21., 4. ]
      - [ 11., 6., 6., 10., 4., 2., 10., 3., 0., 1., 2., 42., 7., 4., 1.,
          7., 5., 11., 39., 0., 26., 4., 13., 9., 8., 12., 4., 2., 16.,
          4., 14., 2., 12., 7., 4., 1., 1., 5., 9., 10., 3., 1., 28., 1.,
          10., 7., 11., 1., 8., 1. ]
      - [ 4., 0., 8., 4., 4., 0., 9., 6., 2., 3., 2., 15., 4., 2., 1.,
          1., 2., 5., 29., 5., 19., 2., 5., 6., 6., 3., 4., 1., 7., 6.,
          7., 1., 2., 6., 6., 1., 5., 1., 5., 3., 2., 1., 6., 0., 3., 2.,
          8., 2., 5., 0. ]
      - [ 4., 3., 9., 4., 1., 5., 8., 8., 0., 2., 3., 10., 5., 6., 6.,
          2., 0., 20., 48., 3., 44., 6., 7., 11., 9., 5., 7., 1., 16.,
          9., 7., 1., 16., 8., 14., 1., 12., 1., 7., 2., 3., 1., 7., 1.,
          11., 4., 12., 8., 12., 0. ]
      - [ 9., 3., 6., 5., 3., 3., 7., 6., 0., 1., 1., 11., 10., 3., 2.,
          3., 1., 12., 41., 1., 49., 5., 11., 4., 6., 7., 8., 4., 5., 9.,
          12., 2., 12., 6., 8., 3., 4., 6., 5., 4., 2., 3., 12., 1., 2.,
          3., 6., 1., 12., 3. ]
      - [ 9., 14., 4., 11., 2., 4., 7., 4., 11., 3., 3., 26., 4., 2., 3.,
          5., 11., 8., 35., 1., 37., 1., 13., 18., 5., 11., 7., 5., 22.,
          7., 7., 1., 5., 11., 19., 10., 12., 8., 10., 11., 3., 4., 33.,
          3., 8., 6., 12., 1., 11., 4. ]
      - [ 10., 4., 8., 13., 4., 3., 8., 6., 2., 0., 2., 14., 10., 5., 2.,
          6., 2., 12., 41., 1., 19., 3., 6., 9., 4., 14., 7., 5., 12.,
          6., 32., 5., 5., 6., 5., 3., 10., 3., 4., 7., 2., 1., 15., 0.,
          3., 5., 9., 2., 17., 8. ]
      - [ 13., 2., 9., 8., 6., 5., 9., 5., 4., 3., 1., 23., 6., 8., 3.,
          2., 5., 7., 46., 3., 37., 5., 7., 14., 5., 9., 11., 1., 7., 5.,
          33., 5., 13., 14., 13., 6., 2., 3., 11., 5., 2., 1., 11., 3.,
          8., 13., 9., 0., 21., 2. ]
      - [ 16., 9., 8., 9., 3., 6., 10., 4., 3., 0., 3., 32., 7., 3., 1.,
          3., 3., 15., 78., 3., 58., 4., 5., 9., 16., 8., 5., 2., 4.,
          10., 16., 2., 8., 3., 7., 3., 4., 1., 7., 6., 1., 0., 21., 0.,
          12., 3., 8., 2., 6., 2. ]
      - [ 29., 10., 12., 11., 1., 7., 13., 7., 8., 4., 3., 41., 17., 9.,
          3., 7., 1., 24., 71., 5., 69., 11., 16., 19., 13., 7., 7., 5.,
          24., 14., 19., 10., 18., 23., 31., 4., 14., 3., 9., 11., 1.,
          1., 40., 3., 11., 21., 17., 4., 26., 8. ]
      - [ 19., 15., 14., 16., 12., 4., 19., 7., 9., 8., 4., 38., 13.,
          17., 9., 12., 11., 18., 65., 16., 36., 13., 19., 11., 17., 12.,
          23., 6., 17., 10., 25., 9., 16., 29., 15., 5., 12., 15., 16.,
          17., 8., 5., 52., 10., 13., 12., 17., 3., 16., 15. ]
      - [ 6., 4., 12., 2., 4., 8., 7., 3., 2., 0., 2., 21., 2., 5., 1.,
          2., 2., 9., 25., 4., 13., 4., 6., 8., 15., 7., 10., 4., 6., 8.,
          8., 3., 5., 4., 8., 1., 5., 4., 8., 2., 4., 4., 14., 1., 1.,
          5., 5., 2., 2., 0. ]
      - [ 20., 0., 10., 4., 2., 8., 13., 5., 2., 4., 2., 8., 4., 9., 4.,
          2., 2., 19., 41., 11., 20., 4., 8., 1., 12., 2., 5., 4., 8.,
          8., 30., 11., 14., 4., 4., 3., 10., 0., 5., 1., 8., 3., 12.,
          1., 9., 11., 6., 4., 9., 6. ]
      - [ 11., 9., 11., 10., 7., 10., 14., 10., 8., 4., 6., 23., 4., 6.,
          3., 5., 4., 22., 37., 1., 28., 6., 8., 4., 6., 10., 8., 6.,
          18., 15., 12., 7., 9., 8., 9., 7., 22., 7., 12., 11., 7., 13.,
          15., 4., 6., 6., 12., 7., 20., 6. ]
      - [ 12., 3., 11., 4., 0., 5., 12., 4., 2., 2., 3., 8., 6., 5., 1.,
          2., 0., 9., 45., 1., 32., 7., 10., 4., 5., 5., 8., 1., 5., 7.,
          10., 1., 7., 2., 7., 0., 4., 4., 5., 2., 2., 3., 9., 0., 10.,
          5., 5., 1., 9., 1. ]
      - [ 14., 12., 16., 11., 4., 7., 9., 12., 6., 6., 6., 16., 12., 10.,
          4., 5., 5., 20., 35., 5., 23., 5., 7., 14., 10., 10., 8., 3.,
          16., 8., 15., 9., 16., 3., 9., 6., 12., 6., 9., 7., 5., 4.,
          16., 5., 16., 16., 9., 15., 9., 6. ]
      - [ 11., 1., 13., 7., 2., 3., 11., 11., 1., 2., 3., 11., 5., 5.,
          2., 3., 2., 8., 41., 2., 37., 2., 7., 6., 8., 10., 5., 4., 5.,
          13., 25., 6., 7., 6., 3., 1., 4., 3., 6., 6., 5., 1., 21., 2.,
          10., 5., 8., 4., 4., 3. ]
      - [ 11., 5., 12., 4., 1., 5., 4., 3., 1., 4., 1., 13., 5., 5., 7.,
          4., 2., 11., 36., 6., 39., 4., 8., 4., 6., 8., 5., 3., 5., 7.,
          8., 3., 8., 3., 12., 0., 5., 6., 3., 1., 6., 6., 17., 0., 9.,
          3., 10., 2., 7., 3. ]
      - [ 8., 1., 6., 2., 2., 1., 4., 0., 0., 0., 0., 7., 0., 1., 0., 0.,
          1., 6., 34., 1., 40., 0., 4., 0., 7., 1., 5., 0., 4., 2., 6.,
          1., 3., 2., 1., 0., 4., 1., 5., 2., 5., 0., 2., 0., 5., 1., 3.,
          1., 7., 0. ]
      - [ 3., 0., 1., 2., 0., 1., 7., 1., 0., 0., 0., 7., 4., 1., 0., 2.,
          1., 3., 21., 2., 35., 1., 2., 1., 4., 6., 3., 0., 4., 6., 12.,
          1., 2., 2., 5., 2., 3., 0., 5., 1., 0., 1., 10., 0., 2., 2.,
          11., 0., 6., 1. ]
      - [ 5., 1., 6., 8., 1., 1., 4., 3., 1., 1., 1., 10., 3., 0., 0.,
          5., 1., 5., 36., 6., 22., 0., 1., 4., 7., 4., 1., 0., 3., 3.,
          4., 1., 4., 4., 6., 0., 5., 1., 4., 2., 1., 0., 7., 0., 1., 0.,
          2., 0., 11., 0. ]
      - [ 12., 3., 4., 5., 1., 3., 4., 2., 2., 0., 2., 6., 8., 1., 2.,
          1., 1., 8., 26., 9., 22., 7., 9., 0., 9., 1., 7., 1., 6., 8.,
          15., 4., 12., 5., 4., 1., 3., 3., 3., 4., 1., 5., 7., 0., 6.,
          5., 8., 1., 8., 1. ]
      - [ 10., 3., 16., 9., 1., 5., 11., 6., 3., 5., 1., 5., 7., 4., 5.,
          3., 0., 7., 38., 16., 29., 4., 9., 8., 12., 8., 9., 1., 3., 2.,
          21., 5., 7., 2., 6., 0., 6., 2., 4., 0., 1., 1., 14., 1., 4.,
          12., 2., 4., 14., 3. ]
      - [ 22., 9., 13., 7., 7., 11., 25., 16., 2., 9., 5., 3., 8., 7.,
          3., 5., 6., 15., 49., 8., 26., 11., 5., 9., 9., 11., 8., 4.,
          5., 9., 29., 4., 10., 7., 10., 7., 6., 3., 2., 7., 4., 5., 5.,
          10., 10., 6., 9., 6., 22., 10. ]
      - [ 8., 12., 14., 7., 6., 5., 14., 11., 7., 3., 5., 27., 9., 6.,
          3., 2., 2., 20., 45., 1., 38., 5., 18., 9., 22., 18., 16., 3.,
          12., 10., 17., 7., 13., 15., 12., 7., 6., 5., 13., 12., 5., 3.,
          22., 2., 17., 8., 17., 2., 17., 4. ]
      - [ 4., 4., 13., 11., 2., 11., 13., 8., 2., 1., 2., 20., 11., 2.,
          4., 1., 2., 17., 38., 7., 40., 3., 5., 0., 10., 4., 6., 6.,
          16., 6., 9., 4., 15., 4., 6., 2., 14., 3., 7., 6., 5., 3., 14.,
          3., 9., 1., 15., 6., 10., 4. ]
      - [ 9., 8., 6., 6., 0., 5., 4., 6., 2., 1., 1., 14., 2., 4., 2.,
          3., 1., 7., 50., 4., 42., 4., 13., 3., 6., 6., 12., 3., 4., 6.,
          6., 8., 10., 3., 7., 0., 9., 3., 3., 4., 5., 6., 16., 1., 8.,
          7., 5., 6., 6., 2. ]
   decision_functions:
      -
         sv_count: 130
         rho: -1.7048530743986361e+00
         alpha: [ 1.8303748301813538e+00, 2.4087250058156742e+00,
             1.9497950571443503e+00, 2.5000000000000000e+00,
             2.5000000000000000e+00, 2.5000000000000000e+00,
             2.5000000000000000e+00, 2.3083879421196452e+00,
             2.5000000000000000e+00, 1.7752019851737006e+00,
             2.5000000000000000e+00, 2.5000000000000000e+00,
             2.5000000000000000e+00, 1.3733662001532239e+00,
             6.5945812077755805e-01, 2.5000000000000000e+00,
             2.8072236541863349e-01, 2.5000000000000000e+00,
             2.5000000000000000e+00, 2.5000000000000000e+00,
             2.3890085723049652e+00, 2.5000000000000000e+00,
             2.5000000000000000e+00, 2.5000000000000000e+00,
             2.5000000000000000e+00, 2.5000000000000000e+00,
             2.3073856231310264e+00, 1.7812632808676838e+00,
             1.6431634699737498e+00, 2.5000000000000000e+00,
             2.2192776345813665e+00, 8.8997369753104594e-01,
             1.3998642095874858e+00, 2.5000000000000000e+00,
             1.8268268200510294e+00, 2.0835217930946190e+00,
             2.5000000000000000e+00, 2.5000000000000000e+00,
             2.5000000000000000e+00, 2.3922514198776921e+00,
             2.0589549694619316e+00, 2.2809867391295007e+00,
             2.5000000000000000e+00, 2.5000000000000000e+00,
             2.2864436206573444e+00, 1.1001357904125142e+00,
             2.5000000000000000e+00, 5.0888806685726573e-01,
             1.7189545412439642e+00, 2.5000000000000000e+00,
             2.4882573072113305e+00, 2.5000000000000000e+00,
             2.5000000000000000e+00, 2.5000000000000000e+00,
             2.5000000000000000e+00, 2.5000000000000000e+00,
             2.5000000000000000e+00, 2.5000000000000000e+00,
             2.5000000000000000e+00, 2.5000000000000000e+00,
             2.5000000000000000e+00, 2.0110692041794853e+00,
             1.1117793974410026e+00, 2.5000000000000000e+00,
             2.5000000000000000e+00, 2.5000000000000000e+00,
             2.5000000000000000e+00, -1.3893297996432854e+00,
             -2.5000000000000000e+00, -2.5000000000000000e+00,
             -2.5000000000000000e+00, -2.5000000000000000e+00,
             -2.5000000000000000e+00, -2.5000000000000000e+00,
             -1.8268268200510294e+00, -2.5000000000000000e+00,
             -2.5000000000000000e+00, -2.5000000000000000e+00,
             -2.5000000000000000e+00, -2.5000000000000000e+00,
             -1.7812632808676838e+00, -2.5000000000000000e+00,
             -2.5000000000000000e+00, -2.5000000000000000e+00,
             -2.5000000000000000e+00, -2.5000000000000000e+00,
             -2.5000000000000000e+00, -2.5000000000000000e+00,
             -2.5000000000000000e+00, -2.5000000000000000e+00,
             -2.5000000000000000e+00, -2.5000000000000000e+00,
             -2.5000000000000000e+00, -2.5000000000000000e+00,
             -2.5000000000000000e+00, -2.5000000000000000e+00,
             -2.4142864177704300e+00, -2.5000000000000000e+00,
             -2.5000000000000000e+00, -2.5000000000000000e+00,
             -2.5000000000000000e+00, -1.5501623538600608e+00,
             -2.5000000000000000e+00, -2.5000000000000000e+00,
             -2.5000000000000000e+00, -2.5000000000000000e+00,
             -2.5000000000000000e+00, -2.5000000000000000e+00,
             -2.5000000000000000e+00, -2.5000000000000000e+00,
             -6.1125870507057312e-01, -2.5000000000000000e+00,
             -2.5000000000000000e+00, -1.3733662001532239e+00,
             -2.5000000000000000e+00, -2.5000000000000000e+00,
             -2.5000000000000000e+00, -2.5000000000000000e+00,
             -2.3213280227027804e+00, -2.5000000000000000e+00,
             -2.5000000000000000e+00, -1.7189545412439642e+00,
             -2.5000000000000000e+00, -6.5945812077755805e-01,
             -2.5000000000000000e+00, -2.5000000000000000e+00,
             -1.9218784624342227e+00, -2.5000000000000000e+00,
             -2.0159249398043317e+00, -2.5000000000000000e+00 ]
         index: [ 0, 1, 2, 3, 4, 5, 6, 7, 8, 9, 10, 11, 12, 13, 14, 15,
             16, 17, 18, 19, 20, 21, 22, 23, 24, 25, 26, 27, 28, 29, 30,
             31, 32, 33, 34, 35, 36, 37, 38, 39, 40, 41, 42, 43, 44, 45,
             46, 47, 48, 49, 50, 114, 115, 116, 117, 118, 119, 120, 121,
             122, 123, 124, 125, 126, 127, 128, 129, 56, 57, 58, 59, 60,
             61, 62, 63, 64, 65, 66, 67, 68, 69, 70, 71, 72, 73, 74, 75,
             76, 77, 78, 79, 80, 81, 82, 83, 84, 85, 86, 87, 88, 89, 90,
             91, 92, 93, 94, 95, 96, 97, 98, 99, 100, 101, 102, 103, 104,
             105, 106, 107, 108, 109, 110, 111, 112, 113, 51, 52, 53, 54,
             55 ]
