%YAML:1.0
---
opencv_ml_svm:
   format: 3
   svmType: C_SVC
   kernel:
      type: RBF
      gamma: 2.2500000000000003e-03
   C: 5.0000000000000000e-01
   term_criteria: { iterations:100 }
   var_count: 50
   class_count: 2
   class_labels: !!opencv-matrix
      rows: 2
      cols: 1
      dt: i
      data: [ 0, 1 ]
   sv_total: 186
   support_vectors:
      - [ 17., 17., 15., 4., 10., 6., 15., 13., 5., 1., 4., 56., 6., 7.,
          4., 5., 3., 17., 71., 3., 76., 5., 16., 10., 11., 9., 14., 0.,
          20., 16., 13., 6., 11., 6., 16., 1., 13., 13., 9., 14., 2., 5.,
          43., 0., 15., 12., 12., 2., 13., 1. ]
      - [ 23., 15., 16., 18., 11., 13., 20., 20., 10., 8., 6., 33., 23.,
          10., 4., 5., 21., 40., 32., 19., 47., 9., 18., 24., 18., 19.,
          28., 9., 31., 19., 13., 21., 31., 19., 13., 13., 12., 8., 20.,
          15., 14., 6., 39., 10., 26., 17., 22., 9., 24., 4. ]
      - [ 18., 4., 4., 2., 0., 3., 7., 4., 0., 0., 0., 15., 5., 6., 0.,
          2., 0., 8., 125., 6., 102., 1., 7., 8., 5., 4., 11., 0., 3.,
          4., 8., 6., 6., 4., 6., 0., 6., 3., 1., 6., 0., 0., 27., 0.,
          7., 10., 8., 0., 15., 0. ]
      - [ 56., 8., 10., 6., 3., 8., 24., 10., 1., 1., 2., 79., 10., 8.,
          1., 4., 7., 13., 106., 15., 114., 9., 15., 19., 17., 13., 18.,
          5., 34., 11., 40., 13., 8., 21., 22., 8., 19., 4., 9., 12., 2.,
          2., 80., 7., 13., 13., 21., 2., 39., 2. ]
      - [ 35., 14., 8., 10., 18., 12., 7., 13., 4., 3., 8., 24., 15.,
          15., 9., 7., 14., 16., 100., 8., 97., 5., 33., 16., 14., 22.,
          30., 6., 17., 17., 52., 16., 16., 21., 9., 2., 6., 4., 11.,
          17., 5., 3., 47., 2., 10., 16., 12., 3., 22., 3. ]
      - [ 16., 7., 10., 3., 5., 6., 5., 8., 4., 0., 3., 4., 10., 8., 3.,
          1., 1., 12., 17., 5., 26., 6., 5., 2., 9., 6., 10., 3., 12.,
          14., 16., 8., 10., 10., 6., 1., 6., 4., 7., 7., 16., 6., 8.,
          0., 7., 7., 7., 4., 8., 3. ]
      - [ 117., 244., 47., 91., 134., 95., 65., 74., 125., 50., 108.,
          234., 85., 113., 117., 120., 248., 130., 327., 51., 362., 109.,
          109., 292., 59., 147., 101., 119., 224., 119., 114., 109., 88.,
          242., 264., 134., 114., 90., 78., 254., 101., 38., 368., 118.,
          97., 73., 113., 64., 128., 48. ]
      - [ 28., 7., 11., 9., 1., 8., 20., 11., 1., 5., 4., 17., 10., 6.,
          5., 15., 14., 19., 56., 9., 53., 5., 13., 12., 16., 7., 13.,
          3., 9., 7., 45., 4., 10., 24., 21., 4., 11., 11., 10., 4., 13.,
          5., 15., 0., 9., 15., 14., 8., 17., 6. ]
      - [ 2., 2., 9., 1., 0., 2., 0., 3., 0., 0., 1., 4., 2., 2., 1., 1.,
          1., 4., 6., 4., 8., 1., 10., 3., 8., 2., 2., 1., 5., 4., 9.,
          3., 10., 3., 4., 0., 3., 2., 3., 2., 3., 2., 8., 0., 2., 0.,
          1., 0., 3., 3. ]
      - [ 3., 0., 3., 0., 2., 2., 1., 1., 0., 0., 0., 0., 1., 3., 0., 0.,
          1., 0., 0., 1., 3., 2., 1., 2., 1., 0., 0., 0., 2., 4., 1., 1.,
          4., 0., 1., 0., 0., 0., 0., 1., 0., 1., 9., 0., 2., 0., 0., 0.,
          2., 0. ]
      - [ 17., 4., 3., 6., 4., 3., 12., 4., 1., 1., 0., 18., 2., 3., 1.,
          0., 0., 9., 24., 2., 33., 3., 7., 6., 6., 13., 8., 1., 8., 9.,
          7., 3., 8., 3., 6., 0., 2., 0., 7., 7., 4., 1., 26., 1., 5.,
          4., 6., 2., 5., 1. ]
      - [ 2., 1., 0., 0., 0., 0., 0., 0., 1., 0., 0., 2., 0., 0., 0., 2.,
          0., 6., 20., 0., 30., 0., 3., 0., 0., 0., 2., 1., 2., 1., 2.,
          1., 5., 0., 0., 0., 2., 0., 2., 0., 2., 0., 0., 0., 1., 0., 1.,
          0., 1., 0. ]
      - [ 24., 6., 12., 6., 1., 7., 15., 7., 0., 0., 3., 22., 9., 12.,
          6., 3., 3., 11., 82., 5., 77., 5., 17., 11., 21., 7., 19., 2.,
          14., 12., 45., 8., 10., 5., 14., 1., 5., 6., 6., 9., 3., 5.,
          30., 0., 11., 8., 10., 3., 12., 5. ]
      - [ 8., 8., 7., 8., 2., 6., 11., 6., 0., 1., 1., 11., 5., 5., 4.,
          4., 2., 15., 36., 3., 47., 4., 11., 8., 9., 6., 13., 2., 13.,
          9., 6., 3., 14., 3., 13., 2., 20., 4., 1., 9., 5., 0., 19., 0.,
          12., 11., 14., 1., 13., 0. ]
      - [ 0., 0., 2., 0., 0., 0., 1., 0., 2., 1., 0., 0., 1., 0., 0., 0.,
          0., 0., 0., 4., 1., 0., 0., 0., 5., 0., 1., 0., 4., 3., 1., 0.,
          1., 0., 0., 0., 0., 0., 1., 0., 1., 2., 2., 0., 5., 1., 6., 2.,
          1., 1. ]
      - [ 3., 0., 4., 0., 0., 0., 5., 3., 0., 0., 0., 1., 1., 3., 0., 0.,
          0., 6., 12., 0., 19., 2., 2., 0., 5., 2., 3., 0., 5., 4., 2.,
          1., 3., 0., 0., 0., 4., 0., 1., 0., 1., 1., 5., 1., 8., 0.,
          11., 2., 1., 0. ]
      - [ 33., 14., 16., 6., 6., 12., 20., 14., 7., 9., 6., 26., 16.,
          20., 13., 8., 4., 20., 41., 29., 48., 15., 19., 18., 18., 8.,
          20., 5., 15., 9., 28., 15., 10., 5., 15., 8., 11., 8., 11.,
          15., 18., 7., 31., 6., 5., 13., 20., 13., 16., 12. ]
      - [ 54., 20., 17., 35., 23., 11., 18., 10., 12., 10., 12., 12.,
          16., 16., 16., 10., 18., 24., 42., 13., 42., 21., 34., 31.,
          33., 16., 37., 14., 40., 17., 38., 18., 14., 66., 44., 11.,
          12., 9., 23., 14., 13., 10., 38., 42., 17., 17., 18., 19., 27.,
          14. ]
      - [ 14., 7., 10., 14., 1., 8., 7., 8., 6., 1., 3., 34., 7., 9., 3.,
          8., 3., 20., 47., 0., 47., 9., 27., 16., 17., 4., 21., 5., 9.,
          7., 30., 9., 17., 16., 11., 5., 4., 16., 6., 11., 2., 2., 20.,
          1., 10., 9., 10., 5., 9., 7. ]
      - [ 3., 8., 5., 13., 6., 3., 10., 4., 1., 0., 4., 25., 6., 6., 2.,
          6., 6., 9., 65., 2., 39., 3., 8., 2., 1., 8., 7., 5., 12., 4.,
          16., 4., 4., 4., 2., 3., 1., 4., 7., 10., 5., 0., 36., 0., 2.,
          0., 6., 6., 3., 14. ]
      - [ 4., 1., 0., 0., 0., 0., 1., 2., 0., 0., 0., 3., 5., 1., 3., 0.,
          1., 3., 11., 1., 9., 3., 2., 1., 2., 2., 1., 0., 2., 3., 4.,
          2., 0., 2., 3., 1., 2., 0., 1., 0., 1., 1., 1., 0., 3., 3., 4.,
          0., 2., 0. ]
      - [ 5., 8., 5., 4., 3., 7., 9., 4., 2., 1., 3., 21., 6., 5., 3.,
          2., 1., 13., 28., 3., 26., 4., 4., 6., 10., 2., 5., 1., 13.,
          5., 10., 2., 20., 10., 7., 7., 13., 4., 6., 3., 5., 2., 20.,
          3., 12., 4., 6., 3., 4., 7. ]
      - [ 1., 0., 2., 1., 0., 0., 2., 3., 1., 1., 0., 8., 3., 4., 0., 1.,
          0., 6., 25., 0., 23., 1., 5., 0., 6., 1., 2., 1., 9., 7., 5.,
          3., 6., 1., 1., 0., 1., 0., 1., 2., 1., 0., 2., 0., 6., 1., 6.,
          2., 7., 1. ]
      - [ 17., 6., 5., 5., 4., 9., 8., 4., 1., 5., 2., 3., 4., 14., 4.,
          2., 4., 13., 26., 10., 11., 6., 3., 5., 5., 7., 5., 4., 4., 9.,
          10., 16., 9., 1., 2., 2., 7., 2., 2., 5., 5., 3., 14., 2., 3.,
          10., 7., 6., 6., 6. ]
      - [ 0., 1., 0., 1., 0., 0., 1., 2., 0., 2., 1., 0., 1., 0., 0., 0.,
          1., 3., 6., 1., 10., 3., 4., 0., 3., 0., 3., 1., 6., 4., 0.,
          0., 5., 0., 1., 2., 1., 1., 2., 1., 0., 0., 5., 0., 2., 1., 7.,
          0., 2., 0. ]
      - [ 64., 7., 14., 5., 2., 8., 16., 11., 3., 6., 1., 17., 6., 19.,
          4., 7., 9., 21., 74., 28., 62., 7., 14., 16., 18., 10., 10.,
          10., 15., 6., 51., 27., 14., 17., 23., 3., 11., 14., 7., 3.,
          6., 7., 20., 2., 11., 18., 11., 16., 13., 19. ]
      - [ 2., 1., 2., 0., 0., 0., 1., 0., 0., 0., 1., 5., 0., 3., 1., 0.,
          0., 9., 17., 0., 20., 1., 3., 2., 1., 3., 5., 1., 4., 4., 6.,
          4., 5., 4., 1., 1., 3., 1., 1., 2., 0., 0., 2., 0., 2., 1., 1.,
          0., 2., 0. ]
      - [ 1., 0., 2., 0., 0., 1., 3., 0., 1., 0., 0., 2., 1., 3., 1., 1.,
          0., 6., 18., 1., 17., 1., 5., 2., 2., 5., 4., 0., 0., 3., 1.,
          4., 4., 3., 2., 0., 0., 1., 0., 0., 1., 1., 5., 0., 2., 1., 2.,
          2., 8., 0. ]
      - [ 45., 18., 16., 18., 23., 14., 28., 16., 11., 5., 4., 63., 21.,
          12., 14., 13., 9., 38., 74., 7., 80., 9., 27., 22., 24., 36.,
          27., 7., 15., 18., 66., 10., 41., 27., 15., 5., 26., 33., 22.,
          11., 8., 5., 85., 3., 18., 26., 22., 3., 30., 6. ]
      - [ 1., 13., 4., 9., 8., 0., 15., 3., 6., 2., 2., 27., 4., 2., 6.,
          5., 8., 11., 35., 3., 35., 5., 6., 4., 8., 10., 10., 5., 22.,
          12., 7., 3., 16., 10., 7., 4., 5., 12., 8., 3., 5., 2., 38.,
          4., 10., 2., 9., 4., 7., 1. ]
      - [ 13., 2., 0., 1., 0., 1., 1., 3., 1., 1., 2., 15., 4., 5., 2.,
          2., 0., 1., 3., 1., 9., 0., 0., 4., 0., 2., 1., 0., 0., 1.,
          13., 6., 5., 1., 0., 0., 0., 3., 0., 1., 0., 1., 7., 0., 1.,
          2., 1., 4., 4., 0. ]
      - [ 15., 2., 6., 5., 0., 0., 4., 4., 1., 0., 2., 27., 8., 3., 0.,
          1., 1., 5., 54., 4., 65., 3., 2., 34., 4., 4., 4., 3., 7., 3.,
          23., 4., 4., 25., 9., 0., 3., 2., 5., 5., 3., 1., 23., 1., 5.,
          11., 6., 0., 11., 1. ]
      - [ 21., 9., 6., 1., 1., 5., 18., 3., 0., 3., 0., 5., 3., 2., 1.,
          4., 2., 6., 17., 3., 9., 7., 2., 9., 2., 7., 1., 1., 10., 5.,
          8., 4., 4., 6., 12., 1., 12., 2., 6., 8., 2., 1., 8., 4., 14.,
          5., 9., 1., 16., 3. ]
      - [ 12., 15., 9., 7., 6., 12., 35., 8., 12., 8., 2., 21., 7., 13.,
          11., 9., 8., 14., 34., 14., 23., 8., 15., 9., 16., 12., 16.,
          10., 22., 14., 24., 10., 15., 6., 7., 8., 11., 13., 10., 17.,
          8., 1., 26., 5., 9., 13., 9., 4., 14., 8. ]
      - [ 9., 3., 2., 4., 0., 0., 0., 2., 0., 2., 0., 2., 4., 0., 0., 0.,
          0., 1., 12., 3., 8., 2., 5., 2., 1., 1., 3., 2., 1., 3., 6.,
          2., 4., 0., 0., 0., 2., 2., 0., 3., 0., 1., 6., 0., 0., 0., 3.,
          0., 0., 3. ]
      - [ 11., 4., 0., 2., 0., 2., 5., 0., 2., 0., 0., 16., 2., 2., 0.,
          0., 0., 6., 42., 1., 47., 2., 2., 12., 2., 5., 1., 0., 3., 3.,
          22., 5., 1., 6., 10., 1., 1., 0., 2., 2., 4., 2., 13., 0., 4.,
          3., 5., 0., 9., 1. ]
      - [ 7., 2., 5., 2., 4., 2., 5., 4., 2., 0., 1., 15., 1., 2., 0.,
          2., 0., 6., 23., 2., 19., 1., 4., 2., 0., 6., 7., 0., 4., 6.,
          12., 2., 7., 4., 5., 0., 3., 5., 1., 2., 2., 1., 14., 0., 3.,
          0., 7., 3., 8., 0. ]
      - [ 75., 72., 17., 17., 20., 23., 48., 45., 16., 17., 12., 109.,
          58., 45., 24., 19., 27., 59., 171., 67., 227., 17., 51., 62.,
          30., 35., 43., 18., 65., 51., 65., 46., 39., 55., 46., 17.,
          56., 25., 21., 53., 30., 24., 100., 19., 42., 44., 53., 17.,
          55., 10. ]
      - [ 3., 4., 1., 0., 0., 1., 0., 0., 0., 0., 0., 3., 1., 0., 0., 1.,
          0., 4., 17., 0., 32., 2., 2., 0., 1., 3., 4., 0., 2., 1., 2.,
          1., 1., 5., 3., 0., 0., 1., 0., 5., 0., 0., 3., 1., 0., 1., 1.,
          0., 2., 0. ]
      - [ 2., 2., 3., 0., 2., 2., 10., 0., 0., 0., 0., 8., 0., 1., 0.,
          2., 1., 2., 14., 3., 22., 2., 1., 3., 0., 4., 0., 0., 2., 4.,
          4., 0., 5., 2., 1., 2., 1., 3., 1., 1., 5., 1., 11., 0., 2.,
          2., 2., 1., 1., 1. ]
      - [ 30., 9., 4., 2., 4., 3., 3., 5., 1., 0., 2., 48., 5., 10., 4.,
          3., 5., 7., 7., 7., 28., 10., 6., 13., 15., 5., 5., 3., 13.,
          3., 30., 8., 6., 17., 11., 1., 7., 6., 3., 8., 4., 2., 30., 2.,
          5., 11., 7., 2., 24., 1. ]
      - [ 15., 6., 4., 1., 0., 1., 6., 2., 5., 0., 1., 0., 0., 3., 1.,
          1., 1., 5., 17., 3., 23., 1., 1., 4., 4., 11., 5., 4., 4., 3.,
          18., 2., 5., 5., 7., 2., 11., 0., 1., 2., 3., 1., 0., 0., 9.,
          6., 3., 5., 10., 0. ]
      - [ 7., 7., 2., 2., 2., 1., 1., 1., 1., 0., 0., 1., 1., 3., 0., 1.,
          1., 3., 23., 3., 23., 1., 2., 1., 3., 3., 2., 1., 1., 5., 6.,
          4., 3., 3., 3., 0., 1., 1., 2., 2., 0., 2., 3., 0., 2., 1., 3.,
          0., 2., 0. ]
      - [ 10., 2., 3., 3., 3., 1., 2., 6., 0., 0., 0., 25., 8., 4., 0.,
          2., 1., 8., 9., 1., 29., 4., 5., 3., 1., 3., 4., 1., 15., 5.,
          9., 1., 4., 3., 2., 0., 1., 0., 2., 2., 4., 0., 16., 0., 3.,
          3., 7., 1., 12., 0. ]
      - [ 3., 3., 3., 0., 0., 1., 0., 0., 1., 0., 1., 5., 1., 1., 0., 0.,
          1., 1., 8., 0., 14., 0., 4., 1., 2., 3., 3., 1., 14., 3., 3.,
          1., 4., 2., 0., 0., 1., 1., 1., 2., 1., 0., 4., 0., 3., 1., 2.,
          1., 0., 0. ]
      - [ 1., 3., 0., 0., 0., 2., 5., 0., 0., 0., 0., 12., 1., 1., 1.,
          0., 1., 6., 19., 0., 39., 1., 5., 1., 5., 1., 3., 1., 1., 4.,
          3., 0., 4., 0., 1., 0., 0., 0., 0., 1., 1., 0., 3., 0., 5., 1.,
          7., 1., 0., 0. ]
      - [ 6., 4., 4., 3., 0., 2., 7., 2., 0., 0., 0., 10., 2., 4., 0.,
          2., 1., 3., 9., 2., 11., 1., 3., 5., 3., 5., 7., 4., 6., 3.,
          3., 2., 4., 5., 6., 0., 4., 1., 1., 7., 3., 3., 6., 1., 4., 1.,
          6., 1., 8., 1. ]
      - [ 5., 5., 4., 1., 1., 6., 3., 5., 0., 1., 1., 8., 4., 10., 1.,
          1., 1., 3., 9., 5., 9., 4., 8., 5., 6., 2., 5., 3., 3., 6., 7.,
          7., 8., 10., 3., 2., 4., 4., 2., 6., 1., 4., 10., 0., 6., 9.,
          2., 4., 6., 4. ]
      - [ 23., 15., 10., 12., 9., 12., 27., 12., 12., 7., 8., 72., 8.,
          17., 8., 18., 10., 26., 73., 6., 63., 12., 19., 29., 9., 33.,
          19., 3., 39., 16., 27., 18., 16., 32., 31., 16., 23., 17., 12.,
          18., 12., 7., 90., 5., 17., 28., 18., 5., 32., 1. ]
      - [ 3., 0., 3., 4., 0., 0., 7., 4., 0., 3., 0., 11., 4., 2., 1.,
          3., 0., 16., 22., 6., 35., 0., 12., 1., 6., 1., 11., 2., 5.,
          4., 11., 2., 12., 9., 0., 1., 1., 0., 1., 4., 1., 0., 12., 2.,
          1., 3., 4., 0., 12., 3. ]
      - [ 46., 11., 7., 7., 4., 6., 18., 15., 11., 6., 5., 73., 13., 14.,
          4., 16., 11., 19., 34., 2., 53., 6., 15., 50., 14., 31., 18.,
          11., 32., 22., 50., 10., 6., 49., 44., 12., 25., 9., 9., 24.,
          8., 4., 75., 6., 17., 29., 23., 7., 40., 6. ]
      - [ 18., 4., 1., 0., 2., 0., 4., 0., 1., 0., 1., 13., 0., 5., 1.,
          0., 1., 2., 11., 1., 18., 1., 0., 19., 0., 10., 2., 2., 0., 0.,
          9., 1., 0., 8., 12., 1., 1., 3., 0., 8., 0., 0., 19., 0., 1.,
          4., 0., 1., 11., 2. ]
      - [ 2., 4., 1., 2., 1., 0., 2., 0., 2., 1., 2., 9., 1., 0., 0., 3.,
          2., 2., 4., 0., 7., 1., 0., 4., 1., 2., 1., 0., 4., 3., 1., 0.,
          1., 0., 4., 0., 0., 1., 2., 3., 0., 0., 6., 0., 2., 3., 0., 0.,
          4., 1. ]
      - [ 0., 3., 2., 3., 1., 1., 8., 3., 0., 1., 0., 13., 2., 1., 2.,
          2., 3., 3., 8., 4., 6., 0., 6., 3., 1., 4., 2., 1., 2., 1., 1.,
          2., 5., 5., 4., 0., 2., 5., 0., 4., 0., 0., 8., 0., 4., 2., 1.,
          1., 4., 1. ]
      - [ 6., 4., 2., 0., 0., 0., 0., 3., 1., 4., 0., 6., 1., 7., 0., 1.,
          3., 3., 3., 0., 2., 2., 0., 4., 2., 2., 1., 4., 5., 1., 4., 1.,
          2., 2., 4., 1., 6., 1., 1., 5., 1., 1., 6., 2., 6., 0., 4., 0.,
          2., 1. ]
      - [ 29., 5., 3., 1., 1., 4., 5., 3., 0., 3., 2., 29., 5., 5., 4.,
          6., 1., 3., 37., 3., 25., 3., 2., 20., 4., 2., 5., 4., 1., 6.,
          35., 3., 3., 13., 17., 1., 10., 2., 4., 6., 2., 5., 26., 1.,
          4., 24., 1., 3., 20., 3. ]
      - [ 13., 12., 7., 5., 5., 4., 4., 9., 3., 2., 2., 33., 3., 19., 3.,
          2., 3., 6., 44., 2., 48., 5., 6., 13., 9., 12., 7., 6., 10.,
          4., 36., 8., 4., 14., 15., 1., 14., 2., 4., 15., 2., 0., 39.,
          0., 7., 13., 2., 4., 12., 4. ]
      - [ 8., 8., 12., 4., 0., 3., 4., 6., 0., 0., 1., 7., 3., 2., 3.,
          1., 1., 19., 36., 2., 33., 5., 3., 6., 14., 6., 7., 4., 10.,
          7., 5., 7., 5., 3., 10., 4., 13., 0., 2., 6., 2., 3., 4., 0.,
          16., 3., 13., 2., 3., 2. ]
      - [ 10., 4., 1., 2., 2., 0., 9., 4., 1., 1., 1., 20., 3., 2., 1.,
          3., 1., 5., 12., 1., 19., 1., 6., 8., 4., 12., 6., 0., 13., 7.,
          7., 4., 2., 7., 5., 0., 3., 0., 1., 6., 2., 2., 18., 1., 0.,
          4., 6., 0., 5., 1. ]
      - [ 17., 5., 1., 1., 0., 2., 3., 2., 2., 3., 0., 7., 2., 4., 2.,
          4., 2., 1., 19., 0., 15., 5., 0., 7., 3., 9., 2., 2., 2., 2.,
          25., 1., 2., 1., 3., 0., 0., 3., 0., 2., 4., 4., 6., 1., 1.,
          6., 3., 4., 5., 1. ]
      - [ 48., 22., 25., 19., 7., 14., 16., 24., 8., 3., 5., 53., 20.,
          18., 6., 10., 5., 36., 84., 17., 86., 9., 28., 20., 15., 28.,
          24., 8., 27., 14., 41., 23., 38., 32., 25., 6., 20., 25., 6.,
          17., 12., 12., 70., 8., 19., 23., 21., 10., 24., 17. ]
      - [ 21., 18., 29., 9., 7., 19., 11., 13., 3., 3., 6., 35., 25.,
          15., 6., 11., 10., 30., 34., 15., 67., 14., 24., 11., 29., 21.,
          20., 7., 15., 20., 27., 18., 20., 10., 8., 6., 6., 18., 14.,
          9., 10., 6., 38., 4., 14., 13., 22., 6., 14., 20. ]
      - [ 0., 3., 0., 1., 0., 0., 0., 0., 0., 0., 0., 4., 0., 0., 0., 0.,
          0., 1., 14., 0., 12., 0., 1., 0., 1., 1., 2., 0., 2., 1., 0.,
          0., 0., 0., 0., 0., 0., 1., 0., 3., 0., 0., 5., 0., 0., 0., 1.,
          0., 2., 0. ]
      - [ 38., 68., 8., 34., 41., 21., 18., 42., 92., 49., 52., 79., 42.,
          53., 20., 75., 64., 57., 18., 19., 28., 10., 24., 46., 10.,
          28., 23., 20., 72., 32., 23., 41., 37., 73., 31., 102., 39.,
          75., 39., 54., 20., 52., 145., 69., 70., 42., 17., 14., 33.,
          13. ]
      - [ 1., 2., 2., 4., 2., 1., 3., 1., 1., 0., 3., 10., 1., 4., 0.,
          1., 3., 2., 6., 4., 3., 0., 4., 1., 0., 6., 7., 0., 1., 2., 7.,
          1., 1., 3., 1., 1., 0., 0., 3., 0., 3., 0., 8., 1., 0., 0., 2.,
          3., 2., 1. ]
      - [ 11., 5., 5., 2., 0., 4., 1., 2., 0., 2., 2., 8., 8., 4., 1.,
          0., 0., 7., 12., 5., 8., 3., 0., 3., 8., 2., 3., 2., 2., 1.,
          14., 6., 5., 7., 2., 0., 2., 1., 1., 3., 7., 0., 4., 1., 3.,
          7., 3., 2., 4., 3. ]
      - [ 0., 0., 0., 0., 1., 0., 0., 0., 0., 0., 0., 0., 0., 0., 0., 0.,
          2., 0., 0., 0., 0., 0., 0., 0., 0., 0., 0., 0., 0., 0., 0., 0.,
          0., 0., 0., 0., 0., 0., 0., 0., 0., 0., 2., 0., 0., 0., 0., 0.,
          0., 0. ]
      - [ 31., 11., 6., 9., 7., 3., 9., 7., 6., 0., 3., 15., 8., 7., 6.,
          5., 10., 5., 35., 0., 24., 0., 11., 7., 5., 9., 10., 6., 3.,
          1., 25., 6., 7., 4., 10., 8., 3., 4., 13., 7., 3., 0., 27., 2.,
          1., 11., 5., 3., 12., 10. ]
      - [ 14., 5., 3., 5., 3., 2., 7., 3., 1., 1., 3., 9., 3., 9., 2.,
          2., 1., 2., 18., 4., 16., 2., 4., 12., 0., 10., 1., 0., 2., 3.,
          5., 8., 3., 6., 4., 1., 3., 5., 4., 3., 4., 1., 10., 0., 6.,
          4., 9., 1., 5., 3. ]
      - [ 1., 2., 4., 1., 0., 4., 5., 2., 2., 1., 0., 8., 4., 2., 0., 2.,
          1., 7., 14., 3., 27., 5., 2., 0., 2., 2., 0., 0., 4., 7., 2.,
          2., 6., 0., 0., 1., 1., 1., 1., 1., 2., 0., 5., 0., 4., 1.,
          10., 0., 1., 1. ]
      - [ 15., 9., 4., 2., 2., 6., 6., 7., 1., 3., 4., 18., 4., 6., 6.,
          4., 4., 8., 18., 5., 23., 7., 6., 11., 7., 13., 8., 6., 5., 5.,
          22., 2., 6., 10., 11., 1., 9., 3., 4., 8., 6., 3., 24., 2.,
          10., 6., 11., 3., 10., 3. ]
      - [ 2., 6., 2., 2., 0., 3., 3., 4., 1., 1., 0., 3., 2., 5., 2., 0.,
          1., 6., 16., 1., 18., 1., 3., 1., 3., 0., 6., 1., 7., 2., 1.,
          4., 2., 6., 1., 0., 5., 0., 3., 3., 1., 1., 9., 0., 5., 4., 0.,
          0., 8., 1. ]
      - [ 9., 2., 9., 6., 0., 1., 1., 6., 1., 0., 0., 18., 10., 9., 13.,
          12., 0., 4., 7., 8., 15., 0., 10., 3., 14., 4., 9., 3., 0., 1.,
          16., 17., 6., 7., 5., 0., 6., 6., 5., 5., 4., 13., 8., 1., 1.,
          3., 2., 20., 8., 3. ]
      - [ 13., 19., 10., 7., 11., 6., 9., 11., 10., 3., 0., 21., 11.,
          10., 7., 7., 7., 17., 19., 4., 26., 3., 9., 20., 8., 12., 8.,
          6., 13., 11., 15., 6., 15., 9., 18., 7., 15., 4., 4., 24., 10.,
          8., 15., 4., 11., 26., 10., 8., 12., 1. ]
      - [ 19., 4., 10., 7., 3., 1., 10., 12., 0., 1., 2., 27., 11., 8.,
          4., 3., 4., 8., 38., 4., 40., 2., 15., 7., 5., 5., 10., 2.,
          18., 6., 11., 4., 5., 14., 13., 3., 7., 8., 5., 6., 3., 0.,
          18., 1., 5., 6., 5., 2., 10., 5. ]
      - [ 20., 5., 13., 7., 8., 6., 3., 3., 1., 3., 0., 1., 4., 11., 4.,
          1., 3., 4., 5., 15., 6., 8., 7., 6., 12., 3., 7., 6., 2., 8.,
          34., 11., 5., 9., 4., 1., 3., 0., 0., 1., 8., 3., 8., 2., 2.,
          8., 5., 3., 10., 9. ]
      - [ 18., 7., 12., 7., 8., 4., 12., 8., 1., 3., 7., 6., 7., 9., 13.,
          1., 4., 7., 25., 2., 34., 2., 9., 11., 15., 11., 6., 10., 7.,
          7., 14., 4., 5., 8., 6., 3., 6., 1., 5., 6., 3., 0., 29., 2.,
          3., 3., 7., 3., 11., 3. ]
      - [ 46., 30., 15., 8., 6., 7., 12., 7., 3., 4., 2., 74., 10., 8.,
          6., 5., 27., 21., 403., 31., 339., 3., 20., 17., 18., 20., 17.,
          4., 45., 17., 48., 7., 17., 16., 11., 5., 9., 7., 10., 27., 8.,
          6., 91., 4., 11., 13., 17., 3., 20., 7. ]
      - [ 2., 2., 2., 4., 0., 0., 3., 1., 2., 1., 2., 5., 4., 9., 7., 2.,
          0., 5., 26., 3., 17., 2., 5., 7., 3., 4., 4., 2., 2., 1., 4.,
          8., 7., 2., 6., 2., 1., 3., 5., 4., 5., 4., 11., 0., 1., 0.,
          1., 6., 5., 2. ]
      - [ 2., 3., 4., 1., 1., 1., 3., 1., 1., 0., 2., 17., 2., 1., 0.,
          0., 1., 3., 22., 0., 16., 2., 3., 3., 2., 3., 0., 1., 6., 4.,
          7., 0., 8., 0., 4., 1., 1., 0., 3., 2., 3., 0., 12., 0., 0.,
          0., 4., 0., 3., 0. ]
      - [ 2., 2., 0., 0., 0., 1., 2., 0., 0., 0., 0., 8., 0., 1., 0., 0.,
          0., 1., 3., 0., 6., 1., 0., 2., 0., 2., 0., 0., 3., 1., 16.,
          1., 1., 2., 0., 0., 1., 0., 1., 3., 1., 0., 2., 0., 2., 2., 2.,
          1., 0., 0. ]
      - [ 12., 4., 4., 3., 1., 0., 3., 3., 1., 0., 0., 16., 1., 5., 0.,
          0., 1., 6., 26., 0., 35., 2., 6., 5., 1., 3., 2., 0., 4., 4.,
          2., 1., 2., 7., 11., 0., 5., 1., 2., 3., 0., 0., 8., 0., 2.,
          3., 6., 0., 10., 0. ]
      - [ 37., 1., 20., 6., 1., 2., 12., 7., 1., 1., 1., 4., 9., 9., 3.,
          1., 0., 7., 28., 16., 17., 3., 6., 4., 19., 0., 10., 2., 3.,
          5., 35., 11., 6., 3., 5., 2., 3., 1., 2., 1., 4., 4., 16., 0.,
          4., 4., 7., 4., 12., 6. ]
      - [ 4., 5., 6., 3., 1., 0., 9., 5., 2., 0., 2., 20., 0., 0., 0.,
          3., 1., 9., 24., 0., 27., 4., 12., 4., 7., 7., 10., 0., 3., 5.,
          9., 0., 4., 2., 10., 2., 2., 4., 8., 5., 2., 1., 22., 0., 9.,
          1., 9., 1., 9., 0. ]
      - [ 9., 7., 7., 0., 0., 4., 4., 3., 0., 0., 0., 6., 7., 2., 0., 1.,
          0., 12., 16., 2., 20., 8., 5., 2., 4., 1., 4., 0., 5., 4., 12.,
          3., 10., 2., 3., 0., 1., 1., 2., 2., 0., 0., 7., 0., 4., 8.,
          7., 0., 3., 0. ]
      - [ 6., 1., 4., 0., 1., 1., 7., 1., 1., 1., 0., 13., 0., 1., 1.,
          0., 3., 2., 28., 0., 27., 2., 1., 8., 0., 4., 4., 0., 3., 2.,
          14., 1., 3., 9., 21., 0., 3., 1., 2., 1., 1., 0., 17., 0., 2.,
          1., 1., 1., 34., 0. ]
      - [ 4., 7., 9., 2., 7., 3., 6., 3., 4., 2., 2., 2., 2., 3., 4., 0.,
          0., 7., 10., 0., 18., 3., 7., 2., 8., 6., 6., 6., 6., 9., 3.,
          4., 9., 2., 3., 2., 2., 5., 3., 2., 3., 0., 6., 0., 0., 2.,
          11., 3., 5., 1. ]
      - [ 0., 6., 2., 0., 0., 3., 4., 2., 0., 0., 0., 11., 1., 3., 2.,
          0., 0., 3., 9., 7., 13., 2., 5., 5., 1., 6., 2., 1., 3., 0.,
          4., 1., 4., 4., 5., 1., 12., 1., 1., 4., 1., 1., 4., 2., 4.,
          6., 4., 0., 9., 4. ]
      - [ 3., 4., 2., 5., 1., 3., 6., 2., 0., 0., 1., 17., 0., 1., 2.,
          4., 3., 5., 7., 3., 4., 4., 2., 4., 1., 5., 4., 1., 8., 8., 0.,
          1., 3., 3., 5., 3., 3., 6., 3., 5., 2., 2., 13., 0., 3., 4.,
          10., 0., 4., 1. ]
      - [ 16., 16., 8., 1., 3., 5., 2., 6., 6., 2., 2., 11., 6., 11., 4.,
          3., 9., 17., 15., 1., 5., 8., 11., 19., 8., 11., 4., 7., 10.,
          5., 26., 7., 9., 10., 13., 5., 6., 3., 7., 12., 7., 1., 22.,
          3., 3., 13., 10., 3., 10., 7. ]
      - [ 0., 4., 3., 3., 1., 1., 2., 3., 0., 0., 2., 1., 4., 2., 0., 2.,
          0., 5., 21., 5., 10., 2., 4., 1., 2., 4., 5., 1., 2., 5., 1.,
          2., 6., 3., 2., 1., 3., 3., 5., 3., 2., 2., 9., 0., 4., 0.,
          11., 2., 7., 2. ]
      - [ 41., 6., 5., 10., 1., 3., 12., 5., 4., 4., 1., 25., 5., 10.,
          3., 7., 3., 8., 32., 7., 14., 2., 1., 26., 7., 8., 7., 5., 6.,
          6., 38., 4., 6., 17., 19., 5., 8., 9., 15., 7., 6., 2., 17.,
          2., 1., 14., 5., 2., 17., 4. ]
      - [ 5., 1., 2., 1., 2., 2., 10., 5., 1., 1., 0., 6., 0., 1., 1.,
          1., 0., 4., 7., 2., 19., 2., 5., 9., 2., 3., 3., 2., 1., 6.,
          12., 3., 7., 6., 2., 1., 4., 2., 2., 0., 1., 2., 4., 0., 7.,
          0., 7., 1., 1., 1. ]
      - [ 7., 4., 1., 2., 1., 3., 8., 1., 0., 1., 1., 4., 0., 3., 3., 1.,
          1., 2., 10., 1., 20., 0., 3., 10., 2., 5., 7., 2., 2., 2., 5.,
          0., 3., 5., 8., 0., 5., 3., 3., 4., 0., 1., 1., 2., 6., 3., 7.,
          2., 5., 0. ]
      - [ 20., 3., 16., 11., 4., 3., 16., 4., 1., 3., 3., 13., 6., 15.,
          12., 3., 3., 5., 35., 11., 7., 6., 17., 10., 11., 6., 16., 5.,
          0., 5., 48., 12., 7., 8., 7., 2., 4., 3., 11., 4., 4., 4., 5.,
          1., 6., 5., 10., 7., 17., 8. ]
      - [ 4., 5., 1., 3., 4., 0., 5., 1., 1., 0., 5., 15., 3., 2., 2.,
          2., 0., 4., 5., 1., 19., 3., 2., 2., 1., 3., 3., 3., 2., 6.,
          2., 2., 4., 2., 4., 2., 2., 3., 2., 1., 2., 2., 5., 0., 0., 2.,
          5., 3., 1., 2. ]
      - [ 3., 3., 1., 0., 3., 2., 5., 5., 1., 1., 1., 10., 3., 3., 3.,
          2., 2., 5., 7., 1., 8., 2., 5., 2., 2., 8., 4., 0., 7., 4., 2.,
          2., 9., 7., 2., 1., 0., 5., 4., 4., 2., 1., 11., 1., 1., 1.,
          4., 2., 3., 0. ]
      - [ 0., 2., 5., 2., 1., 1., 3., 2., 1., 0., 2., 7., 2., 3., 1., 5.,
          0., 6., 8., 1., 5., 1., 6., 1., 2., 3., 2., 1., 6., 3., 2., 1.,
          6., 1., 5., 3., 0., 4., 5., 4., 0., 1., 10., 0., 4., 4., 6.,
          2., 2., 2. ]
      - [ 2., 5., 1., 3., 1., 1., 3., 0., 1., 0., 1., 7., 1., 2., 0., 4.,
          3., 4., 10., 1., 4., 0., 5., 3., 5., 5., 5., 2., 6., 2., 1.,
          3., 7., 6., 5., 3., 1., 2., 5., 7., 1., 0., 8., 2., 3., 2., 6.,
          0., 1., 2. ]
      - [ 2., 2., 3., 3., 1., 3., 1., 4., 2., 1., 0., 8., 2., 3., 0., 4.,
          0., 7., 9., 0., 9., 1., 6., 1., 3., 3., 7., 3., 5., 2., 4., 1.,
          4., 1., 2., 2., 1., 5., 5., 6., 3., 0., 5., 3., 3., 0., 3., 1.,
          3., 1. ]
      - [ 7., 3., 4., 3., 3., 4., 6., 5., 0., 2., 0., 6., 4., 4., 3., 1.,
          1., 6., 9., 1., 13., 5., 3., 4., 4., 5., 4., 2., 7., 7., 4.,
          3., 2., 4., 2., 1., 0., 2., 2., 4., 2., 0., 11., 1., 6., 1.,
          4., 4., 6., 1. ]
      - [ 19., 6., 9., 5., 9., 6., 8., 6., 6., 1., 8., 20., 7., 11., 3.,
          2., 1., 7., 25., 4., 22., 6., 8., 3., 10., 7., 7., 2., 7., 10.,
          18., 10., 2., 15., 13., 5., 8., 4., 7., 8., 9., 5., 13., 5.,
          6., 9., 7., 4., 16., 4. ]
      - [ 13., 2., 7., 3., 2., 4., 5., 4., 1., 0., 0., 1., 6., 6., 2.,
          1., 0., 4., 12., 6., 3., 5., 7., 5., 7., 3., 5., 3., 1., 2.,
          18., 6., 5., 2., 3., 2., 0., 1., 3., 0., 4., 1., 2., 3., 4.,
          0., 2., 6., 2., 6. ]
      - [ 15., 3., 6., 5., 4., 2., 4., 5., 3., 2., 1., 9., 4., 6., 1.,
          3., 2., 3., 12., 2., 11., 0., 7., 9., 2., 9., 5., 3., 0., 2.,
          18., 5., 2., 1., 1., 3., 1., 3., 2., 8., 3., 2., 7., 2., 2.,
          3., 3., 2., 2., 5. ]
      - [ 0., 4., 1., 3., 0., 1., 2., 2., 0., 0., 1., 12., 2., 1., 0.,
          2., 0., 3., 16., 0., 11., 1., 7., 2., 2., 4., 7., 1., 10., 2.,
          5., 1., 3., 5., 4., 0., 2., 1., 2., 4., 0., 0., 6., 0., 5., 4.,
          3., 0., 9., 0. ]
      - [ 8., 4., 13., 5., 2., 1., 9., 7., 3., 3., 2., 19., 8., 6., 3.,
          3., 3., 11., 23., 7., 37., 4., 13., 12., 9., 6., 12., 3., 8.,
          7., 9., 10., 13., 16., 14., 5., 4., 10., 9., 0., 3., 3., 24.,
          2., 11., 5., 3., 4., 12., 6. ]
      - [ 18., 7., 5., 3., 5., 6., 6., 12., 1., 4., 3., 14., 7., 9., 4.,
          5., 0., 16., 29., 10., 24., 7., 11., 8., 12., 10., 9., 1., 5.,
          2., 24., 8., 14., 9., 5., 1., 3., 2., 5., 6., 10., 5., 12., 3.,
          6., 7., 5., 11., 6., 5. ]
      - [ 15., 1., 4., 3., 0., 1., 0., 3., 0., 2., 0., 1., 1., 6., 10.,
          0., 0., 0., 8., 5., 0., 2., 8., 8., 3., 1., 6., 5., 1., 1.,
          10., 4., 0., 1., 4., 0., 0., 0., 3., 0., 3., 1., 0., 1., 3.,
          4., 2., 4., 3., 3. ]
      - [ 97., 76., 60., 45., 76., 68., 61., 32., 20., 38., 22., 74.,
          46., 39., 59., 26., 53., 49., 159., 86., 103., 86., 100., 58.,
          56., 50., 112., 43., 28., 65., 144., 42., 39., 49., 47., 24.,
          29., 32., 38., 77., 78., 54., 62., 37., 30., 31., 47., 62.,
          56., 63. ]
      - [ 75., 54., 90., 51., 39., 64., 85., 71., 27., 28., 20., 76.,
          91., 62., 33., 40., 51., 124., 236., 59., 188., 75., 60., 38.,
          86., 34., 64., 26., 76., 91., 106., 46., 99., 24., 47., 24.,
          54., 30., 58., 65., 42., 47., 124., 23., 80., 34., 81., 46.,
          67., 42. ]
      - [ 171., 65., 171., 93., 72., 107., 95., 131., 43., 82., 52.,
          183., 114., 116., 90., 53., 45., 121., 178., 214., 181., 129.,
          104., 82., 164., 69., 130., 90., 79., 115., 182., 98., 102.,
          69., 96., 37., 82., 51., 94., 61., 101., 95., 83., 58., 76.,
          76., 99., 113., 102., 166. ]
      - [ 148., 49., 58., 47., 28., 35., 95., 38., 25., 37., 26., 83.,
          50., 61., 25., 35., 24., 74., 206., 51., 220., 38., 68., 70.,
          55., 58., 60., 32., 47., 61., 134., 57., 56., 57., 85., 21.,
          49., 26., 38., 55., 41., 24., 122., 20., 53., 71., 53., 35.,
          79., 22. ]
      - [ 47., 44., 23., 39., 27., 15., 60., 35., 17., 11., 17., 74.,
          33., 26., 12., 27., 30., 36., 100., 19., 99., 20., 34., 38.,
          21., 38., 36., 14., 22., 25., 48., 22., 25., 49., 42., 16.,
          26., 17., 35., 48., 25., 15., 89., 12., 29., 20., 24., 19.,
          46., 20. ]
      - [ 5., 2., 2., 4., 4., 1., 7., 1., 0., 0., 0., 5., 1., 1., 1., 4.,
          1., 2., 5., 3., 3., 0., 3., 1., 1., 3., 5., 1., 1., 2., 4., 1.,
          1., 2., 1., 1., 1., 1., 3., 2., 0., 0., 12., 0., 3., 2., 2.,
          1., 2., 1. ]
      - [ 13., 4., 9., 8., 10., 3., 13., 8., 4., 1., 2., 4., 7., 4., 4.,
          3., 1., 17., 23., 7., 18., 6., 8., 18., 3., 12., 16., 1., 7.,
          12., 18., 5., 18., 7., 9., 1., 3., 6., 7., 10., 4., 0., 25.,
          0., 10., 4., 13., 3., 16., 3. ]
      - [ 4., 2., 1., 5., 1., 3., 2., 3., 0., 0., 0., 4., 1., 3., 2., 0.,
          0., 5., 4., 1., 5., 1., 8., 3., 3., 1., 7., 1., 2., 1., 16.,
          3., 5., 0., 1., 0., 5., 0., 2., 0., 0., 0., 5., 2., 1., 1., 6.,
          1., 2., 2. ]
      - [ 55., 19., 8., 7., 5., 5., 16., 4., 1., 5., 4., 0., 16., 24.,
          17., 6., 4., 9., 33., 23., 11., 10., 18., 13., 12., 5., 13.,
          7., 1., 7., 47., 15., 8., 3., 10., 3., 3., 3., 10., 12., 12.,
          7., 8., 1., 6., 8., 8., 5., 5., 9. ]
      - [ 6., 0., 1., 3., 0., 3., 1., 8., 1., 2., 0., 7., 6., 5., 0., 2.,
          0., 13., 7., 10., 29., 0., 1., 2., 4., 3., 2., 0., 3., 2., 6.,
          2., 8., 7., 1., 0., 6., 3., 2., 0., 4., 3., 4., 0., 5., 3., 3.,
          3., 6., 2. ]
      - [ 40., 11., 38., 24., 8., 18., 51., 17., 9., 5., 4., 51., 12.,
          14., 11., 8., 2., 39., 79., 8., 95., 22., 52., 21., 43., 12.,
          46., 11., 31., 34., 84., 9., 24., 20., 26., 6., 22., 9., 14.,
          10., 11., 7., 54., 5., 35., 20., 31., 14., 32., 13. ]
      - [ 17., 5., 13., 4., 1., 1., 4., 4., 1., 2., 0., 8., 4., 7., 6.,
          2., 1., 4., 13., 24., 13., 4., 9., 5., 11., 2., 10., 1., 3.,
          1., 18., 6., 4., 3., 4., 0., 4., 3., 5., 3., 7., 2., 18., 0.,
          6., 5., 3., 5., 4., 9. ]
      - [ 14., 4., 0., 9., 2., 4., 8., 3., 1., 0., 3., 37., 3., 0., 2.,
          2., 3., 9., 19., 1., 15., 2., 22., 18., 0., 6., 21., 0., 7.,
          1., 13., 1., 1., 14., 16., 1., 1., 2., 5., 2., 10., 1., 13.,
          7., 4., 1., 5., 7., 13., 1. ]
      - [ 6., 6., 11., 4., 6., 7., 17., 4., 4., 1., 2., 6., 7., 4., 5.,
          5., 2., 10., 16., 8., 27., 8., 12., 13., 12., 5., 15., 4., 10.,
          8., 16., 5., 11., 15., 11., 2., 5., 5., 8., 1., 12., 1., 11.,
          1., 6., 3., 9., 4., 14., 9. ]
      - [ 43., 12., 14., 14., 1., 11., 23., 3., 1., 7., 3., 70., 8., 8.,
          1., 4., 8., 16., 95., 9., 73., 8., 42., 20., 9., 12., 46., 3.,
          22., 12., 45., 4., 23., 25., 17., 5., 9., 8., 16., 11., 5.,
          13., 56., 5., 8., 16., 7., 6., 30., 3. ]
      - [ 25., 28., 20., 22., 12., 17., 24., 17., 10., 9., 6., 33., 26.,
          13., 6., 7., 10., 30., 52., 5., 64., 11., 25., 19., 25., 10.,
          21., 8., 22., 25., 24., 13., 41., 13., 19., 11., 19., 12., 23.,
          27., 9., 8., 43., 7., 12., 13., 16., 6., 23., 14. ]
      - [ 15., 42., 13., 26., 11., 14., 4., 17., 8., 4., 12., 74., 8.,
          9., 13., 21., 10., 24., 34., 6., 40., 10., 27., 32., 11., 21.,
          20., 9., 14., 14., 8., 6., 39., 56., 33., 20., 7., 31., 17.,
          37., 9., 4., 76., 1., 11., 5., 7., 2., 44., 11. ]
      - [ 13., 3., 2., 9., 4., 3., 13., 9., 0., 0., 0., 20., 6., 3., 1.,
          3., 5., 16., 62., 3., 50., 3., 45., 7., 4., 7., 43., 2., 21.,
          7., 24., 2., 12., 9., 10., 4., 9., 6., 11., 4., 4., 5., 40.,
          2., 7., 6., 14., 4., 10., 2. ]
      - [ 20., 17., 13., 17., 11., 11., 17., 6., 7., 9., 4., 35., 20.,
          13., 5., 9., 12., 20., 29., 14., 27., 9., 18., 16., 3., 12.,
          23., 5., 16., 13., 18., 11., 21., 20., 22., 8., 15., 8., 13.,
          11., 10., 6., 22., 10., 13., 22., 4., 7., 15., 12. ]
      - [ 36., 15., 29., 26., 11., 16., 26., 21., 7., 6., 6., 85., 16.,
          12., 6., 16., 5., 52., 72., 7., 88., 15., 27., 29., 36., 12.,
          24., 9., 66., 20., 54., 16., 47., 26., 33., 11., 23., 35., 17.,
          15., 33., 6., 69., 10., 34., 17., 31., 28., 38., 5. ]
      - [ 7., 3., 3., 3., 0., 4., 5., 3., 1., 0., 1., 12., 5., 2., 2.,
          0., 0., 5., 9., 1., 16., 0., 2., 6., 5., 8., 7., 1., 3., 2.,
          13., 0., 7., 2., 4., 0., 0., 3., 4., 0., 4., 1., 6., 1., 0.,
          4., 5., 0., 5., 2. ]
      - [ 32., 6., 9., 4., 4., 4., 11., 3., 3., 3., 3., 20., 7., 4., 4.,
          3., 3., 16., 30., 0., 39., 3., 11., 9., 6., 11., 15., 3., 23.,
          6., 15., 2., 14., 9., 8., 10., 8., 5., 8., 6., 7., 1., 21., 7.,
          5., 3., 9., 3., 16., 2. ]
      - [ 10., 5., 11., 2., 4., 2., 7., 3., 1., 3., 1., 23., 2., 6., 3.,
          5., 3., 3., 11., 1., 11., 3., 4., 6., 12., 14., 6., 2., 9., 9.,
          12., 8., 5., 12., 3., 4., 6., 11., 2., 12., 2., 2., 19., 0.,
          5., 12., 4., 3., 1., 4. ]
      - [ 11., 3., 1., 1., 3., 0., 1., 0., 1., 0., 1., 12., 2., 4., 1.,
          2., 8., 1., 4., 0., 2., 2., 1., 6., 0., 2., 0., 4., 1., 0., 5.,
          1., 2., 7., 2., 0., 1., 0., 0., 5., 1., 1., 37., 0., 2., 0.,
          1., 2., 0., 1. ]
      - [ 27., 9., 15., 8., 9., 4., 12., 15., 2., 1., 3., 77., 23., 7.,
          4., 9., 14., 28., 106., 0., 131., 7., 16., 17., 17., 18., 13.,
          8., 18., 19., 38., 10., 19., 18., 19., 3., 8., 9., 4., 12., 9.,
          3., 90., 2., 15., 9., 20., 3., 29., 3. ]
      - [ 41., 23., 28., 22., 21., 24., 12., 27., 17., 16., 16., 84.,
          25., 20., 15., 14., 23., 39., 99., 55., 137., 21., 31., 28.,
          35., 30., 22., 17., 33., 15., 64., 24., 33., 20., 35., 9., 35.,
          21., 23., 13., 17., 8., 39., 12., 25., 11., 27., 9., 35., 14. ]
      - [ 31., 8., 16., 7., 1., 5., 20., 7., 3., 1., 0., 49., 6., 7., 2.,
          9., 0., 14., 68., 7., 62., 9., 11., 5., 18., 11., 11., 1., 10.,
          16., 66., 9., 11., 10., 14., 0., 5., 9., 11., 6., 9., 6., 29.,
          0., 10., 8., 9., 10., 13., 9. ]
      - [ 8., 1., 2., 0., 2., 1., 2., 0., 0., 1., 1., 0., 0., 3., 2., 1.,
          2., 0., 1., 2., 2., 0., 1., 11., 0., 1., 0., 1., 0., 0., 1.,
          6., 1., 2., 0., 3., 0., 0., 0., 3., 1., 1., 17., 0., 2., 0.,
          0., 0., 0., 1. ]
      - [ 18., 20., 15., 26., 22., 14., 12., 23., 27., 22., 10., 49.,
          36., 19., 12., 19., 37., 39., 23., 21., 45., 8., 9., 10., 15.,
          18., 21., 16., 37., 17., 10., 22., 22., 14., 16., 23., 17.,
          22., 17., 22., 17., 18., 43., 25., 29., 16., 15., 14., 14.,
          11. ]
      - [ 63., 26., 13., 16., 8., 10., 15., 14., 12., 10., 11., 91., 18.,
          17., 15., 18., 9., 17., 64., 17., 62., 15., 20., 55., 15., 31.,
          23., 7., 28., 27., 81., 13., 20., 47., 27., 7., 17., 20., 14.,
          18., 17., 13., 86., 11., 10., 26., 18., 9., 30., 17. ]
      - [ 56., 15., 39., 12., 8., 10., 39., 13., 11., 6., 8., 30., 18.,
          31., 12., 10., 9., 29., 98., 22., 71., 13., 19., 38., 48., 18.,
          14., 10., 8., 20., 64., 29., 12., 34., 38., 8., 15., 8., 16.,
          20., 13., 17., 59., 5., 24., 18., 20., 19., 45., 30. ]
      - [ 75., 15., 17., 11., 8., 11., 14., 16., 7., 16., 5., 44., 17.,
          27., 17., 10., 6., 16., 33., 21., 36., 15., 16., 51., 13., 28.,
          14., 11., 4., 8., 57., 40., 21., 42., 24., 2., 8., 14., 3.,
          18., 19., 9., 63., 7., 10., 18., 11., 9., 26., 20. ]
      - [ 41., 15., 4., 6., 11., 2., 6., 5., 7., 4., 4., 32., 9., 14.,
          7., 9., 5., 3., 3., 3., 10., 8., 9., 30., 4., 8., 10., 5., 7.,
          7., 36., 8., 4., 10., 12., 2., 5., 5., 4., 11., 9., 5., 28.,
          1., 2., 5., 3., 5., 6., 14. ]
      - [ 3., 9., 16., 18., 15., 3., 11., 10., 10., 1., 7., 130., 11.,
          4., 9., 8., 8., 27., 62., 14., 72., 5., 15., 13., 8., 26., 13.,
          4., 26., 11., 10., 7., 26., 23., 15., 6., 2., 13., 10., 10.,
          8., 4., 82., 4., 10., 3., 18., 3., 13., 13. ]
      - [ 0., 14., 1., 4., 9., 2., 4., 2., 3., 1., 1., 46., 2., 2., 0.,
          5., 2., 5., 5., 1., 19., 2., 7., 3., 2., 13., 13., 0., 20., 8.,
          3., 1., 4., 7., 5., 1., 4., 7., 8., 8., 3., 0., 24., 1., 3.,
          3., 6., 7., 2., 2. ]
      - [ 27., 3., 5., 1., 4., 2., 6., 2., 1., 1., 0., 1., 4., 8., 2.,
          0., 2., 5., 5., 7., 1., 7., 9., 8., 4., 1., 5., 1., 8., 5.,
          46., 8., 5., 1., 4., 2., 4., 5., 4., 6., 4., 0., 8., 1., 0.,
          4., 10., 2., 2., 4. ]
      - [ 0., 6., 5., 8., 4., 11., 6., 6., 5., 2., 4., 64., 7., 11., 3.,
          12., 6., 16., 43., 2., 101., 5., 10., 9., 13., 11., 11., 1.,
          11., 11., 1., 7., 31., 34., 11., 4., 9., 17., 9., 6., 8., 1.,
          33., 0., 8., 3., 13., 2., 35., 4. ]
      - [ 2., 2., 2., 2., 1., 5., 1., 3., 2., 2., 0., 14., 4., 2., 2.,
          0., 1., 10., 19., 3., 32., 6., 6., 1., 5., 4., 5., 0., 8., 2.,
          1., 3., 3., 3., 1., 2., 3., 2., 4., 1., 4., 3., 14., 0., 2.,
          0., 3., 5., 4., 2. ]
      - [ 14., 10., 1., 5., 2., 4., 5., 6., 5., 2., 1., 24., 4., 2., 3.,
          4., 8., 6., 29., 2., 26., 5., 10., 9., 3., 10., 7., 3., 18.,
          9., 6., 4., 2., 6., 14., 2., 8., 5., 3., 5., 4., 5., 17., 3.,
          11., 12., 10., 1., 8., 3. ]
      - [ 2., 3., 3., 5., 0., 1., 7., 1., 1., 0., 1., 7., 2., 2., 0., 0.,
          0., 4., 9., 9., 23., 0., 2., 0., 3., 1., 3., 0., 5., 5., 4.,
          2., 6., 2., 4., 2., 1., 2., 2., 2., 0., 0., 4., 0., 7., 2., 6.,
          1., 8., 1. ]
      - [ 42., 8., 19., 5., 0., 7., 10., 6., 2., 1., 3., 16., 8., 9., 5.,
          1., 2., 15., 49., 6., 38., 5., 11., 18., 13., 16., 15., 11.,
          10., 10., 41., 5., 14., 8., 15., 4., 18., 7., 6., 4., 11., 5.,
          20., 2., 8., 18., 14., 3., 21., 7. ]
      - [ 3., 2., 2., 0., 0., 1., 1., 2., 1., 0., 1., 6., 3., 0., 0., 0.,
          0., 6., 18., 0., 10., 2., 2., 1., 1., 0., 2., 0., 6., 0., 3.,
          1., 4., 2., 4., 0., 0., 1., 0., 2., 0., 0., 6., 0., 0., 1., 3.,
          0., 4., 0. ]
      - [ 5., 1., 2., 2., 0., 1., 0., 1., 1., 1., 0., 11., 1., 5., 0.,
          1., 3., 4., 36., 0., 33., 0., 2., 5., 2., 9., 1., 1., 2., 4.,
          9., 1., 4., 6., 14., 0., 5., 0., 2., 2., 0., 0., 6., 0., 2.,
          8., 1., 0., 33., 1. ]
      - [ 8., 1., 1., 0., 0., 5., 2., 2., 1., 0., 0., 12., 3., 2., 1.,
          1., 0., 5., 24., 0., 24., 2., 0., 0., 2., 2., 2., 1., 5., 4.,
          6., 3., 5., 1., 5., 1., 5., 3., 1., 3., 2., 1., 8., 0., 4., 7.,
          7., 1., 6., 0. ]
      - [ 19., 2., 4., 2., 2., 5., 4., 3., 1., 2., 1., 24., 2., 8., 5.,
          2., 2., 7., 71., 7., 44., 6., 11., 14., 4., 8., 9., 2., 11.,
          3., 30., 8., 6., 8., 4., 1., 9., 3., 2., 1., 3., 2., 14., 2.,
          2., 5., 7., 5., 16., 4. ]
      - [ 14., 20., 13., 6., 7., 10., 10., 18., 5., 7., 4., 15., 12.,
          12., 3., 13., 13., 13., 34., 4., 37., 5., 10., 24., 10., 18.,
          9., 4., 11., 11., 22., 11., 10., 26., 27., 5., 9., 7., 15.,
          20., 11., 11., 29., 5., 13., 16., 17., 15., 19., 6. ]
      - [ 4., 3., 4., 5., 2., 3., 6., 5., 0., 2., 1., 22., 1., 1., 0.,
          6., 0., 5., 30., 0., 26., 1., 7., 3., 5., 3., 5., 2., 8., 5.,
          10., 1., 8., 6., 1., 1., 2., 6., 5., 1., 6., 1., 19., 0., 4.,
          2., 8., 2., 3., 1. ]
      - [ 18., 0., 3., 2., 2., 4., 3., 2., 0., 1., 0., 3., 3., 5., 0.,
          0., 0., 4., 28., 4., 19., 5., 3., 1., 9., 3., 3., 1., 8., 7.,
          20., 8., 5., 3., 3., 0., 0., 0., 2., 0., 1., 0., 2., 0., 4.,
          2., 5., 3., 4., 0. ]
      - [ 5., 4., 2., 2., 0., 0., 2., 1., 2., 0., 1., 4., 1., 1., 0., 2.,
          0., 3., 19., 0., 32., 2., 1., 1., 1., 6., 2., 0., 4., 1., 6.,
          1., 1., 5., 2., 1., 0., 1., 2., 3., 0., 1., 10., 0., 2., 0.,
          2., 1., 10., 0. ]
      - [ 19., 4., 7., 9., 6., 1., 10., 4., 5., 2., 4., 28., 10., 4., 4.,
          7., 3., 15., 41., 8., 41., 5., 7., 9., 10., 6., 4., 1., 14.,
          11., 14., 8., 11., 12., 10., 5., 4., 7., 5., 7., 6., 2., 24.,
          4., 7., 9., 14., 3., 7., 8. ]
      - [ 18., 5., 8., 10., 1., 2., 14., 6., 1., 1., 1., 34., 3., 3., 1.,
          5., 3., 9., 84., 4., 64., 4., 5., 3., 10., 19., 9., 0., 29.,
          6., 14., 5., 9., 7., 15., 1., 14., 4., 6., 8., 2., 1., 40., 1.,
          4., 5., 12., 1., 11., 3. ]
      - [ 3., 0., 1., 0., 0., 1., 0., 1., 0., 0., 0., 4., 0., 0., 1., 0.,
          0., 1., 25., 2., 26., 0., 3., 0., 1., 0., 0., 0., 5., 0., 5.,
          0., 1., 0., 0., 0., 0., 1., 0., 2., 0., 1., 2., 0., 1., 0., 7.,
          0., 1., 1. ]
      - [ 0., 3., 4., 3., 1., 3., 2., 1., 0., 0., 0., 4., 1., 2., 1., 0.,
          1., 8., 26., 2., 26., 2., 4., 1., 5., 2., 5., 0., 9., 2., 0.,
          3., 9., 0., 4., 0., 0., 1., 3., 1., 1., 0., 3., 1., 2., 0., 4.,
          0., 2., 2. ]
      - [ 11., 9., 9., 5., 5., 6., 12., 4., 2., 1., 3., 34., 0., 3., 0.,
          1., 5., 8., 34., 2., 23., 1., 5., 6., 6., 5., 12., 1., 8., 6.,
          7., 0., 12., 9., 7., 4., 8., 6., 5., 6., 4., 5., 33., 2., 5.,
          3., 2., 0., 9., 4. ]
      - [ 6., 4., 4., 7., 0., 2., 5., 2., 1., 0., 1., 13., 3., 4., 0.,
          3., 0., 6., 13., 0., 26., 1., 4., 4., 4., 7., 3., 1., 6., 4.,
          15., 4., 4., 7., 2., 2., 2., 3., 1., 1., 2., 1., 20., 0., 3.,
          6., 4., 0., 8., 4. ]
      - [ 26., 6., 3., 5., 3., 2., 0., 2., 2., 2., 2., 49., 1., 5., 2.,
          5., 1., 19., 39., 2., 25., 5., 3., 30., 5., 20., 1., 4., 10.,
          8., 24., 3., 5., 34., 13., 0., 4., 4., 6., 9., 3., 0., 64., 1.,
          8., 13., 5., 5., 12., 0. ]
      - [ 12., 4., 5., 2., 1., 3., 5., 0., 1., 0., 0., 32., 3., 1., 1.,
          1., 2., 7., 43., 0., 51., 2., 7., 13., 4., 6., 9., 4., 4., 8.,
          20., 2., 6., 12., 16., 1., 6., 1., 2., 4., 2., 2., 30., 0., 3.,
          3., 14., 2., 10., 1. ]
      - [ 3., 3., 3., 2., 1., 1., 3., 2., 1., 2., 0., 26., 3., 4., 2.,
          1., 1., 9., 28., 0., 26., 1., 5., 6., 1., 5., 4., 2., 14., 8.,
          0., 1., 3., 2., 5., 0., 5., 0., 3., 3., 1., 0., 9., 0., 4., 0.,
          5., 0., 5., 1. ]
      - [ 5., 3., 2., 3., 0., 2., 2., 1., 2., 0., 1., 5., 2., 1., 1., 2.,
          0., 4., 25., 1., 33., 0., 0., 2., 0., 4., 1., 1., 7., 1., 8.,
          3., 2., 0., 1., 3., 3., 1., 1., 2., 0., 0., 8., 0., 4., 3., 4.,
          1., 3., 0. ]
      - [ 9., 5., 0., 2., 0., 0., 6., 1., 0., 0., 1., 2., 1., 3., 1., 0.,
          0., 4., 33., 3., 45., 1., 4., 4., 2., 3., 3., 2., 5., 2., 14.,
          2., 4., 6., 1., 1., 1., 1., 2., 4., 0., 1., 8., 0., 0., 1., 5.,
          1., 7., 4. ]
      - [ 2., 1., 1., 2., 0., 1., 3., 2., 0., 0., 0., 6., 3., 1., 0., 1.,
          0., 0., 18., 1., 23., 3., 6., 2., 3., 3., 3., 0., 0., 2., 5.,
          0., 1., 2., 4., 0., 2., 0., 2., 2., 0., 0., 4., 0., 0., 4., 3.,
          0., 4., 0. ]
      - [ 8., 9., 2., 7., 4., 7., 17., 2., 4., 3., 3., 20., 4., 7., 2.,
          1., 1., 14., 42., 4., 51., 9., 9., 67., 9., 18., 9., 0., 34.,
          10., 38., 1., 6., 32., 13., 1., 14., 8., 9., 10., 12., 1., 14.,
          0., 13., 8., 12., 9., 19., 1. ]
      - [ 25., 5., 19., 22., 2., 5., 19., 13., 3., 2., 2., 30., 15., 14.,
          3., 8., 5., 21., 68., 12., 62., 7., 19., 11., 16., 16., 19.,
          4., 15., 22., 26., 11., 17., 15., 5., 3., 6., 10., 19., 6., 3.,
          5., 34., 3., 15., 4., 16., 5., 21., 4. ]
      - [ 4., 0., 8., 4., 4., 0., 9., 6., 2., 3., 2., 15., 4., 2., 1.,
          1., 2., 5., 29., 5., 19., 2., 5., 6., 6., 3., 4., 1., 7., 6.,
          7., 1., 2., 6., 6., 1., 5., 1., 5., 3., 2., 1., 6., 0., 3., 2.,
          8., 2., 5., 0. ]
      - [ 9., 3., 6., 5., 3., 3., 7., 6., 0., 1., 1., 11., 10., 3., 2.,
          3., 1., 12., 41., 1., 49., 5., 11., 4., 6., 7., 8., 4., 5., 9.,
          12., 2., 12., 6., 8., 3., 4., 6., 5., 4., 2., 3., 12., 1., 2.,
          3., 6., 1., 12., 3. ]
      - [ 29., 10., 12., 11., 1., 7., 13., 7., 8., 4., 3., 41., 17., 9.,
          3., 7., 1., 24., 71., 5., 69., 11., 16., 19., 13., 7., 7., 5.,
          24., 14., 19., 10., 18., 23., 31., 4., 14., 3., 9., 11., 1.,
          1., 40., 3., 11., 21., 17., 4., 26., 8. ]
      - [ 22., 11., 8., 6., 3., 6., 9., 10., 2., 0., 4., 3., 9., 10., 1.,
          3., 0., 7., 10., 8., 9., 7., 6., 9., 13., 5., 5., 3., 6., 6.,
          14., 11., 8., 5., 7., 1., 5., 6., 3., 9., 5., 6., 12., 2., 4.,
          6., 8., 3., 10., 2. ]
      - [ 21., 18., 10., 10., 13., 6., 17., 21., 11., 7., 2., 12., 17.,
          10., 7., 11., 11., 21., 25., 8., 24., 10., 16., 7., 14., 20.,
          14., 6., 21., 14., 31., 9., 15., 4., 12., 6., 18., 11., 8.,
          15., 11., 7., 18., 11., 15., 11., 15., 14., 11., 7. ]
      - [ 17., 3., 14., 2., 3., 14., 1., 11., 6., 7., 3., 5., 7., 6., 2.,
          3., 4., 10., 24., 11., 28., 10., 8., 2., 13., 7., 17., 8., 12.,
          9., 13., 11., 11., 1., 5., 3., 12., 5., 5., 6., 4., 8., 9., 6.,
          11., 3., 9., 6., 6., 5. ]
      - [ 3., 6., 2., 2., 1., 1., 12., 3., 4., 1., 1., 15., 3., 0., 3.,
          4., 3., 9., 20., 0., 23., 2., 8., 1., 7., 7., 2., 3., 8., 6.,
          7., 0., 4., 5., 6., 1., 9., 6., 6., 6., 2., 1., 22., 0., 7.,
          2., 5., 3., 12., 1. ]
      - [ 5., 3., 10., 2., 0., 2., 3., 2., 0., 0., 0., 5., 3., 0., 1.,
          1., 1., 8., 22., 1., 15., 2., 4., 5., 1., 2., 1., 1., 6., 1.,
          11., 1., 5., 2., 5., 0., 6., 2., 3., 1., 1., 2., 12., 0., 4.,
          0., 2., 0., 4., 1. ]
      - [ 4., 3., 3., 0., 2., 0., 3., 0., 0., 0., 0., 2., 2., 0., 0., 0.,
          1., 5., 20., 0., 8., 0., 8., 3., 2., 1., 5., 0., 6., 4., 6.,
          0., 7., 2., 4., 1., 0., 4., 1., 1., 1., 2., 6., 0., 3., 1., 6.,
          1., 4., 0. ]
      - [ 25., 2., 12., 7., 1., 3., 10., 7., 2., 2., 5., 2., 3., 3., 2.,
          3., 0., 3., 35., 14., 16., 2., 5., 4., 5., 9., 6., 1., 1., 3.,
          35., 7., 4., 3., 3., 1., 0., 2., 3., 1., 1., 6., 2., 0., 6.,
          5., 1., 1., 10., 4. ]
      - [ 3., 0., 1., 3., 0., 0., 2., 1., 0., 1., 0., 7., 4., 0., 0., 0.,
          0., 4., 19., 11., 13., 1., 1., 5., 4., 3., 3., 1., 2., 4., 7.,
          3., 4., 2., 5., 2., 1., 0., 1., 1., 2., 2., 6., 0., 3., 3., 4.,
          2., 4., 3. ]
      - [ 24., 3., 15., 10., 0., 4., 5., 9., 3., 2., 3., 5., 8., 4., 6.,
          1., 3., 21., 29., 9., 15., 9., 7., 2., 12., 10., 6., 1., 14.,
          12., 22., 3., 14., 7., 5., 2., 15., 4., 6., 0., 3., 3., 24.,
          1., 12., 3., 15., 4., 13., 6. ]
      - [ 17., 4., 7., 4., 0., 6., 17., 4., 1., 1., 0., 13., 5., 2., 1.,
          0., 0., 9., 16., 3., 13., 6., 6., 4., 15., 4., 1., 0., 6., 9.,
          11., 4., 11., 9., 3., 1., 9., 1., 1., 1., 1., 4., 5., 1., 11.,
          8., 8., 0., 12., 3. ]
      - [ 8., 12., 14., 7., 6., 5., 14., 11., 7., 3., 5., 27., 9., 6.,
          3., 2., 2., 20., 45., 1., 38., 5., 18., 9., 22., 18., 16., 3.,
          12., 10., 17., 7., 13., 15., 12., 7., 6., 5., 13., 12., 5., 3.,
          22., 2., 17., 8., 17., 2., 17., 4. ]
      - [ 4., 4., 13., 11., 2., 11., 13., 8., 2., 1., 2., 20., 11., 2.,
          4., 1., 2., 17., 38., 7., 40., 3., 5., 0., 10., 4., 6., 6.,
          16., 6., 9., 4., 15., 4., 6., 2., 14., 3., 7., 6., 5., 3., 14.,
          3., 9., 1., 15., 6., 10., 4. ]
   decision_functions:
      -
         sv_count: 186
         rho: -7.3737975554466062e-01
         alpha: [ 2.4300468441148954e-01, 5.0000000000000000e-01,
             5.0000000000000000e-01, 5.0000000000000000e-01,
             5.0000000000000000e-01, 5.0000000000000000e-01,
             5.0000000000000000e-01, 5.0000000000000000e-01,
             2.4373946495952298e-01, 5.0000000000000000e-01,
             5.0000000000000000e-01, 5.0000000000000000e-01,
             5.0000000000000000e-01, 5.0000000000000000e-01,
             5.0000000000000000e-01, 1.1292728382001987e-01,
             5.0000000000000000e-01, 3.8707271617998013e-01,
             5.0000000000000000e-01, 5.0000000000000000e-01,
             5.0000000000000000e-01, 5.0000000000000000e-01,
             5.0000000000000000e-01, 5.0000000000000000e-01,
             5.0000000000000000e-01, 5.0000000000000000e-01,
             5.0000000000000000e-01, 5.0000000000000000e-01,
             1.8589349720487014e-01, 5.0000000000000000e-01,
             5.0000000000000000e-01, 5.0000000000000000e-01,
             5.0000000000000000e-01, 5.0000000000000000e-01,
             2.4999997473866897e-01, 2.4999988889968489e-01,
             2.4999642409945660e-01, 2.4999475230877471e-01,
             2.5102965588063314e-01, 5.0000000000000000e-01,
             2.5699531558851046e-01, 5.0000000000000000e-01,
             2.5560021462634291e-01, 5.0000000000000000e-01,
             3.1424754867117566e-01, 2.4728120845413903e-01,
             5.0000000000000000e-01, 2.2550540670426827e-01,
             2.5000524769122529e-01, 5.0000000000000000e-01,
             2.5271879154586097e-01, 5.0000000000000000e-01,
             5.0000000000000000e-01, 2.5000011110031511e-01,
             5.0000000000000000e-01, 5.0000000000000000e-01,
             5.0000000000000000e-01, 2.7449459329573173e-01,
             5.0000000000000000e-01, 2.5112562842971420e-01,
             5.0000000000000000e-01, 5.0000000000000000e-01,
             2.5000357590054340e-01, 2.5000002526133103e-01,
             3.2798421977656450e-01, 2.4887437157028580e-01,
             2.5626053504047702e-01, 2.4897034411936686e-01,
             5.0000000000000000e-01, 5.0000000000000000e-01,
             5.0000000000000000e-01, 5.0000000000000000e-01,
             5.0000000000000000e-01, 5.0000000000000000e-01,
             5.0000000000000000e-01, 5.0000000000000000e-01,
             5.0000000000000000e-01, 5.0000000000000000e-01,
             5.0000000000000000e-01, 5.0000000000000000e-01,
             5.0000000000000000e-01, 5.0000000000000000e-01,
             2.4439978537365709e-01, 5.0000000000000000e-01,
             5.0000000000000000e-01, 5.0000000000000000e-01,
             5.0000000000000000e-01, 5.0000000000000000e-01,
             5.0000000000000000e-01, 5.0000000000000000e-01,
             3.1410650279512986e-01, 5.0000000000000000e-01,
             5.0000000000000000e-01, 5.0000000000000000e-01,
             5.0000000000000000e-01, 5.0000000000000000e-01,
             1.8575245132882434e-01, 5.0000000000000000e-01,
             5.0000000000000000e-01, 5.0000000000000000e-01,
             -5.0000000000000000e-01, -5.0000000000000000e-01,
             -5.0000000000000000e-01, -5.0000000000000000e-01,
             -5.0000000000000000e-01, -5.0000000000000000e-01,
             -5.0000000000000000e-01, -5.0000000000000000e-01,
             -5.0000000000000000e-01, -5.0000000000000000e-01,
             -5.0000000000000000e-01, -5.0000000000000000e-01,
             -5.0000000000000000e-01, -3.2798421977656450e-01,
             -5.0000000000000000e-01, -5.0000000000000000e-01,
             -5.0000000000000000e-01, -5.0000000000000000e-01,
             -5.0000000000000000e-01, -5.0000000000000000e-01,
             -5.0000000000000000e-01, -5.0000000000000000e-01,
             -5.0000000000000000e-01, -5.0000000000000000e-01,
             -5.0000000000000000e-01, -5.0000000000000000e-01,
             -5.0000000000000000e-01, -5.0000000000000000e-01,
             -5.0000000000000000e-01, -5.0000000000000000e-01,
             -5.0000000000000000e-01, -5.0000000000000000e-01,
             -5.0000000000000000e-01, -5.0000000000000000e-01,
             -5.0000000000000000e-01, -5.0000000000000000e-01,
             -5.0000000000000000e-01, -5.0000000000000000e-01,
             -5.0000000000000000e-01, -5.0000000000000000e-01,
             -5.0000000000000000e-01, -5.0000000000000000e-01,
             -5.0000000000000000e-01, -5.0000000000000000e-01,
             -5.0000000000000000e-01, -5.0000000000000000e-01,
             -5.0000000000000000e-01, -5.0000000000000000e-01,
             -5.0000000000000000e-01, -5.0000000000000000e-01,
             -5.0000000000000000e-01, -5.0000000000000000e-01,
             -5.0000000000000000e-01, -5.0000000000000000e-01,
             -5.0000000000000000e-01, -5.0000000000000000e-01,
             -5.0000000000000000e-01, -5.0000000000000000e-01,
             -5.0000000000000000e-01, -5.0000000000000000e-01,
             -5.0000000000000000e-01, -5.0000000000000000e-01,
             -5.0000000000000000e-01, -5.0000000000000000e-01,
             -5.0000000000000000e-01, -5.0000000000000000e-01,
             -5.0000000000000000e-01, -5.0000000000000000e-01,
             -5.0000000000000000e-01, -5.0000000000000000e-01,
             -5.0000000000000000e-01, -5.0000000000000000e-01,
             -5.0000000000000000e-01, -5.0000000000000000e-01,
             -5.0000000000000000e-01, -5.0000000000000000e-01,
             -5.0000000000000000e-01, -5.0000000000000000e-01,
             -5.0000000000000000e-01, -5.0000000000000000e-01,
             -5.0000000000000000e-01, -5.0000000000000000e-01,
             -5.0000000000000000e-01, -5.0000000000000000e-01,
             -5.0000000000000000e-01, -5.0000000000000000e-01 ]
         index: [ 94, 175, 176, 177, 178, 179, 180, 181, 182, 134, 183,
             184, 185, 86, 87, 88, 89, 90, 91, 92, 93, 95, 96, 97, 98,
             99, 100, 101, 102, 103, 104, 105, 106, 107, 108, 109, 110,
             111, 112, 113, 114, 115, 116, 117, 118, 119, 120, 121, 122,
             123, 124, 125, 126, 127, 128, 129, 130, 131, 132, 133, 135,
             136, 137, 138, 139, 140, 141, 142, 143, 144, 145, 146, 147,
             148, 149, 150, 151, 152, 153, 154, 155, 156, 157, 158, 159,
             160, 161, 162, 163, 164, 165, 166, 167, 168, 169, 170, 171,
             172, 173, 174, 1, 2, 3, 4, 5, 6, 7, 8, 9, 10, 11, 12, 13,
             14, 15, 16, 17, 18, 19, 20, 21, 22, 23, 24, 25, 26, 27, 28,
             29, 30, 31, 32, 33, 34, 35, 36, 37, 38, 39, 40, 41, 42, 43,
             44, 45, 46, 47, 48, 49, 50, 51, 52, 53, 54, 55, 56, 57, 58,
             59, 60, 61, 62, 63, 64, 65, 66, 67, 69, 70, 71, 72, 73, 74,
             75, 76, 77, 78, 79, 80, 81, 82, 83, 84, 85, 68, 0 ]
