%YAML:1.0
---
opencv_ml_svm:
   format: 3
   svmType: C_SVC
   kernel:
      type: RBF
      gamma: 2.2500000000000003e-03
   C: 2.5000000000000000e+00
   term_criteria: { iterations:100 }
   var_count: 50
   class_count: 2
   class_labels: !!opencv-matrix
      rows: 2
      cols: 1
      dt: i
      data: [ 0, 1 ]
   sv_total: 146
   support_vectors:
      - [ 17., 17., 15., 4., 10., 6., 15., 13., 5., 1., 4., 56., 6., 7.,
          4., 5., 3., 17., 71., 3., 76., 5., 16., 10., 11., 9., 14., 0.,
          20., 16., 13., 6., 11., 6., 16., 1., 13., 13., 9., 14., 2., 5.,
          43., 0., 15., 12., 12., 2., 13., 1. ]
      - [ 2., 2., 9., 1., 0., 2., 0., 3., 0., 0., 1., 4., 2., 2., 1., 1.,
          1., 4., 6., 4., 8., 1., 10., 3., 8., 2., 2., 1., 5., 4., 9.,
          3., 10., 3., 4., 0., 3., 2., 3., 2., 3., 2., 8., 0., 2., 0.,
          1., 0., 3., 3. ]
      - [ 3., 0., 4., 0., 0., 0., 5., 3., 0., 0., 0., 1., 1., 3., 0., 0.,
          0., 6., 12., 0., 19., 2., 2., 0., 5., 2., 3., 0., 5., 4., 2.,
          1., 3., 0., 0., 0., 4., 0., 1., 0., 1., 1., 5., 1., 8., 0.,
          11., 2., 1., 0. ]
      - [ 0., 1., 0., 1., 0., 0., 1., 2., 0., 2., 1., 0., 1., 0., 0., 0.,
          1., 3., 6., 1., 10., 3., 4., 0., 3., 0., 3., 1., 6., 4., 0.,
          0., 5., 0., 1., 2., 1., 1., 2., 1., 0., 0., 5., 0., 2., 1., 7.,
          0., 2., 0. ]
      - [ 2., 1., 2., 0., 0., 0., 1., 0., 0., 0., 1., 5., 0., 3., 1., 0.,
          0., 9., 17., 0., 20., 1., 3., 2., 1., 3., 5., 1., 4., 4., 6.,
          4., 5., 4., 1., 1., 3., 1., 1., 2., 0., 0., 2., 0., 2., 1., 1.,
          0., 2., 0. ]
      - [ 7., 2., 5., 2., 4., 2., 5., 4., 2., 0., 1., 15., 1., 2., 0.,
          2., 0., 6., 23., 2., 19., 1., 4., 2., 0., 6., 7., 0., 4., 6.,
          12., 2., 7., 4., 5., 0., 3., 5., 1., 2., 2., 1., 14., 0., 3.,
          0., 7., 3., 8., 0. ]
      - [ 2., 2., 3., 0., 2., 2., 10., 0., 0., 0., 0., 8., 0., 1., 0.,
          2., 1., 2., 14., 3., 22., 2., 1., 3., 0., 4., 0., 0., 2., 4.,
          4., 0., 5., 2., 1., 2., 1., 3., 1., 1., 5., 1., 11., 0., 2.,
          2., 2., 1., 1., 1. ]
      - [ 3., 3., 3., 0., 0., 1., 0., 0., 1., 0., 1., 5., 1., 1., 0., 0.,
          1., 1., 8., 0., 14., 0., 4., 1., 2., 3., 3., 1., 14., 3., 3.,
          1., 4., 2., 0., 0., 1., 1., 1., 2., 1., 0., 4., 0., 3., 1., 2.,
          1., 0., 0. ]
      - [ 6., 4., 4., 3., 0., 2., 7., 2., 0., 0., 0., 10., 2., 4., 0.,
          2., 1., 3., 9., 2., 11., 1., 3., 5., 3., 5., 7., 4., 6., 3.,
          3., 2., 4., 5., 6., 0., 4., 1., 1., 7., 3., 3., 6., 1., 4., 1.,
          6., 1., 8., 1. ]
      - [ 5., 5., 4., 1., 1., 6., 3., 5., 0., 1., 1., 8., 4., 10., 1.,
          1., 1., 3., 9., 5., 9., 4., 8., 5., 6., 2., 5., 3., 3., 6., 7.,
          7., 8., 10., 3., 2., 4., 4., 2., 6., 1., 4., 10., 0., 6., 9.,
          2., 4., 6., 4. ]
      - [ 2., 4., 1., 2., 1., 0., 2., 0., 2., 1., 2., 9., 1., 0., 0., 3.,
          2., 2., 4., 0., 7., 1., 0., 4., 1., 2., 1., 0., 4., 3., 1., 0.,
          1., 0., 4., 0., 0., 1., 2., 3., 0., 0., 6., 0., 2., 3., 0., 0.,
          4., 1. ]
      - [ 0., 3., 2., 3., 1., 1., 8., 3., 0., 1., 0., 13., 2., 1., 2.,
          2., 3., 3., 8., 4., 6., 0., 6., 3., 1., 4., 2., 1., 2., 1., 1.,
          2., 5., 5., 4., 0., 2., 5., 0., 4., 0., 0., 8., 0., 4., 2., 1.,
          1., 4., 1. ]
      - [ 6., 4., 2., 0., 0., 0., 0., 3., 1., 4., 0., 6., 1., 7., 0., 1.,
          3., 3., 3., 0., 2., 2., 0., 4., 2., 2., 1., 4., 5., 1., 4., 1.,
          2., 2., 4., 1., 6., 1., 1., 5., 1., 1., 6., 2., 6., 0., 4., 0.,
          2., 1. ]
      - [ 29., 5., 3., 1., 1., 4., 5., 3., 0., 3., 2., 29., 5., 5., 4.,
          6., 1., 3., 37., 3., 25., 3., 2., 20., 4., 2., 5., 4., 1., 6.,
          35., 3., 3., 13., 17., 1., 10., 2., 4., 6., 2., 5., 26., 1.,
          4., 24., 1., 3., 20., 3. ]
      - [ 10., 4., 1., 2., 2., 0., 9., 4., 1., 1., 1., 20., 3., 2., 1.,
          3., 1., 5., 12., 1., 19., 1., 6., 8., 4., 12., 6., 0., 13., 7.,
          7., 4., 2., 7., 5., 0., 3., 0., 1., 6., 2., 2., 18., 1., 0.,
          4., 6., 0., 5., 1. ]
      - [ 17., 5., 1., 1., 0., 2., 3., 2., 2., 3., 0., 7., 2., 4., 2.,
          4., 2., 1., 19., 0., 15., 5., 0., 7., 3., 9., 2., 2., 2., 2.,
          25., 1., 2., 1., 3., 0., 0., 3., 0., 2., 4., 4., 6., 1., 1.,
          6., 3., 4., 5., 1. ]
      - [ 1., 2., 2., 4., 2., 1., 3., 1., 1., 0., 3., 10., 1., 4., 0.,
          1., 3., 2., 6., 4., 3., 0., 4., 1., 0., 6., 7., 0., 1., 2., 7.,
          1., 1., 3., 1., 1., 0., 0., 3., 0., 3., 0., 8., 1., 0., 0., 2.,
          3., 2., 1. ]
      - [ 11., 5., 5., 2., 0., 4., 1., 2., 0., 2., 2., 8., 8., 4., 1.,
          0., 0., 7., 12., 5., 8., 3., 0., 3., 8., 2., 3., 2., 2., 1.,
          14., 6., 5., 7., 2., 0., 2., 1., 1., 3., 7., 0., 4., 1., 3.,
          7., 3., 2., 4., 3. ]
      - [ 31., 11., 6., 9., 7., 3., 9., 7., 6., 0., 3., 15., 8., 7., 6.,
          5., 10., 5., 35., 0., 24., 0., 11., 7., 5., 9., 10., 6., 3.,
          1., 25., 6., 7., 4., 10., 8., 3., 4., 13., 7., 3., 0., 27., 2.,
          1., 11., 5., 3., 12., 10. ]
      - [ 14., 5., 3., 5., 3., 2., 7., 3., 1., 1., 3., 9., 3., 9., 2.,
          2., 1., 2., 18., 4., 16., 2., 4., 12., 0., 10., 1., 0., 2., 3.,
          5., 8., 3., 6., 4., 1., 3., 5., 4., 3., 4., 1., 10., 0., 6.,
          4., 9., 1., 5., 3. ]
      - [ 15., 9., 4., 2., 2., 6., 6., 7., 1., 3., 4., 18., 4., 6., 6.,
          4., 4., 8., 18., 5., 23., 7., 6., 11., 7., 13., 8., 6., 5., 5.,
          22., 2., 6., 10., 11., 1., 9., 3., 4., 8., 6., 3., 24., 2.,
          10., 6., 11., 3., 10., 3. ]
      - [ 2., 6., 2., 2., 0., 3., 3., 4., 1., 1., 0., 3., 2., 5., 2., 0.,
          1., 6., 16., 1., 18., 1., 3., 1., 3., 0., 6., 1., 7., 2., 1.,
          4., 2., 6., 1., 0., 5., 0., 3., 3., 1., 1., 9., 0., 5., 4., 0.,
          0., 8., 1. ]
      - [ 9., 2., 9., 6., 0., 1., 1., 6., 1., 0., 0., 18., 10., 9., 13.,
          12., 0., 4., 7., 8., 15., 0., 10., 3., 14., 4., 9., 3., 0., 1.,
          16., 17., 6., 7., 5., 0., 6., 6., 5., 5., 4., 13., 8., 1., 1.,
          3., 2., 20., 8., 3. ]
      - [ 19., 4., 10., 7., 3., 1., 10., 12., 0., 1., 2., 27., 11., 8.,
          4., 3., 4., 8., 38., 4., 40., 2., 15., 7., 5., 5., 10., 2.,
          18., 6., 11., 4., 5., 14., 13., 3., 7., 8., 5., 6., 3., 0.,
          18., 1., 5., 6., 5., 2., 10., 5. ]
      - [ 20., 5., 13., 7., 8., 6., 3., 3., 1., 3., 0., 1., 4., 11., 4.,
          1., 3., 4., 5., 15., 6., 8., 7., 6., 12., 3., 7., 6., 2., 8.,
          34., 11., 5., 9., 4., 1., 3., 0., 0., 1., 8., 3., 8., 2., 2.,
          8., 5., 3., 10., 9. ]
      - [ 18., 7., 12., 7., 8., 4., 12., 8., 1., 3., 7., 6., 7., 9., 13.,
          1., 4., 7., 25., 2., 34., 2., 9., 11., 15., 11., 6., 10., 7.,
          7., 14., 4., 5., 8., 6., 3., 6., 1., 5., 6., 3., 0., 29., 2.,
          3., 3., 7., 3., 11., 3. ]
      - [ 2., 2., 2., 4., 0., 0., 3., 1., 2., 1., 2., 5., 4., 9., 7., 2.,
          0., 5., 26., 3., 17., 2., 5., 7., 3., 4., 4., 2., 2., 1., 4.,
          8., 7., 2., 6., 2., 1., 3., 5., 4., 5., 4., 11., 0., 1., 0.,
          1., 6., 5., 2. ]
      - [ 1., 6., 3., 2., 3., 2., 9., 6., 2., 1., 2., 13., 7., 0., 1.,
          9., 3., 3., 13., 1., 12., 1., 2., 6., 1., 7., 4., 3., 6., 6.,
          8., 1., 1., 8., 9., 2., 6., 3., 1., 6., 2., 3., 12., 0., 4.,
          4., 7., 2., 3., 3. ]
      - [ 4., 11., 9., 5., 3., 4., 9., 3., 1., 0., 0., 5., 8., 2., 1.,
          5., 0., 7., 12., 1., 9., 5., 9., 6., 2., 6., 8., 1., 9., 6.,
          5., 6., 10., 6., 5., 5., 2., 4., 5., 10., 3., 1., 13., 0., 8.,
          2., 11., 1., 4., 3. ]
      - [ 4., 7., 9., 2., 7., 3., 6., 3., 4., 2., 2., 2., 2., 3., 4., 0.,
          0., 7., 10., 0., 18., 3., 7., 2., 8., 6., 6., 6., 6., 9., 3.,
          4., 9., 2., 3., 2., 2., 5., 3., 2., 3., 0., 6., 0., 0., 2.,
          11., 3., 5., 1. ]
      - [ 0., 3., 1., 4., 1., 1., 4., 0., 2., 0., 1., 21., 1., 2., 0.,
          1., 2., 6., 6., 1., 5., 1., 7., 3., 0., 5., 6., 0., 7., 4., 0.,
          2., 4., 5., 3., 3., 2., 3., 4., 2., 1., 0., 22., 0., 3., 2.,
          3., 1., 2., 0. ]
      - [ 9., 6., 2., 3., 2., 0., 9., 2., 2., 2., 2., 15., 1., 2., 1.,
          6., 2., 5., 6., 0., 6., 2., 6., 8., 3., 3., 4., 2., 9., 4., 5.,
          2., 6., 2., 4., 3., 2., 5., 2., 3., 6., 0., 13., 1., 5., 1.,
          8., 3., 4., 2. ]
      - [ 8., 3., 1., 2., 5., 3., 6., 3., 3., 1., 1., 10., 3., 2., 2.,
          1., 0., 2., 11., 0., 16., 0., 5., 5., 4., 5., 6., 1., 8., 5.,
          5., 4., 1., 2., 6., 1., 0., 2., 4., 5., 2., 2., 7., 0., 2., 4.,
          4., 0., 7., 4. ]
      - [ 0., 6., 2., 0., 0., 3., 4., 2., 0., 0., 0., 11., 1., 3., 2.,
          0., 0., 3., 9., 7., 13., 2., 5., 5., 1., 6., 2., 1., 3., 0.,
          4., 1., 4., 4., 5., 1., 12., 1., 1., 4., 1., 1., 4., 2., 4.,
          6., 4., 0., 9., 4. ]
      - [ 3., 2., 0., 4., 6., 0., 7., 0., 3., 0., 2., 5., 0., 0., 1., 3.,
          1., 4., 9., 0., 17., 1., 3., 4., 3., 1., 3., 1., 8., 1., 9.,
          2., 2., 5., 4., 1., 0., 4., 3., 0., 1., 0., 8., 1., 3., 4., 8.,
          2., 7., 1. ]
      - [ 1., 4., 1., 3., 1., 1., 5., 1., 1., 2., 0., 16., 0., 1., 1.,
          7., 3., 5., 5., 4., 7., 1., 2., 5., 2., 3., 4., 1., 8., 6., 5.,
          1., 4., 7., 5., 1., 1., 8., 2., 4., 4., 1., 13., 1., 4., 4.,
          8., 2., 3., 1. ]
      - [ 3., 5., 0., 4., 0., 1., 6., 1., 1., 0., 0., 12., 4., 2., 2.,
          3., 0., 5., 17., 0., 7., 3., 3., 2., 1., 4., 5., 1., 7., 1.,
          3., 2., 2., 4., 3., 1., 0., 2., 1., 3., 0., 0., 18., 1., 3.,
          8., 6., 1., 4., 0. ]
      - [ 1., 1., 3., 2., 3., 3., 5., 3., 1., 1., 3., 10., 2., 4., 2.,
          7., 1., 3., 6., 5., 8., 2., 3., 2., 4., 3., 4., 4., 4., 2., 1.,
          2., 4., 2., 3., 3., 1., 4., 4., 1., 0., 1., 19., 0., 0., 3.,
          7., 1., 2., 0. ]
      - [ 12., 3., 4., 1., 0., 2., 4., 1., 1., 0., 1., 20., 4., 2., 1.,
          9., 3., 11., 4., 0., 6., 5., 12., 7., 2., 8., 9., 6., 5., 7.,
          13., 4., 2., 8., 11., 1., 2., 2., 6., 3., 0., 1., 11., 2., 5.,
          3., 7., 2., 3., 3. ]
      - [ 16., 16., 8., 1., 3., 5., 2., 6., 6., 2., 2., 11., 6., 11., 4.,
          3., 9., 17., 15., 1., 5., 8., 11., 19., 8., 11., 4., 7., 10.,
          5., 26., 7., 9., 10., 13., 5., 6., 3., 7., 12., 7., 1., 22.,
          3., 3., 13., 10., 3., 10., 7. ]
      - [ 0., 4., 3., 3., 1., 1., 2., 3., 0., 0., 2., 1., 4., 2., 0., 2.,
          0., 5., 21., 5., 10., 2., 4., 1., 2., 4., 5., 1., 2., 5., 1.,
          2., 6., 3., 2., 1., 3., 3., 5., 3., 2., 2., 9., 0., 4., 0.,
          11., 2., 7., 2. ]
      - [ 5., 5., 5., 7., 3., 4., 8., 3., 1., 1., 3., 2., 3., 6., 2., 4.,
          2., 10., 20., 3., 13., 6., 6., 1., 5., 9., 12., 6., 5., 5.,
          12., 7., 10., 4., 4., 2., 1., 2., 3., 4., 4., 1., 4., 5., 5.,
          4., 8., 4., 2., 6. ]
      - [ 8., 11., 7., 10., 4., 1., 6., 6., 7., 3., 1., 11., 3., 3., 4.,
          5., 1., 9., 37., 2., 21., 3., 14., 8., 3., 16., 13., 3., 16.,
          9., 8., 5., 5., 1., 10., 1., 3., 5., 7., 10., 6., 3., 12., 3.,
          4., 6., 10., 3., 7., 2. ]
      - [ 15., 5., 3., 5., 3., 6., 6., 3., 5., 1., 2., 2., 4., 4., 4.,
          3., 0., 5., 9., 2., 14., 4., 6., 3., 6., 9., 11., 1., 4., 5.,
          18., 4., 10., 2., 3., 3., 3., 2., 3., 6., 1., 2., 6., 3., 2.,
          4., 10., 5., 7., 8. ]
      - [ 8., 5., 4., 7., 2., 2., 10., 5., 1., 1., 0., 5., 5., 4., 5.,
          3., 5., 11., 13., 1., 10., 3., 10., 1., 9., 5., 7., 1., 1., 5.,
          16., 10., 9., 11., 3., 6., 1., 7., 3., 3., 2., 1., 8., 2., 1.,
          6., 4., 3., 18., 5. ]
      - [ 14., 8., 5., 7., 4., 6., 14., 5., 2., 1., 1., 15., 6., 10., 7.,
          1., 1., 8., 39., 5., 20., 3., 15., 13., 5., 9., 10., 4., 11.,
          9., 26., 11., 10., 3., 6., 2., 3., 4., 4., 5., 1., 7., 10., 5.,
          9., 11., 8., 6., 8., 5. ]
      - [ 15., 2., 6., 5., 1., 4., 6., 6., 3., 0., 2., 3., 6., 7., 2.,
          6., 2., 4., 15., 2., 8., 5., 13., 7., 5., 3., 9., 3., 0., 3.,
          26., 3., 6., 4., 6., 0., 0., 8., 3., 2., 5., 3., 5., 3., 2.,
          3., 6., 2., 9., 5. ]
      - [ 41., 6., 5., 10., 1., 3., 12., 5., 4., 4., 1., 25., 5., 10.,
          3., 7., 3., 8., 32., 7., 14., 2., 1., 26., 7., 8., 7., 5., 6.,
          6., 38., 4., 6., 17., 19., 5., 8., 9., 15., 7., 6., 2., 17.,
          2., 1., 14., 5., 2., 17., 4. ]
      - [ 1., 1., 3., 4., 0., 1., 10., 3., 2., 1., 2., 5., 3., 1., 2.,
          3., 2., 5., 10., 1., 10., 2., 3., 8., 2., 5., 4., 2., 4., 3.,
          8., 1., 6., 1., 5., 0., 5., 3., 0., 3., 1., 1., 6., 1., 1., 2.,
          7., 3., 5., 3. ]
      - [ 2., 2., 1., 2., 2., 2., 5., 2., 1., 2., 2., 8., 3., 3., 1., 2.,
          0., 5., 13., 1., 6., 4., 3., 7., 3., 2., 6., 1., 4., 3., 8.,
          0., 2., 8., 4., 1., 2., 3., 3., 3., 0., 2., 8., 2., 0., 0., 4.,
          1., 6., 3. ]
      - [ 3., 7., 1., 5., 1., 3., 5., 1., 2., 1., 2., 11., 5., 2., 0.,
          2., 0., 5., 1., 5., 9., 1., 6., 11., 3., 5., 6., 5., 5., 2.,
          14., 1., 3., 8., 14., 1., 2., 3., 2., 6., 5., 2., 11., 4., 3.,
          0., 4., 4., 5., 3. ]
      - [ 1., 4., 3., 2., 1., 1., 2., 4., 0., 2., 0., 12., 6., 5., 3.,
          5., 1., 6., 14., 4., 19., 0., 6., 2., 6., 3., 6., 4., 3., 3.,
          0., 4., 2., 1., 4., 2., 0., 6., 3., 5., 3., 1., 5., 0., 4., 2.,
          8., 0., 1., 3. ]
      - [ 5., 1., 2., 3., 0., 2., 8., 2., 0., 0., 0., 5., 2., 0., 0., 3.,
          1., 1., 15., 2., 23., 5., 8., 3., 1., 4., 6., 1., 9., 4., 4.,
          1., 5., 2., 4., 1., 0., 1., 3., 1., 0., 0., 6., 0., 6., 3., 5.,
          1., 5., 2. ]
      - [ 10., 5., 2., 2., 0., 2., 6., 1., 1., 0., 2., 4., 1., 8., 3.,
          3., 1., 6., 5., 4., 3., 2., 2., 7., 1., 6., 10., 3., 8., 5.,
          9., 5., 3., 7., 6., 1., 3., 2., 3., 1., 2., 0., 4., 2., 3., 1.,
          10., 3., 7., 4. ]
      - [ 6., 0., 2., 3., 1., 3., 8., 2., 1., 2., 2., 8., 0., 3., 5., 2.,
          0., 6., 4., 1., 10., 1., 7., 6., 3., 7., 1., 2., 3., 6., 15.,
          0., 1., 6., 5., 0., 0., 5., 2., 1., 0., 2., 3., 0., 2., 2., 7.,
          2., 7., 1. ]
      - [ 5., 1., 2., 1., 2., 2., 10., 5., 1., 1., 0., 6., 0., 1., 1.,
          1., 0., 4., 7., 2., 19., 2., 5., 9., 2., 3., 3., 2., 1., 6.,
          12., 3., 7., 6., 2., 1., 4., 2., 2., 0., 1., 2., 4., 0., 7.,
          0., 7., 1., 1., 1. ]
      - [ 35., 5., 3., 3., 1., 0., 5., 4., 4., 3., 1., 5., 3., 14., 8.,
          0., 4., 3., 15., 2., 11., 1., 4., 16., 9., 2., 6., 2., 3., 4.,
          33., 4., 3., 8., 7., 2., 3., 2., 3., 5., 4., 5., 1., 0., 6.,
          13., 6., 2., 14., 4. ]
      - [ 7., 4., 1., 2., 1., 3., 8., 1., 0., 1., 1., 4., 0., 3., 3., 1.,
          1., 2., 10., 1., 20., 0., 3., 10., 2., 5., 7., 2., 2., 2., 5.,
          0., 3., 5., 8., 0., 5., 3., 3., 4., 0., 1., 1., 2., 6., 3., 7.,
          2., 5., 0. ]
      - [ 25., 3., 7., 8., 5., 3., 13., 11., 1., 5., 2., 6., 2., 7., 6.,
          1., 6., 10., 34., 1., 26., 9., 11., 8., 9., 1., 6., 4., 5.,
          12., 24., 14., 7., 13., 12., 3., 4., 3., 5., 5., 4., 8., 2.,
          1., 1., 10., 4., 4., 16., 4. ]
      - [ 20., 3., 16., 11., 4., 3., 16., 4., 1., 3., 3., 13., 6., 15.,
          12., 3., 3., 5., 35., 11., 7., 6., 17., 10., 11., 6., 16., 5.,
          0., 5., 48., 12., 7., 8., 7., 2., 4., 3., 11., 4., 4., 4., 5.,
          1., 6., 5., 10., 7., 17., 8. ]
      - [ 4., 5., 1., 3., 4., 0., 5., 1., 1., 0., 5., 15., 3., 2., 2.,
          2., 0., 4., 5., 1., 19., 3., 2., 2., 1., 3., 3., 3., 2., 6.,
          2., 2., 4., 2., 4., 2., 2., 3., 2., 1., 2., 2., 5., 0., 0., 2.,
          5., 3., 1., 2. ]
      - [ 25., 0., 13., 1., 2., 0., 1., 2., 0., 3., 1., 1., 4., 7., 2.,
          1., 1., 4., 4., 6., 2., 5., 2., 13., 12., 2., 6., 3., 1., 6.,
          24., 5., 3., 2., 5., 1., 2., 1., 3., 1., 3., 1., 1., 1., 1.,
          2., 2., 6., 4., 4. ]
      - [ 3., 3., 1., 0., 3., 2., 5., 5., 1., 1., 1., 10., 3., 3., 3.,
          2., 2., 5., 7., 1., 8., 2., 5., 2., 2., 8., 4., 0., 7., 4., 2.,
          2., 9., 7., 2., 1., 0., 5., 4., 4., 2., 1., 11., 1., 1., 1.,
          4., 2., 3., 0. ]
      - [ 35., 2., 4., 1., 1., 2., 2., 9., 0., 4., 1., 0., 2., 6., 3.,
          2., 0., 4., 3., 7., 1., 3., 5., 12., 10., 3., 4., 3., 0., 0.,
          22., 8., 5., 4., 7., 1., 6., 3., 1., 0., 2., 5., 2., 0., 0.,
          3., 1., 2., 5., 2. ]
      - [ 15., 1., 6., 2., 2., 0., 4., 6., 0., 2., 1., 0., 4., 4., 1.,
          1., 0., 6., 5., 7., 1., 1., 7., 6., 12., 4., 4., 3., 0., 3.,
          33., 8., 3., 4., 7., 1., 3., 0., 0., 2., 2., 4., 0., 0., 1.,
          5., 2., 0., 3., 5. ]
      - [ 2., 2., 5., 4., 2., 1., 0., 4., 0., 1., 2., 8., 2., 0., 4., 3.,
          0., 5., 8., 2., 7., 0., 6., 2., 2., 6., 1., 3., 9., 4., 0., 1.,
          5., 1., 3., 1., 0., 2., 5., 8., 3., 3., 13., 0., 3., 0., 6.,
          2., 2., 0. ]
      - [ 2., 5., 1., 3., 1., 1., 3., 0., 1., 0., 1., 7., 1., 2., 0., 4.,
          3., 4., 10., 1., 4., 0., 5., 3., 5., 5., 5., 2., 6., 2., 1.,
          3., 7., 6., 5., 3., 1., 2., 5., 7., 1., 0., 8., 2., 3., 2., 6.,
          0., 1., 2. ]
      - [ 2., 4., 1., 3., 2., 0., 6., 1., 2., 0., 1., 8., 0., 3., 3., 5.,
          1., 2., 10., 1., 4., 0., 6., 3., 2., 5., 2., 2., 6., 6., 3.,
          2., 6., 3., 4., 1., 1., 2., 10., 2., 2., 0., 12., 2., 2., 0.,
          5., 2., 3., 0. ]
      - [ 2., 2., 3., 3., 1., 3., 1., 4., 2., 1., 0., 8., 2., 3., 0., 4.,
          0., 7., 9., 0., 9., 1., 6., 1., 3., 3., 7., 3., 5., 2., 4., 1.,
          4., 1., 2., 2., 1., 5., 5., 6., 3., 0., 5., 3., 3., 0., 3., 1.,
          3., 1. ]
      - [ 11., 1., 7., 5., 2., 3., 11., 7., 2., 0., 2., 2., 7., 4., 6.,
          6., 1., 10., 17., 0., 13., 2., 7., 7., 8., 16., 10., 4., 2.,
          5., 5., 6., 10., 3., 4., 3., 0., 9., 10., 3., 5., 2., 6., 0.,
          8., 1., 7., 3., 6., 8. ]
      - [ 7., 3., 4., 3., 3., 4., 6., 5., 0., 2., 0., 6., 4., 4., 3., 1.,
          1., 6., 9., 1., 13., 5., 3., 4., 4., 5., 4., 2., 7., 7., 4.,
          3., 2., 4., 2., 1., 0., 2., 2., 4., 2., 0., 11., 1., 6., 1.,
          4., 4., 6., 1. ]
      - [ 18., 8., 9., 9., 5., 7., 2., 10., 2., 1., 1., 14., 9., 4., 5.,
          5., 4., 8., 29., 10., 16., 5., 8., 9., 9., 10., 14., 7., 4.,
          6., 25., 3., 4., 6., 5., 1., 5., 3., 4., 9., 8., 2., 13., 0.,
          3., 1., 6., 8., 5., 17. ]
      - [ 19., 6., 9., 5., 9., 6., 8., 6., 6., 1., 8., 20., 7., 11., 3.,
          2., 1., 7., 25., 4., 22., 6., 8., 3., 10., 7., 7., 2., 7., 10.,
          18., 10., 2., 15., 13., 5., 8., 4., 7., 8., 9., 5., 13., 5.,
          6., 9., 7., 4., 16., 4. ]
      - [ 13., 2., 7., 3., 2., 4., 5., 4., 1., 0., 0., 1., 6., 6., 2.,
          1., 0., 4., 12., 6., 3., 5., 7., 5., 7., 3., 5., 3., 1., 2.,
          18., 6., 5., 2., 3., 2., 0., 1., 3., 0., 4., 1., 2., 3., 4.,
          0., 2., 6., 2., 6. ]
      - [ 15., 3., 6., 5., 4., 2., 4., 5., 3., 2., 1., 9., 4., 6., 1.,
          3., 2., 3., 12., 2., 11., 0., 7., 9., 2., 9., 5., 3., 0., 2.,
          18., 5., 2., 1., 1., 3., 1., 3., 2., 8., 3., 2., 7., 2., 2.,
          3., 3., 2., 2., 5. ]
      - [ 8., 3., 7., 4., 2., 3., 4., 1., 1., 2., 0., 9., 3., 4., 1., 3.,
          1., 7., 14., 2., 10., 3., 10., 2., 5., 7., 9., 0., 3., 1., 17.,
          3., 5., 3., 1., 4., 1., 1., 1., 3., 4., 0., 7., 4., 3., 1., 3.,
          1., 3., 1. ]
      - [ 0., 4., 1., 3., 0., 1., 2., 2., 0., 0., 1., 12., 2., 1., 0.,
          2., 0., 3., 16., 0., 11., 1., 7., 2., 2., 4., 7., 1., 10., 2.,
          5., 1., 3., 5., 4., 0., 2., 1., 2., 4., 0., 0., 6., 0., 5., 4.,
          3., 0., 9., 0. ]
      - [ 41., 13., 12., 12., 9., 11., 14., 10., 5., 6., 7., 11., 15.,
          15., 11., 8., 6., 13., 30., 19., 32., 11., 9., 20., 15., 16.,
          9., 9., 10., 10., 45., 22., 10., 3., 10., 4., 17., 5., 6., 12.,
          10., 3., 21., 5., 5., 10., 11., 4., 6., 19. ]
      - [ 8., 4., 13., 5., 2., 1., 9., 7., 3., 3., 2., 19., 8., 6., 3.,
          3., 3., 11., 23., 7., 37., 4., 13., 12., 9., 6., 12., 3., 8.,
          7., 9., 10., 13., 16., 14., 5., 4., 10., 9., 0., 3., 3., 24.,
          2., 11., 5., 3., 4., 12., 6. ]
      - [ 11., 10., 3., 4., 5., 10., 11., 12., 3., 4., 2., 15., 9., 6.,
          5., 5., 5., 16., 31., 7., 26., 9., 16., 8., 11., 11., 11., 5.,
          8., 9., 16., 8., 14., 13., 5., 3., 7., 13., 6., 8., 4., 4.,
          18., 5., 6., 4., 14., 5., 12., 4. ]
      - [ 23., 8., 7., 7., 6., 8., 20., 3., 3., 5., 7., 9., 7., 6., 4.,
          6., 0., 15., 28., 2., 8., 6., 11., 14., 8., 11., 14., 5., 16.,
          7., 31., 6., 6., 7., 10., 4., 12., 7., 13., 4., 2., 3., 16.,
          1., 4., 10., 14., 5., 8., 3. ]
      - [ 19., 4., 9., 4., 8., 3., 11., 4., 5., 3., 2., 13., 3., 9., 2.,
          6., 8., 11., 30., 6., 18., 5., 21., 14., 7., 8., 19., 2., 11.,
          5., 28., 4., 7., 5., 7., 3., 14., 1., 11., 8., 9., 5., 11., 4.,
          6., 9., 6., 6., 10., 3. ]
      - [ 18., 7., 5., 3., 5., 6., 6., 12., 1., 4., 3., 14., 7., 9., 4.,
          5., 0., 16., 29., 10., 24., 7., 11., 8., 12., 10., 9., 1., 5.,
          2., 24., 8., 14., 9., 5., 1., 3., 2., 5., 6., 10., 5., 12., 3.,
          6., 7., 5., 11., 6., 5. ]
      - [ 10., 6., 5., 10., 6., 8., 14., 6., 4., 1., 2., 23., 8., 5., 7.,
          7., 4., 10., 41., 1., 17., 4., 10., 3., 10., 12., 14., 4., 8.,
          8., 16., 7., 2., 4., 8., 6., 3., 2., 9., 2., 4., 1., 11., 2.,
          9., 1., 8., 2., 7., 3. ]
      - [ 15., 1., 4., 3., 0., 1., 0., 3., 0., 2., 0., 1., 1., 6., 10.,
          0., 0., 0., 8., 5., 0., 2., 8., 8., 3., 1., 6., 5., 1., 1.,
          10., 4., 0., 1., 4., 0., 0., 0., 3., 0., 3., 1., 0., 1., 3.,
          4., 2., 4., 3., 3. ]
      - [ 11., 4., 3., 5., 1., 5., 5., 2., 1., 3., 1., 0., 3., 5., 7.,
          0., 1., 4., 6., 6., 1., 2., 6., 7., 9., 2., 10., 11., 1., 1.,
          17., 5., 3., 2., 5., 0., 1., 0., 5., 1., 3., 2., 1., 2., 0.,
          3., 3., 0., 1., 11. ]
      - [ 9., 6., 8., 2., 1., 4., 3., 10., 2., 2., 2., 7., 5., 7., 2.,
          5., 1., 3., 24., 4., 17., 5., 8., 8., 9., 8., 8., 6., 5., 1.,
          13., 3., 4., 2., 5., 3., 3., 5., 3., 4., 3., 4., 5., 1., 3.,
          3., 7., 3., 5., 11. ]
      - [ 17., 4., 9., 5., 2., 2., 8., 2., 0., 2., 1., 0., 7., 3., 6.,
          1., 1., 5., 13., 3., 1., 7., 12., 12., 10., 5., 13., 2., 0.,
          3., 25., 10., 2., 4., 7., 2., 2., 0., 7., 3., 0., 4., 2., 2.,
          3., 4., 1., 4., 2., 9. ]
      - [ 12., 2., 3., 0., 0., 2., 3., 2., 1., 1., 1., 4., 0., 7., 14.,
          4., 1., 4., 15., 3., 5., 5., 10., 8., 5., 7., 12., 2., 1., 4.,
          20., 3., 2., 3., 9., 0., 2., 3., 1., 3., 6., 2., 3., 1., 2.,
          5., 7., 6., 4., 5. ]
      - [ 14., 16., 9., 6., 8., 6., 15., 6., 4., 7., 3., 14., 13., 7.,
          6., 5., 5., 15., 27., 10., 16., 8., 14., 9., 9., 8., 15., 10.,
          8., 13., 23., 8., 17., 11., 10., 5., 4., 8., 9., 10., 8., 4.,
          14., 5., 7., 8., 7., 7., 16., 9. ]
      - [ 5., 2., 2., 4., 4., 1., 7., 1., 0., 0., 0., 5., 1., 1., 1., 4.,
          1., 2., 5., 3., 3., 0., 3., 1., 1., 3., 5., 1., 1., 2., 4., 1.,
          1., 2., 1., 1., 1., 1., 3., 2., 0., 0., 12., 0., 3., 2., 2.,
          1., 2., 1. ]
      - [ 15., 8., 2., 16., 5., 3., 16., 8., 1., 8., 1., 30., 7., 2., 2.,
          7., 3., 15., 43., 7., 25., 4., 16., 20., 5., 8., 14., 4., 21.,
          11., 12., 0., 13., 8., 11., 1., 4., 9., 12., 5., 8., 4., 14.,
          2., 5., 6., 11., 3., 6., 4. ]
      - [ 16., 7., 6., 10., 7., 8., 10., 13., 6., 3., 4., 21., 10., 3.,
          8., 2., 8., 19., 21., 7., 15., 9., 11., 13., 14., 13., 12., 5.,
          7., 2., 22., 3., 17., 17., 12., 2., 9., 6., 16., 4., 5., 8.,
          9., 7., 9., 7., 7., 7., 8., 9. ]
      - [ 9., 2., 1., 9., 7., 2., 9., 1., 4., 1., 1., 9., 4., 3., 1., 2.,
          6., 4., 18., 4., 3., 3., 16., 16., 1., 4., 22., 4., 11., 10.,
          2., 8., 7., 7., 9., 3., 1., 3., 12., 8., 4., 0., 24., 5., 2.,
          9., 8., 1., 4., 4. ]
      - [ 4., 2., 1., 5., 1., 3., 2., 3., 0., 0., 0., 4., 1., 3., 2., 0.,
          0., 5., 4., 1., 5., 1., 8., 3., 3., 1., 7., 1., 2., 1., 16.,
          3., 5., 0., 1., 0., 5., 0., 2., 0., 0., 0., 5., 2., 1., 1., 6.,
          1., 2., 2. ]
      - [ 3., 0., 6., 6., 4., 2., 4., 3., 1., 2., 4., 4., 3., 1., 0., 4.,
          1., 3., 10., 0., 6., 3., 2., 8., 6., 4., 8., 3., 11., 5., 2.,
          1., 3., 6., 7., 4., 3., 1., 4., 1., 1., 2., 6., 5., 2., 1., 2.,
          2., 7., 1. ]
      - [ 13., 1., 3., 9., 2., 4., 11., 3., 1., 0., 1., 8., 1., 3., 2.,
          1., 2., 4., 7., 2., 10., 1., 3., 7., 4., 3., 4., 4., 4., 1.,
          9., 0., 2., 10., 3., 0., 3., 1., 7., 1., 2., 1., 13., 3., 5.,
          3., 2., 4., 8., 1. ]
      - [ 13., 3., 5., 15., 7., 4., 16., 4., 2., 3., 1., 17., 7., 8., 3.,
          12., 6., 11., 29., 2., 21., 4., 12., 12., 5., 6., 24., 2., 12.,
          8., 18., 3., 12., 8., 3., 2., 7., 5., 13., 9., 6., 8., 26., 1.,
          3., 17., 6., 7., 16., 5. ]
      - [ 10., 2., 4., 3., 1., 3., 4., 1., 3., 1., 1., 2., 3., 3., 3.,
          0., 1., 6., 18., 3., 18., 1., 14., 2., 3., 3., 8., 2., 7., 9.,
          15., 2., 5., 4., 6., 0., 7., 2., 3., 0., 2., 1., 5., 0., 8.,
          10., 9., 2., 2., 2. ]
      - [ 6., 3., 9., 8., 1., 5., 5., 5., 2., 2., 0., 6., 5., 3., 3., 7.,
          0., 7., 16., 1., 20., 7., 7., 3., 9., 2., 8., 3., 5., 6., 19.,
          3., 6., 5., 5., 3., 6., 8., 9., 4., 6., 0., 12., 0., 8., 4.,
          12., 2., 7., 0. ]
      - [ 17., 1., 3., 1., 2., 4., 4., 3., 0., 0., 0., 13., 4., 7., 1.,
          1., 2., 4., 19., 2., 20., 3., 18., 11., 4., 6., 17., 1., 6.,
          4., 10., 4., 6., 4., 4., 2., 5., 1., 2., 2., 1., 0., 6., 0.,
          0., 2., 2., 1., 3., 0. ]
      - [ 13., 3., 4., 6., 0., 3., 15., 3., 1., 0., 0., 3., 3., 4., 3.,
          1., 0., 10., 23., 4., 16., 6., 9., 4., 7., 10., 6., 1., 10.,
          10., 19., 2., 12., 7., 8., 2., 7., 1., 3., 2., 2., 1., 7., 5.,
          6., 1., 9., 5., 4., 6. ]
      - [ 4., 3., 2., 5., 0., 1., 11., 1., 1., 1., 2., 4., 1., 1., 5.,
          1., 2., 10., 20., 4., 4., 3., 9., 15., 6., 6., 6., 2., 3., 6.,
          9., 2., 7., 6., 1., 1., 1., 2., 4., 2., 2., 1., 4., 2., 3., 1.,
          6., 2., 3., 4. ]
      - [ 26., 11., 6., 18., 3., 6., 15., 8., 4., 1., 1., 17., 6., 5.,
          4., 7., 4., 15., 25., 8., 21., 7., 9., 7., 5., 10., 9., 2.,
          13., 8., 18., 11., 11., 6., 6., 2., 4., 5., 14., 6., 7., 0.,
          8., 7., 7., 4., 11., 7., 10., 5. ]
      - [ 13., 3., 15., 5., 2., 1., 16., 4., 6., 3., 2., 11., 5., 8., 6.,
          2., 2., 12., 43., 9., 29., 7., 9., 11., 16., 11., 11., 5., 8.,
          6., 30., 17., 10., 6., 5., 6., 2., 2., 8., 3., 12., 3., 6., 3.,
          4., 3., 4., 7., 5., 1. ]
      - [ 6., 0., 2., 2., 4., 3., 5., 3., 3., 2., 2., 14., 5., 3., 1.,
          3., 2., 6., 4., 5., 8., 1., 5., 2., 3., 3., 5., 1., 8., 2., 8.,
          2., 7., 7., 4., 3., 8., 2., 4., 2., 0., 1., 2., 3., 1., 4., 9.,
          0., 8., 0. ]
      - [ 4., 5., 4., 9., 3., 1., 2., 3., 2., 5., 3., 10., 7., 9., 6.,
          5., 1., 11., 21., 2., 11., 1., 23., 24., 11., 8., 21., 2., 4.,
          8., 10., 13., 5., 18., 10., 8., 5., 9., 11., 8., 5., 3., 13.,
          3., 10., 2., 14., 2., 9., 5. ]
      - [ 6., 1., 10., 8., 0., 4., 11., 6., 0., 3., 4., 0., 5., 6., 1.,
          4., 1., 6., 17., 2., 17., 5., 11., 6., 7., 8., 14., 3., 10.,
          10., 5., 6., 7., 13., 3., 5., 2., 3., 12., 5., 6., 3., 5., 2.,
          8., 3., 10., 3., 17., 1. ]
      - [ 3., 3., 4., 8., 6., 1., 12., 3., 2., 0., 1., 11., 3., 2., 1.,
          0., 1., 8., 13., 1., 22., 2., 6., 6., 5., 12., 8., 0., 8., 11.,
          2., 3., 6., 15., 5., 2., 5., 1., 12., 1., 5., 2., 12., 3., 3.,
          1., 10., 2., 9., 1. ]
      - [ 7., 3., 3., 3., 0., 4., 5., 3., 1., 0., 1., 12., 5., 2., 2.,
          0., 0., 5., 9., 1., 16., 0., 2., 6., 5., 8., 7., 1., 3., 2.,
          13., 0., 7., 2., 4., 0., 0., 3., 4., 0., 4., 1., 6., 1., 0.,
          4., 5., 0., 5., 2. ]
      - [ 11., 7., 3., 4., 5., 4., 11., 8., 3., 2., 2., 1., 3., 5., 9.,
          4., 3., 7., 7., 2., 3., 4., 6., 6., 4., 3., 8., 5., 4., 11.,
          12., 3., 5., 1., 2., 1., 3., 7., 3., 6., 2., 5., 5., 4., 5.,
          1., 11., 9., 5., 1. ]
      - [ 0., 1., 2., 2., 2., 0., 1., 0., 0., 0., 1., 43., 1., 0., 0.,
          2., 1., 6., 0., 0., 2., 0., 1., 3., 2., 3., 2., 0., 3., 2., 0.,
          0., 4., 2., 2., 2., 0., 7., 1., 2., 1., 0., 27., 0., 1., 0.,
          1., 0., 2., 0. ]
      - [ 6., 4., 4., 4., 2., 3., 0., 1., 4., 0., 1., 21., 5., 1., 3.,
          3., 1., 7., 3., 1., 3., 2., 7., 6., 1., 6., 7., 1., 7., 3., 6.,
          2., 4., 8., 4., 2., 1., 5., 2., 3., 2., 0., 27., 0., 3., 0.,
          2., 1., 2., 2. ]
      - [ 21., 5., 11., 3., 5., 4., 3., 6., 1., 3., 3., 0., 6., 9., 8.,
          3., 3., 6., 3., 11., 1., 6., 4., 8., 8., 3., 2., 6., 1., 2.,
          18., 8., 7., 3., 13., 0., 1., 2., 2., 10., 4., 3., 4., 2., 2.,
          5., 4., 3., 1., 7. ]
      - [ 36., 10., 7., 5., 7., 6., 12., 8., 3., 4., 2., 5., 4., 4., 6.,
          1., 10., 5., 9., 2., 7., 6., 13., 18., 5., 9., 6., 10., 7.,
          15., 27., 8., 7., 7., 11., 3., 4., 7., 1., 7., 5., 2., 15., 4.,
          9., 8., 12., 1., 8., 3. ]
      - [ 1., 5., 6., 3., 2., 3., 5., 7., 3., 1., 4., 16., 10., 3., 3.,
          7., 2., 11., 28., 0., 20., 4., 6., 13., 5., 10., 12., 3., 5.,
          2., 1., 3., 10., 5., 9., 1., 4., 10., 8., 3., 10., 0., 9., 5.,
          4., 2., 6., 6., 14., 1. ]
      - [ 13., 3., 0., 3., 2., 2., 6., 1., 2., 0., 1., 4., 4., 5., 4.,
          2., 0., 0., 17., 2., 11., 1., 10., 6., 4., 3., 17., 2., 6., 3.,
          28., 3., 1., 2., 3., 4., 1., 1., 6., 5., 0., 0., 1., 4., 1.,
          8., 4., 2., 4., 2. ]
      - [ 1., 4., 0., 5., 2., 5., 1., 3., 3., 0., 1., 15., 3., 1., 0.,
          7., 3., 9., 4., 1., 8., 4., 3., 0., 2., 5., 6., 1., 6., 8., 0.,
          3., 0., 6., 1., 0., 3., 8., 8., 3., 3., 0., 19., 1., 4., 2.,
          1., 0., 3., 0. ]
      - [ 27., 3., 5., 1., 4., 2., 6., 2., 1., 1., 0., 1., 4., 8., 2.,
          0., 2., 5., 5., 7., 1., 7., 9., 8., 4., 1., 5., 1., 8., 5.,
          46., 8., 5., 1., 4., 2., 4., 5., 4., 6., 4., 0., 8., 1., 0.,
          4., 10., 2., 2., 4. ]
      - [ 40., 5., 9., 7., 6., 4., 12., 8., 5., 4., 0., 27., 7., 18., 5.,
          6., 1., 16., 32., 13., 33., 9., 9., 21., 14., 3., 15., 7., 9.,
          11., 39., 18., 13., 8., 9., 0., 8., 6., 9., 6., 5., 2., 23.,
          5., 18., 5., 13., 6., 13., 5. ]
      - [ 4., 3., 0., 2., 2., 4., 1., 2., 0., 0., 1., 23., 1., 2., 2.,
          4., 3., 4., 5., 1., 7., 0., 4., 11., 4., 3., 6., 1., 4., 3.,
          7., 0., 9., 4., 6., 2., 1., 6., 3., 5., 1., 0., 27., 0., 1.,
          0., 2., 2., 1., 2. ]
      - [ 5., 6., 7., 3., 4., 0., 7., 2., 1., 3., 1., 17., 5., 4., 3.,
          7., 5., 8., 9., 0., 6., 2., 5., 2., 1., 8., 3., 7., 7., 7., 2.,
          3., 8., 4., 5., 0., 0., 4., 5., 2., 2., 4., 7., 1., 0., 3., 6.,
          2., 3., 2. ]
      - [ 14., 10., 1., 5., 2., 4., 5., 6., 5., 2., 1., 24., 4., 2., 3.,
          4., 8., 6., 29., 2., 26., 5., 10., 9., 3., 10., 7., 3., 18.,
          9., 6., 4., 2., 6., 14., 2., 8., 5., 3., 5., 4., 5., 17., 3.,
          11., 12., 10., 1., 8., 3. ]
      - [ 2., 3., 3., 5., 0., 1., 7., 1., 1., 0., 1., 7., 2., 2., 0., 0.,
          0., 4., 9., 9., 23., 0., 2., 0., 3., 1., 3., 0., 5., 5., 4.,
          2., 6., 2., 4., 2., 1., 2., 2., 2., 0., 0., 4., 0., 7., 2., 6.,
          1., 8., 1. ]
      - [ 18., 4., 7., 5., 4., 2., 12., 5., 3., 2., 1., 23., 9., 6., 3.,
          5., 2., 6., 54., 1., 24., 3., 5., 0., 8., 12., 8., 9., 15., 8.,
          19., 5., 9., 2., 5., 9., 9., 3., 9., 8., 4., 5., 13., 2., 5.,
          6., 15., 3., 8., 2. ]
      - [ 0., 3., 3., 1., 1., 9., 9., 3., 0., 0., 0., 9., 5., 1., 1., 0.,
          1., 9., 25., 1., 18., 7., 4., 2., 5., 7., 4., 0., 6., 1., 4.,
          2., 8., 5., 2., 0., 2., 4., 5., 2., 5., 3., 7., 0., 5., 3.,
          10., 1., 4., 4. ]
      - [ 15., 5., 8., 3., 2., 2., 11., 8., 1., 2., 0., 8., 12., 3., 2.,
          3., 1., 8., 44., 2., 32., 3., 10., 6., 14., 4., 8., 5., 9., 4.,
          14., 2., 3., 5., 6., 0., 3., 3., 4., 5., 2., 1., 9., 2., 6.,
          5., 8., 3., 16., 6. ]
      - [ 2., 1., 1., 2., 0., 1., 3., 2., 0., 0., 0., 6., 3., 1., 0., 1.,
          0., 0., 18., 1., 23., 3., 6., 2., 3., 3., 3., 0., 0., 2., 5.,
          0., 1., 2., 4., 0., 2., 0., 2., 2., 0., 0., 4., 0., 0., 4., 3.,
          0., 4., 0. ]
      - [ 10., 4., 8., 13., 4., 3., 8., 6., 2., 0., 2., 14., 10., 5., 2.,
          6., 2., 12., 41., 1., 19., 3., 6., 9., 4., 14., 7., 5., 12.,
          6., 32., 5., 5., 6., 5., 3., 10., 3., 4., 7., 2., 1., 15., 0.,
          3., 5., 9., 2., 17., 8. ]
      - [ 18., 7., 8., 8., 1., 6., 14., 7., 3., 2., 3., 16., 5., 1., 0.,
          2., 1., 14., 31., 4., 15., 4., 12., 14., 9., 8., 8., 3., 8.,
          10., 23., 8., 11., 8., 11., 2., 6., 10., 10., 5., 5., 2., 19.,
          1., 15., 4., 14., 2., 10., 5. ]
      - [ 19., 5., 15., 5., 3., 1., 5., 6., 1., 7., 3., 10., 5., 8., 5.,
          2., 3., 15., 18., 8., 21., 7., 4., 6., 17., 5., 5., 2., 1., 4.,
          20., 6., 8., 4., 9., 2., 4., 2., 7., 3., 2., 4., 8., 0., 5.,
          7., 4., 3., 4., 10. ]
      - [ 12., 5., 8., 8., 10., 5., 14., 9., 6., 5., 3., 7., 8., 4., 1.,
          3., 2., 16., 49., 3., 12., 5., 7., 4., 10., 6., 12., 5., 8.,
          6., 13., 3., 11., 11., 7., 1., 9., 6., 9., 4., 4., 4., 6., 1.,
          5., 7., 7., 4., 5., 3. ]
      - [ 21., 3., 12., 9., 3., 5., 10., 5., 6., 2., 1., 18., 9., 6., 3.,
          7., 1., 19., 17., 7., 28., 12., 15., 13., 15., 8., 14., 5.,
          12., 10., 22., 6., 12., 14., 10., 0., 4., 4., 6., 7., 9., 9.,
          16., 4., 14., 8., 5., 7., 24., 9. ]
      - [ 21., 7., 15., 5., 1., 6., 11., 8., 5., 3., 1., 17., 7., 11.,
          3., 6., 1., 17., 30., 11., 39., 10., 8., 10., 14., 8., 12., 4.,
          9., 11., 24., 7., 10., 5., 9., 4., 6., 7., 7., 4., 10., 0.,
          12., 2., 9., 12., 12., 4., 8., 7. ]
      - [ 5., 9., 8., 4., 12., 9., 8., 7., 2., 4., 2., 4., 5., 5., 3.,
          3., 10., 9., 27., 18., 6., 8., 6., 4., 10., 6., 3., 3., 1., 5.,
          16., 7., 5., 4., 4., 2., 8., 3., 5., 8., 5., 6., 4., 0., 6.,
          3., 9., 5., 14., 10. ]
      - [ 18., 2., 12., 7., 5., 12., 7., 9., 2., 5., 1., 6., 6., 13., 7.,
          1., 1., 17., 25., 10., 12., 10., 16., 6., 7., 7., 14., 2., 14.,
          5., 27., 4., 8., 0., 4., 2., 10., 1., 7., 5., 4., 3., 7., 8.,
          9., 6., 6., 4., 7., 8. ]
      - [ 3., 6., 2., 2., 1., 1., 12., 3., 4., 1., 1., 15., 3., 0., 3.,
          4., 3., 9., 20., 0., 23., 2., 8., 1., 7., 7., 2., 3., 8., 6.,
          7., 0., 4., 5., 6., 1., 9., 6., 6., 6., 2., 1., 22., 0., 7.,
          2., 5., 3., 12., 1. ]
      - [ 4., 3., 3., 0., 2., 0., 3., 0., 0., 0., 0., 2., 2., 0., 0., 0.,
          1., 5., 20., 0., 8., 0., 8., 3., 2., 1., 5., 0., 6., 4., 6.,
          0., 7., 2., 4., 1., 0., 4., 1., 1., 1., 2., 6., 0., 3., 1., 6.,
          1., 4., 0. ]
      - [ 10., 3., 14., 6., 0., 7., 12., 9., 3., 4., 2., 18., 9., 7., 3.,
          3., 1., 14., 30., 11., 23., 9., 12., 3., 13., 3., 11., 3., 7.,
          15., 17., 7., 12., 4., 3., 2., 5., 2., 8., 7., 2., 4., 12., 2.,
          6., 5., 11., 5., 4., 1. ]
      - [ 16., 10., 11., 7., 4., 13., 7., 10., 5., 8., 0., 15., 8., 4.,
          8., 8., 9., 16., 37., 13., 33., 7., 15., 14., 19., 14., 7., 7.,
          13., 12., 23., 2., 10., 8., 16., 4., 22., 8., 5., 5., 3., 11.,
          20., 5., 14., 8., 14., 8., 9., 6. ]
      - [ 22., 2., 10., 9., 3., 9., 9., 12., 3., 3., 2., 7., 11., 9., 3.,
          1., 0., 11., 26., 5., 18., 4., 9., 11., 13., 6., 14., 2., 4.,
          10., 31., 7., 11., 8., 7., 1., 6., 1., 11., 2., 3., 2., 4., 1.,
          11., 11., 11., 2., 8., 5. ]
      - [ 27., 0., 10., 5., 0., 1., 8., 2., 6., 3., 2., 5., 1., 6., 0.,
          0., 2., 5., 20., 12., 11., 4., 4., 1., 9., 3., 6., 2., 1., 1.,
          21., 3., 2., 3., 6., 1., 2., 0., 6., 0., 4., 4., 5., 2., 4.,
          7., 0., 2., 10., 3. ]
      - [ 7., 3., 7., 3., 0., 3., 12., 11., 3., 2., 2., 5., 12., 3., 0.,
          3., 0., 10., 18., 6., 19., 5., 15., 9., 9., 4., 13., 2., 5.,
          4., 24., 4., 5., 3., 4., 2., 4., 3., 7., 4., 2., 2., 13., 1.,
          7., 5., 6., 1., 8., 1. ]
      - [ 13., 8., 15., 10., 11., 10., 9., 9., 8., 3., 3., 13., 7., 6.,
          8., 6., 8., 17., 28., 2., 15., 3., 14., 7., 7., 8., 12., 9.,
          17., 9., 23., 5., 11., 12., 11., 7., 11., 4., 3., 9., 4., 4.,
          14., 6., 12., 9., 11., 11., 11., 9. ]
      - [ 14., 8., 11., 10., 5., 3., 25., 9., 8., 6., 4., 17., 11., 11.,
          6., 4., 3., 17., 30., 11., 20., 10., 10., 8., 16., 14., 10.,
          6., 13., 8., 12., 10., 6., 9., 11., 6., 10., 5., 13., 6., 7.,
          7., 19., 8., 10., 12., 16., 7., 11., 8. ]
      - [ 6., 0., 6., 3., 3., 4., 4., 4., 4., 3., 2., 10., 2., 3., 1.,
          4., 1., 5., 17., 4., 15., 5., 8., 7., 5., 14., 4., 0., 9., 3.,
          19., 3., 4., 4., 4., 1., 3., 4., 6., 1., 6., 2., 8., 0., 1.,
          6., 5., 3., 6., 4. ]
   decision_functions:
      -
         sv_count: 146
         rho: -6.6420087451490162e-01
         alpha: [ 4.1820289287382950e-01, 6.2945809107786765e-01,
             1.0270860332998488e+00, 9.6263530543960407e-01,
             7.7686510250428087e-01, 4.3440950026421637e-01,
             1.2692903685658137e+00, 4.3427886142066835e-01,
             2.5000000000000000e+00, 1.4425478885533474e+00,
             4.5764779606630823e-01, 2.5000000000000000e+00,
             7.8159711887287608e-01, 4.7707086431630502e-01,
             1.0609673087895366e+00, 6.7333932996748713e-01,
             1.4828676915062797e+00, 1.1837389277976051e+00,
             6.1330738377607841e-01, 1.2375982404364345e+00,
             7.7181266049718489e-01, 1.7190833289979843e+00,
             4.7171341085750590e-01, 6.9915447743818204e-01,
             6.9882185774401773e-01, 4.2800759964743412e-01,
             6.5553996564080619e-01, 7.5130179148032727e-01,
             4.6560148944729018e-01, 4.8256108692776806e-01,
             6.3842029513296494e-01, 7.8711201339247427e-01,
             7.2383419006889793e-01, 2.0779376381068606e+00,
             7.0104258325045765e-01, 4.6435077715259926e-01,
             7.7914822722317578e-01, 1.0383914451584431e+00,
             4.7467425468733027e-01, 5.5037164544543271e-01,
             4.8358222982477322e-01, 1.3203512038884406e+00,
             1.2242770562354419e+00, 6.9769742212907171e-01,
             4.4149133873336449e-01, 4.6165504328443524e-01,
             4.9080161588440374e-01, 1.6982767837434871e+00,
             2.0881099080119783e+00, 1.1000717286855877e+00,
             2.4269210193112034e-01, 7.0670436044677887e-01,
             8.2328409960834292e-01, 9.3788006049746420e-01,
             6.1152858702548685e-01, 1.7636307534375051e+00,
             6.2671717425438556e-01, 1.0452083825457317e+00,
             1.8636572132164433e+00, 4.1128583160143251e-01,
             1.1712341729280362e+00, 4.3761587560050719e-01,
             2.5000000000000000e+00, 2.0181479186039843e+00,
             4.8333531763284343e-01, 1.6064276640347610e+00,
             1.3314161397788395e+00, 5.1241452030429346e-01,
             6.8016530506698714e-01, 1.2015950441855630e+00,
             2.2967380962189994e+00, 1.0573306885544282e+00,
             4.4171478581454576e-01, 7.9105201112421453e-01,
             2.4602118403341566e+00, 4.9824897752565256e-01,
             1.7337754128192784e+00, 5.8179710712617050e-01,
             1.0239465468466644e+00, 4.8664523599269754e-01,
             9.3904381428008288e-01, 1.0810913283562178e+00,
             6.6524310817906740e-01, 5.1065359104667296e-01, -1.,
             -4.2800759964743412e-01, -7.8711201339247427e-01,
             -2.5000000000000000e+00, -6.9882185774401773e-01,
             -1.2054097909302015e+00, -2.3607887216587398e+00,
             -7.9105201112421453e-01, -1.2361634376497841e+00,
             -1.0302181186953265e+00, -9.3788006049746420e-01,
             -1.0437130194055217e+00, -1.6769889677675198e+00,
             -2.2589257327399910e+00, -7.8159711887287608e-01,
             -1.6997360847525544e+00, -6.1663394795778759e-01,
             -1.2692903685658137e+00, -1.5393515989085720e+00,
             -8.7917557885860109e-01, -1.6252302665309697e+00,
             -1.7190833289979843e+00, -1.6013255096810548e+00,
             -1.0940957021919522e+00, -1.0609960356750539e+00,
             -2.5000000000000000e+00, -1.3286125685160497e+00,
             -6.1152858702548685e-01, -1.4869231683602775e+00,
             -1.5557655830435482e+00, -1.4828676915062797e+00,
             -1.1841129738704685e+00, -1.5970752997076265e+00,
             -1.6429475837855421e+00, -6.9769742212907171e-01,
             -2.0003366861531804e+00, -1.2795638815248083e+00,
             -1.0270860332998488e+00, -4.3761587560050719e-01,
             -8.2328409960834292e-01, -6.7333932996748713e-01,
             -1.8477951648916493e+00, -1.3218878473152729e+00,
             -1.6801041482612120e+00, -1.0627861657497262e+00,
             -1.7283998563208383e+00, -4.6165504328443524e-01,
             -1.1557802464518701e+00, -2.2448479591677257e+00,
             -1.8139772267066077e+00, -1.6548456187394081e+00,
             -1.8139411162192702e+00, -1.8103146634093359e+00,
             -1.7364448468506075e+00, -1.0609673087895366e+00,
             -1.6575456000062427e+00, -1.6322100678338574e+00,
             -1.2428119491516281e+00, -9.3904381428008288e-01,
             -9.6263530543960407e-01, -7.9394025842686633e-01,
             -4.9824897752565256e-01 ]
         index: [ 0, 1, 2, 3, 4, 5, 6, 7, 8, 9, 10, 11, 12, 13, 14, 15,
             16, 17, 18, 19, 20, 21, 22, 23, 24, 25, 26, 131, 132, 133,
             134, 135, 136, 137, 138, 139, 140, 141, 142, 143, 144, 145,
             89, 90, 91, 92, 93, 94, 95, 96, 97, 98, 99, 100, 101, 102,
             103, 104, 105, 106, 107, 108, 109, 110, 111, 112, 113, 114,
             115, 116, 117, 118, 119, 120, 121, 122, 123, 124, 125, 126,
             127, 128, 129, 130, 27, 28, 29, 30, 31, 32, 33, 34, 35, 36,
             37, 38, 39, 40, 41, 42, 43, 44, 45, 46, 47, 48, 49, 50, 51,
             52, 53, 54, 55, 56, 57, 58, 59, 60, 61, 62, 63, 64, 65, 66,
             67, 68, 69, 70, 71, 72, 73, 74, 75, 76, 77, 78, 79, 80, 81,
             82, 83, 84, 85, 86, 87, 88 ]
