%YAML:1.0
---
opencv_ml_svm:
   format: 3
   svmType: C_SVC
   kernel:
      type: RBF
      gamma: 1.5000000000000001e-04
   C: 2.5000000000000000e+00
   term_criteria: { iterations:100 }
   var_count: 50
   class_count: 2
   class_labels: !!opencv-matrix
      rows: 2
      cols: 1
      dt: i
      data: [ 0, 1 ]
   sv_total: 155
   support_vectors:
      - [ 17., 17., 15., 4., 10., 6., 15., 13., 5., 1., 4., 56., 6., 7.,
          4., 5., 3., 17., 71., 3., 76., 5., 16., 10., 11., 9., 14., 0.,
          20., 16., 13., 6., 11., 6., 16., 1., 13., 13., 9., 14., 2., 5.,
          43., 0., 15., 12., 12., 2., 13., 1. ]
      - [ 23., 15., 16., 18., 11., 13., 20., 20., 10., 8., 6., 33., 23.,
          10., 4., 5., 21., 40., 32., 19., 47., 9., 18., 24., 18., 19.,
          28., 9., 31., 19., 13., 21., 31., 19., 13., 13., 12., 8., 20.,
          15., 14., 6., 39., 10., 26., 17., 22., 9., 24., 4. ]
      - [ 35., 14., 8., 10., 18., 12., 7., 13., 4., 3., 8., 24., 15.,
          15., 9., 7., 14., 16., 100., 8., 97., 5., 33., 16., 14., 22.,
          30., 6., 17., 17., 52., 16., 16., 21., 9., 2., 6., 4., 11.,
          17., 5., 3., 47., 2., 10., 16., 12., 3., 22., 3. ]
      - [ 117., 244., 47., 91., 134., 95., 65., 74., 125., 50., 108.,
          234., 85., 113., 117., 120., 248., 130., 327., 51., 362., 109.,
          109., 292., 59., 147., 101., 119., 224., 119., 114., 109., 88.,
          242., 264., 134., 114., 90., 78., 254., 101., 38., 368., 118.,
          97., 73., 113., 64., 128., 48. ]
      - [ 2., 1., 0., 0., 0., 0., 0., 0., 1., 0., 0., 2., 0., 0., 0., 2.,
          0., 6., 20., 0., 30., 0., 3., 0., 0., 0., 2., 1., 2., 1., 2.,
          1., 5., 0., 0., 0., 2., 0., 2., 0., 2., 0., 0., 0., 1., 0., 1.,
          0., 1., 0. ]
      - [ 54., 20., 17., 35., 23., 11., 18., 10., 12., 10., 12., 12.,
          16., 16., 16., 10., 18., 24., 42., 13., 42., 21., 34., 31.,
          33., 16., 37., 14., 40., 17., 38., 18., 14., 66., 44., 11.,
          12., 9., 23., 14., 13., 10., 38., 42., 17., 17., 18., 19., 27.,
          14. ]
      - [ 14., 7., 10., 14., 1., 8., 7., 8., 6., 1., 3., 34., 7., 9., 3.,
          8., 3., 20., 47., 0., 47., 9., 27., 16., 17., 4., 21., 5., 9.,
          7., 30., 9., 17., 16., 11., 5., 4., 16., 6., 11., 2., 2., 20.,
          1., 10., 9., 10., 5., 9., 7. ]
      - [ 0., 1., 0., 1., 0., 0., 1., 2., 0., 2., 1., 0., 1., 0., 0., 0.,
          1., 3., 6., 1., 10., 3., 4., 0., 3., 0., 3., 1., 6., 4., 0.,
          0., 5., 0., 1., 2., 1., 1., 2., 1., 0., 0., 5., 0., 2., 1., 7.,
          0., 2., 0. ]
      - [ 45., 18., 16., 18., 23., 14., 28., 16., 11., 5., 4., 63., 21.,
          12., 14., 13., 9., 38., 74., 7., 80., 9., 27., 22., 24., 36.,
          27., 7., 15., 18., 66., 10., 41., 27., 15., 5., 26., 33., 22.,
          11., 8., 5., 85., 3., 18., 26., 22., 3., 30., 6. ]
      - [ 75., 72., 17., 17., 20., 23., 48., 45., 16., 17., 12., 109.,
          58., 45., 24., 19., 27., 59., 171., 67., 227., 17., 51., 62.,
          30., 35., 43., 18., 65., 51., 65., 46., 39., 55., 46., 17.,
          56., 25., 21., 53., 30., 24., 100., 19., 42., 44., 53., 17.,
          55., 10. ]
      - [ 23., 15., 10., 12., 9., 12., 27., 12., 12., 7., 8., 72., 8.,
          17., 8., 18., 10., 26., 73., 6., 63., 12., 19., 29., 9., 33.,
          19., 3., 39., 16., 27., 18., 16., 32., 31., 16., 23., 17., 12.,
          18., 12., 7., 90., 5., 17., 28., 18., 5., 32., 1. ]
      - [ 3., 0., 3., 4., 0., 0., 7., 4., 0., 3., 0., 11., 4., 2., 1.,
          3., 0., 16., 22., 6., 35., 0., 12., 1., 6., 1., 11., 2., 5.,
          4., 11., 2., 12., 9., 0., 1., 1., 0., 1., 4., 1., 0., 12., 2.,
          1., 3., 4., 0., 12., 3. ]
      - [ 0., 3., 2., 3., 1., 1., 8., 3., 0., 1., 0., 13., 2., 1., 2.,
          2., 3., 3., 8., 4., 6., 0., 6., 3., 1., 4., 2., 1., 2., 1., 1.,
          2., 5., 5., 4., 0., 2., 5., 0., 4., 0., 0., 8., 0., 4., 2., 1.,
          1., 4., 1. ]
      - [ 48., 22., 25., 19., 7., 14., 16., 24., 8., 3., 5., 53., 20.,
          18., 6., 10., 5., 36., 84., 17., 86., 9., 28., 20., 15., 28.,
          24., 8., 27., 14., 41., 23., 38., 32., 25., 6., 20., 25., 6.,
          17., 12., 12., 70., 8., 19., 23., 21., 10., 24., 17. ]
      - [ 38., 68., 8., 34., 41., 21., 18., 42., 92., 49., 52., 79., 42.,
          53., 20., 75., 64., 57., 18., 19., 28., 10., 24., 46., 10.,
          28., 23., 20., 72., 32., 23., 41., 37., 73., 31., 102., 39.,
          75., 39., 54., 20., 52., 145., 69., 70., 42., 17., 14., 33.,
          13. ]
      - [ 1., 2., 2., 4., 2., 1., 3., 1., 1., 0., 3., 10., 1., 4., 0.,
          1., 3., 2., 6., 4., 3., 0., 4., 1., 0., 6., 7., 0., 1., 2., 7.,
          1., 1., 3., 1., 1., 0., 0., 3., 0., 3., 0., 8., 1., 0., 0., 2.,
          3., 2., 1. ]
      - [ 8., 3., 1., 2., 5., 3., 6., 3., 3., 1., 1., 10., 3., 2., 2.,
          1., 0., 2., 11., 0., 16., 0., 5., 5., 4., 5., 6., 1., 8., 5.,
          5., 4., 1., 2., 6., 1., 0., 2., 4., 5., 2., 2., 7., 0., 2., 4.,
          4., 0., 7., 4. ]
      - [ 3., 2., 0., 4., 6., 0., 7., 0., 3., 0., 2., 5., 0., 0., 1., 3.,
          1., 4., 9., 0., 17., 1., 3., 4., 3., 1., 3., 1., 8., 1., 9.,
          2., 2., 5., 4., 1., 0., 4., 3., 0., 1., 0., 8., 1., 3., 4., 8.,
          2., 7., 1. ]
      - [ 2., 2., 2., 0., 0., 1., 5., 4., 0., 1., 1., 2., 1., 2., 2., 5.,
          1., 7., 5., 3., 15., 0., 5., 4., 6., 3., 11., 3., 7., 3., 1.,
          3., 4., 2., 6., 2., 4., 4., 4., 5., 1., 3., 5., 1., 2., 10.,
          9., 2., 3., 2. ]
      - [ 8., 5., 4., 7., 2., 2., 10., 5., 1., 1., 0., 5., 5., 4., 5.,
          3., 5., 11., 13., 1., 10., 3., 10., 1., 9., 5., 7., 1., 1., 5.,
          16., 10., 9., 11., 3., 6., 1., 7., 3., 3., 2., 1., 8., 2., 1.,
          6., 4., 3., 18., 5. ]
      - [ 41., 6., 5., 10., 1., 3., 12., 5., 4., 4., 1., 25., 5., 10.,
          3., 7., 3., 8., 32., 7., 14., 2., 1., 26., 7., 8., 7., 5., 6.,
          6., 38., 4., 6., 17., 19., 5., 8., 9., 15., 7., 6., 2., 17.,
          2., 1., 14., 5., 2., 17., 4. ]
      - [ 3., 7., 1., 5., 1., 3., 5., 1., 2., 1., 2., 11., 5., 2., 0.,
          2., 0., 5., 1., 5., 9., 1., 6., 11., 3., 5., 6., 5., 5., 2.,
          14., 1., 3., 8., 14., 1., 2., 3., 2., 6., 5., 2., 11., 4., 3.,
          0., 4., 4., 5., 3. ]
      - [ 10., 5., 2., 2., 0., 2., 6., 1., 1., 0., 2., 4., 1., 8., 3.,
          3., 1., 6., 5., 4., 3., 2., 2., 7., 1., 6., 10., 3., 8., 5.,
          9., 5., 3., 7., 6., 1., 3., 2., 3., 1., 2., 0., 4., 2., 3., 1.,
          10., 3., 7., 4. ]
      - [ 20., 3., 16., 11., 4., 3., 16., 4., 1., 3., 3., 13., 6., 15.,
          12., 3., 3., 5., 35., 11., 7., 6., 17., 10., 11., 6., 16., 5.,
          0., 5., 48., 12., 7., 8., 7., 2., 4., 3., 11., 4., 4., 4., 5.,
          1., 6., 5., 10., 7., 17., 8. ]
      - [ 2., 5., 1., 3., 1., 1., 3., 0., 1., 0., 1., 7., 1., 2., 0., 4.,
          3., 4., 10., 1., 4., 0., 5., 3., 5., 5., 5., 2., 6., 2., 1.,
          3., 7., 6., 5., 3., 1., 2., 5., 7., 1., 0., 8., 2., 3., 2., 6.,
          0., 1., 2. ]
      - [ 11., 1., 7., 5., 2., 3., 11., 7., 2., 0., 2., 2., 7., 4., 6.,
          6., 1., 10., 17., 0., 13., 2., 7., 7., 8., 16., 10., 4., 2.,
          5., 5., 6., 10., 3., 4., 3., 0., 9., 10., 3., 5., 2., 6., 0.,
          8., 1., 7., 3., 6., 8. ]
      - [ 41., 13., 12., 12., 9., 11., 14., 10., 5., 6., 7., 11., 15.,
          15., 11., 8., 6., 13., 30., 19., 32., 11., 9., 20., 15., 16.,
          9., 9., 10., 10., 45., 22., 10., 3., 10., 4., 17., 5., 6., 12.,
          10., 3., 21., 5., 5., 10., 11., 4., 6., 19. ]
      - [ 8., 4., 13., 5., 2., 1., 9., 7., 3., 3., 2., 19., 8., 6., 3.,
          3., 3., 11., 23., 7., 37., 4., 13., 12., 9., 6., 12., 3., 8.,
          7., 9., 10., 13., 16., 14., 5., 4., 10., 9., 0., 3., 3., 24.,
          2., 11., 5., 3., 4., 12., 6. ]
      - [ 23., 8., 7., 7., 6., 8., 20., 3., 3., 5., 7., 9., 7., 6., 4.,
          6., 0., 15., 28., 2., 8., 6., 11., 14., 8., 11., 14., 5., 16.,
          7., 31., 6., 6., 7., 10., 4., 12., 7., 13., 4., 2., 3., 16.,
          1., 4., 10., 14., 5., 8., 3. ]
      - [ 19., 4., 9., 4., 8., 3., 11., 4., 5., 3., 2., 13., 3., 9., 2.,
          6., 8., 11., 30., 6., 18., 5., 21., 14., 7., 8., 19., 2., 11.,
          5., 28., 4., 7., 5., 7., 3., 14., 1., 11., 8., 9., 5., 11., 4.,
          6., 9., 6., 6., 10., 3. ]
      - [ 15., 1., 4., 3., 0., 1., 0., 3., 0., 2., 0., 1., 1., 6., 10.,
          0., 0., 0., 8., 5., 0., 2., 8., 8., 3., 1., 6., 5., 1., 1.,
          10., 4., 0., 1., 4., 0., 0., 0., 3., 0., 3., 1., 0., 1., 3.,
          4., 2., 4., 3., 3. ]
      - [ 97., 76., 60., 45., 76., 68., 61., 32., 20., 38., 22., 74.,
          46., 39., 59., 26., 53., 49., 159., 86., 103., 86., 100., 58.,
          56., 50., 112., 43., 28., 65., 144., 42., 39., 49., 47., 24.,
          29., 32., 38., 77., 78., 54., 62., 37., 30., 31., 47., 62.,
          56., 63. ]
      - [ 14., 16., 9., 6., 8., 6., 15., 6., 4., 7., 3., 14., 13., 7.,
          6., 5., 5., 15., 27., 10., 16., 8., 14., 9., 9., 8., 15., 10.,
          8., 13., 23., 8., 17., 11., 10., 5., 4., 8., 9., 10., 8., 4.,
          14., 5., 7., 8., 7., 7., 16., 9. ]
      - [ 10., 9., 14., 22., 12., 7., 20., 13., 4., 4., 5., 26., 8., 7.,
          7., 8., 7., 27., 32., 8., 45., 10., 31., 9., 15., 11., 16., 3.,
          15., 26., 38., 4., 19., 12., 3., 5., 12., 6., 18., 8., 12., 5.,
          22., 6., 12., 13., 13., 4., 16., 2. ]
      - [ 75., 54., 90., 51., 39., 64., 85., 71., 27., 28., 20., 76.,
          91., 62., 33., 40., 51., 124., 236., 59., 188., 75., 60., 38.,
          86., 34., 64., 26., 76., 91., 106., 46., 99., 24., 47., 24.,
          54., 30., 58., 65., 42., 47., 124., 23., 80., 34., 81., 46.,
          67., 42. ]
      - [ 63., 9., 11., 22., 2., 15., 17., 15., 2., 9., 3., 40., 11.,
          18., 8., 10., 3., 20., 39., 21., 43., 15., 19., 92., 11., 14.,
          16., 9., 15., 10., 43., 14., 20., 28., 22., 3., 22., 14., 18.,
          11., 13., 10., 35., 1., 13., 16., 19., 14., 35., 7. ]
      - [ 171., 65., 171., 93., 72., 107., 95., 131., 43., 82., 52.,
          183., 114., 116., 90., 53., 45., 121., 178., 214., 181., 129.,
          104., 82., 164., 69., 130., 90., 79., 115., 182., 98., 102.,
          69., 96., 37., 82., 51., 94., 61., 101., 95., 83., 58., 76.,
          76., 99., 113., 102., 166. ]
      - [ 148., 49., 58., 47., 28., 35., 95., 38., 25., 37., 26., 83.,
          50., 61., 25., 35., 24., 74., 206., 51., 220., 38., 68., 70.,
          55., 58., 60., 32., 47., 61., 134., 57., 56., 57., 85., 21.,
          49., 26., 38., 55., 41., 24., 122., 20., 53., 71., 53., 35.,
          79., 22. ]
      - [ 47., 44., 23., 39., 27., 15., 60., 35., 17., 11., 17., 74.,
          33., 26., 12., 27., 30., 36., 100., 19., 99., 20., 34., 38.,
          21., 38., 36., 14., 22., 25., 48., 22., 25., 49., 42., 16.,
          26., 17., 35., 48., 25., 15., 89., 12., 29., 20., 24., 19.,
          46., 20. ]
      - [ 5., 2., 2., 4., 4., 1., 7., 1., 0., 0., 0., 5., 1., 1., 1., 4.,
          1., 2., 5., 3., 3., 0., 3., 1., 1., 3., 5., 1., 1., 2., 4., 1.,
          1., 2., 1., 1., 1., 1., 3., 2., 0., 0., 12., 0., 3., 2., 2.,
          1., 2., 1. ]
      - [ 25., 10., 12., 10., 6., 7., 26., 12., 4., 4., 3., 5., 12., 8.,
          12., 7., 2., 16., 52., 6., 18., 10., 18., 11., 17., 12., 15.,
          8., 7., 11., 24., 14., 11., 7., 4., 5., 10., 4., 7., 10., 7.,
          5., 7., 3., 9., 10., 15., 7., 11., 6. ]
      - [ 34., 10., 12., 12., 13., 8., 10., 8., 3., 1., 1., 45., 8., 6.,
          5., 8., 11., 18., 37., 4., 40., 10., 14., 21., 9., 13., 22.,
          4., 26., 8., 38., 12., 13., 29., 23., 6., 7., 16., 17., 4., 6.,
          3., 46., 4., 12., 15., 18., 7., 18., 10. ]
      - [ 12., 1., 5., 8., 2., 2., 5., 4., 2., 0., 3., 7., 6., 8., 0.,
          5., 0., 14., 41., 3., 11., 1., 12., 74., 9., 8., 9., 1., 12.,
          8., 20., 11., 7., 20., 9., 2., 1., 9., 10., 4., 4., 4., 14.,
          0., 4., 7., 9., 2., 16., 3. ]
      - [ 50., 23., 42., 26., 9., 12., 36., 33., 10., 9., 10., 104., 39.,
          26., 13., 11., 9., 61., 125., 36., 129., 26., 48., 35., 45.,
          18., 42., 8., 39., 39., 49., 27., 38., 43., 34., 7., 30., 28.,
          22., 17., 18., 10., 56., 8., 41., 29., 37., 17., 51., 17. ]
      - [ 16., 7., 6., 10., 7., 8., 10., 13., 6., 3., 4., 21., 10., 3.,
          8., 2., 8., 19., 21., 7., 15., 9., 11., 13., 14., 13., 12., 5.,
          7., 2., 22., 3., 17., 17., 12., 2., 9., 6., 16., 4., 5., 8.,
          9., 7., 9., 7., 7., 7., 8., 9. ]
      - [ 33., 10., 22., 21., 9., 7., 19., 15., 5., 11., 5., 49., 23.,
          18., 13., 9., 12., 17., 69., 19., 48., 20., 23., 17., 24., 16.,
          14., 5., 9., 12., 44., 24., 27., 20., 15., 5., 14., 20., 17.,
          7., 10., 20., 30., 12., 14., 21., 10., 13., 21., 17. ]
      - [ 23., 5., 20., 11., 4., 11., 9., 7., 1., 4., 5., 12., 10., 15.,
          10., 2., 6., 14., 36., 12., 27., 11., 7., 12., 18., 11., 16.,
          11., 2., 9., 19., 10., 17., 1., 6., 3., 2., 10., 12., 6., 14.,
          6., 5., 6., 4., 7., 7., 12., 7., 18. ]
      - [ 30., 7., 15., 11., 5., 14., 14., 10., 6., 3., 5., 40., 8., 12.,
          9., 8., 4., 15., 87., 1., 62., 8., 14., 22., 14., 10., 19., 5.,
          11., 7., 99., 12., 10., 22., 17., 5., 14., 14., 9., 9., 8., 5.,
          35., 6., 12., 14., 6., 4., 12., 4. ]
      - [ 48., 54., 97., 66., 55., 70., 62., 110., 39., 61., 36., 24.,
          103., 72., 54., 25., 34., 116., 92., 120., 82., 79., 70., 31.,
          92., 47., 83., 55., 101., 110., 62., 70., 88., 11., 46., 29.,
          79., 29., 75., 72., 66., 70., 31., 46., 101., 65., 109., 59.,
          32., 64. ]
      - [ 106., 91., 27., 29., 52., 35., 39., 36., 39., 23., 39., 83.,
          43., 69., 55., 50., 68., 44., 98., 55., 112., 44., 93., 94.,
          34., 43., 97., 50., 38., 46., 131., 72., 41., 94., 57., 36.,
          41., 37., 37., 102., 59., 31., 79., 18., 42., 39., 40., 46.,
          70., 41. ]
      - [ 3., 1., 1., 6., 1., 2., 8., 2., 3., 0., 1., 7., 0., 0., 0., 2.,
          0., 8., 22., 3., 29., 4., 14., 7., 8., 4., 15., 1., 15., 9.,
          12., 1., 6., 17., 9., 0., 3., 5., 11., 2., 1., 0., 5., 1., 7.,
          2., 14., 0., 17., 0. ]
      - [ 12., 7., 14., 9., 3., 3., 8., 9., 5., 2., 1., 6., 10., 10., 8.,
          2., 2., 16., 18., 9., 13., 6., 6., 11., 16., 6., 5., 4., 7.,
          6., 12., 11., 14., 7., 7., 2., 9., 3., 17., 8., 6., 4., 2., 8.,
          4., 3., 4., 2., 10., 9. ]
      - [ 85., 35., 16., 30., 15., 8., 31., 10., 9., 15., 13., 35., 5.,
          27., 34., 21., 30., 27., 74., 21., 64., 16., 50., 65., 17.,
          28., 57., 21., 29., 31., 66., 30., 23., 44., 41., 17., 21.,
          17., 21., 30., 28., 13., 64., 14., 11., 19., 32., 24., 54.,
          19. ]
      - [ 4., 2., 1., 5., 1., 3., 2., 3., 0., 0., 0., 4., 1., 3., 2., 0.,
          0., 5., 4., 1., 5., 1., 8., 3., 3., 1., 7., 1., 2., 1., 16.,
          3., 5., 0., 1., 0., 5., 0., 2., 0., 0., 0., 5., 2., 1., 1., 6.,
          1., 2., 2. ]
      - [ 29., 15., 13., 22., 15., 8., 20., 12., 22., 9., 10., 42., 16.,
          18., 11., 19., 18., 30., 62., 26., 64., 9., 12., 49., 17., 19.,
          22., 6., 19., 16., 24., 16., 34., 25., 49., 7., 15., 23., 30.,
          19., 13., 12., 60., 18., 15., 18., 12., 11., 27., 9. ]
      - [ 31., 1., 14., 12., 3., 5., 8., 7., 3., 4., 2., 12., 11., 12.,
          7., 2., 1., 16., 33., 7., 28., 4., 16., 6., 11., 12., 16., 6.,
          10., 12., 26., 11., 11., 4., 6., 2., 3., 5., 12., 2., 12., 3.,
          15., 4., 8., 9., 15., 15., 23., 7. ]
      - [ 55., 19., 8., 7., 5., 5., 16., 4., 1., 5., 4., 0., 16., 24.,
          17., 6., 4., 9., 33., 23., 11., 10., 18., 13., 12., 5., 13.,
          7., 1., 7., 47., 15., 8., 3., 10., 3., 3., 3., 10., 12., 12.,
          7., 8., 1., 6., 8., 8., 5., 5., 9. ]
      - [ 147., 42., 139., 56., 17., 51., 69., 88., 24., 21., 17., 69.,
          91., 57., 27., 27., 10., 153., 235., 46., 216., 65., 61., 37.,
          162., 42., 62., 27., 99., 88., 139., 69., 108., 34., 61., 21.,
          94., 36., 68., 53., 54., 30., 70., 19., 101., 63., 87., 37.,
          95., 49. ]
      - [ 22., 15., 3., 14., 4., 4., 16., 3., 21., 9., 5., 58., 4., 2.,
          1., 8., 5., 10., 26., 1., 17., 8., 19., 54., 2., 10., 17., 2.,
          35., 11., 32., 1., 15., 33., 23., 21., 5., 11., 19., 13., 7.,
          6., 41., 19., 4., 7., 10., 2., 3., 7. ]
      - [ 3., 0., 6., 6., 4., 2., 4., 3., 1., 2., 4., 4., 3., 1., 0., 4.,
          1., 3., 10., 0., 6., 3., 2., 8., 6., 4., 8., 3., 11., 5., 2.,
          1., 3., 6., 7., 4., 3., 1., 4., 1., 1., 2., 6., 5., 2., 1., 2.,
          2., 7., 1. ]
      - [ 13., 1., 3., 9., 2., 4., 11., 3., 1., 0., 1., 8., 1., 3., 2.,
          1., 2., 4., 7., 2., 10., 1., 3., 7., 4., 3., 4., 4., 4., 1.,
          9., 0., 2., 10., 3., 0., 3., 1., 7., 1., 2., 1., 13., 3., 5.,
          3., 2., 4., 8., 1. ]
      - [ 19., 3., 4., 10., 5., 1., 27., 5., 5., 1., 2., 37., 1., 4., 0.,
          8., 1., 13., 33., 1., 20., 6., 14., 9., 10., 11., 13., 4., 17.,
          8., 10., 11., 13., 13., 8., 3., 9., 6., 20., 5., 5., 2., 22.,
          2., 7., 3., 18., 5., 5., 1. ]
      - [ 95., 15., 42., 32., 11., 14., 57., 17., 12., 10., 7., 26., 17.,
          27., 10., 14., 9., 36., 174., 25., 119., 20., 50., 33., 46.,
          22., 45., 22., 42., 27., 154., 19., 40., 22., 32., 6., 24.,
          20., 42., 14., 27., 7., 45., 5., 35., 36., 32., 18., 56., 22. ]
      - [ 6., 0., 1., 3., 0., 3., 1., 8., 1., 2., 0., 7., 6., 5., 0., 2.,
          0., 13., 7., 10., 29., 0., 1., 2., 4., 3., 2., 0., 3., 2., 6.,
          2., 8., 7., 1., 0., 6., 3., 2., 0., 4., 3., 4., 0., 5., 3., 3.,
          3., 6., 2. ]
      - [ 13., 3., 5., 15., 7., 4., 16., 4., 2., 3., 1., 17., 7., 8., 3.,
          12., 6., 11., 29., 2., 21., 4., 12., 12., 5., 6., 24., 2., 12.,
          8., 18., 3., 12., 8., 3., 2., 7., 5., 13., 9., 6., 8., 26., 1.,
          3., 17., 6., 7., 16., 5. ]
      - [ 40., 11., 38., 24., 8., 18., 51., 17., 9., 5., 4., 51., 12.,
          14., 11., 8., 2., 39., 79., 8., 95., 22., 52., 21., 43., 12.,
          46., 11., 31., 34., 84., 9., 24., 20., 26., 6., 22., 9., 14.,
          10., 11., 7., 54., 5., 35., 20., 31., 14., 32., 13. ]
      - [ 18., 5., 6., 8., 6., 4., 8., 3., 2., 3., 2., 6., 3., 6., 3.,
          2., 2., 12., 12., 5., 9., 3., 14., 16., 6., 8., 13., 2., 13.,
          7., 8., 8., 8., 10., 9., 2., 4., 5., 7., 7., 6., 2., 13., 3.,
          6., 4., 5., 2., 20., 4. ]
      - [ 17., 5., 13., 4., 1., 1., 4., 4., 1., 2., 0., 8., 4., 7., 6.,
          2., 1., 4., 13., 24., 13., 4., 9., 5., 11., 2., 10., 1., 3.,
          1., 18., 6., 4., 3., 4., 0., 4., 3., 5., 3., 7., 2., 18., 0.,
          6., 5., 3., 5., 4., 9. ]
      - [ 10., 2., 4., 3., 1., 3., 4., 1., 3., 1., 1., 2., 3., 3., 3.,
          0., 1., 6., 18., 3., 18., 1., 14., 2., 3., 3., 8., 2., 7., 9.,
          15., 2., 5., 4., 6., 0., 7., 2., 3., 0., 2., 1., 5., 0., 8.,
          10., 9., 2., 2., 2. ]
      - [ 6., 3., 9., 8., 1., 5., 5., 5., 2., 2., 0., 6., 5., 3., 3., 7.,
          0., 7., 16., 1., 20., 7., 7., 3., 9., 2., 8., 3., 5., 6., 19.,
          3., 6., 5., 5., 3., 6., 8., 9., 4., 6., 0., 12., 0., 8., 4.,
          12., 2., 7., 0. ]
      - [ 4., 11., 6., 6., 17., 9., 14., 5., 8., 7., 0., 6., 3., 4., 5.,
          5., 8., 15., 20., 3., 6., 6., 8., 8., 6., 5., 8., 4., 10., 7.,
          5., 7., 12., 5., 7., 6., 5., 4., 2., 5., 4., 7., 15., 16., 3.,
          9., 18., 4., 2., 2. ]
      - [ 17., 1., 3., 1., 2., 4., 4., 3., 0., 0., 0., 13., 4., 7., 1.,
          1., 2., 4., 19., 2., 20., 3., 18., 11., 4., 6., 17., 1., 6.,
          4., 10., 4., 6., 4., 4., 2., 5., 1., 2., 2., 1., 0., 6., 0.,
          0., 2., 2., 1., 3., 0. ]
      - [ 13., 3., 4., 6., 0., 3., 15., 3., 1., 0., 0., 3., 3., 4., 3.,
          1., 0., 10., 23., 4., 16., 6., 9., 4., 7., 10., 6., 1., 10.,
          10., 19., 2., 12., 7., 8., 2., 7., 1., 3., 2., 2., 1., 7., 5.,
          6., 1., 9., 5., 4., 6. ]
      - [ 4., 3., 2., 5., 0., 1., 11., 1., 1., 1., 2., 4., 1., 1., 5.,
          1., 2., 10., 20., 4., 4., 3., 9., 15., 6., 6., 6., 2., 3., 6.,
          9., 2., 7., 6., 1., 1., 1., 2., 4., 2., 2., 1., 4., 2., 3., 1.,
          6., 2., 3., 4. ]
      - [ 43., 12., 14., 14., 1., 11., 23., 3., 1., 7., 3., 70., 8., 8.,
          1., 4., 8., 16., 95., 9., 73., 8., 42., 20., 9., 12., 46., 3.,
          22., 12., 45., 4., 23., 25., 17., 5., 9., 8., 16., 11., 5.,
          13., 56., 5., 8., 16., 7., 6., 30., 3. ]
      - [ 58., 71., 35., 18., 48., 33., 35., 37., 13., 35., 16., 38.,
          40., 50., 62., 32., 72., 28., 38., 66., 33., 45., 31., 81.,
          41., 58., 21., 55., 17., 36., 44., 58., 30., 51., 68., 25.,
          39., 26., 25., 51., 45., 36., 68., 36., 25., 44., 43., 46.,
          49., 45. ]
      - [ 19., 6., 4., 9., 2., 3., 9., 5., 0., 2., 2., 16., 9., 6., 3.,
          5., 2., 17., 26., 0., 32., 4., 22., 12., 10., 10., 21., 5.,
          12., 7., 46., 5., 11., 9., 24., 4., 10., 8., 8., 4., 3., 4.,
          25., 3., 7., 3., 10., 5., 13., 7. ]
      - [ 16., 6., 11., 5., 6., 4., 12., 8., 3., 1., 6., 56., 6., 9., 6.,
          3., 3., 17., 41., 16., 36., 6., 6., 10., 11., 17., 13., 1.,
          16., 14., 15., 4., 20., 14., 10., 4., 17., 3., 11., 3., 6., 4.,
          38., 3., 3., 9., 13., 1., 11., 10. ]
      - [ 25., 28., 20., 22., 12., 17., 24., 17., 10., 9., 6., 33., 26.,
          13., 6., 7., 10., 30., 52., 5., 64., 11., 25., 19., 25., 10.,
          21., 8., 22., 25., 24., 13., 41., 13., 19., 11., 19., 12., 23.,
          27., 9., 8., 43., 7., 12., 13., 16., 6., 23., 14. ]
      - [ 40., 4., 11., 18., 4., 6., 34., 13., 2., 0., 10., 24., 14., 4.,
          1., 11., 3., 24., 54., 15., 71., 6., 29., 54., 14., 15., 28.,
          4., 28., 16., 48., 6., 18., 39., 31., 4., 15., 7., 16., 5., 5.,
          1., 26., 8., 10., 11., 22., 2., 30., 7. ]
      - [ 10., 8., 13., 9., 7., 12., 16., 9., 2., 3., 6., 9., 9., 14.,
          13., 1., 4., 13., 18., 11., 10., 7., 15., 14., 16., 16., 19.,
          4., 7., 12., 31., 11., 11., 14., 14., 4., 4., 1., 4., 9., 5.,
          2., 11., 7., 7., 9., 20., 6., 21., 14. ]
      - [ 123., 49., 28., 42., 28., 31., 70., 27., 21., 11., 12., 66.,
          31., 36., 39., 20., 27., 52., 149., 30., 119., 26., 80., 90.,
          25., 46., 69., 35., 28., 40., 158., 31., 51., 75., 80., 17.,
          39., 19., 40., 36., 22., 14., 66., 21., 18., 54., 42., 31.,
          78., 27. ]
      - [ 6., 16., 17., 15., 9., 20., 18., 12., 13., 4., 13., 139., 16.,
          9., 13., 26., 8., 34., 78., 3., 65., 17., 14., 34., 13., 23.,
          20., 7., 26., 13., 27., 10., 35., 31., 48., 12., 12., 48., 25.,
          18., 20., 4., 100., 1., 16., 15., 13., 16., 44., 16. ]
      - [ 20., 5., 15., 8., 4., 3., 11., 15., 2., 2., 8., 17., 15., 8.,
          5., 4., 3., 15., 30., 14., 35., 10., 15., 5., 13., 2., 10., 8.,
          8., 6., 51., 7., 15., 5., 9., 3., 9., 6., 9., 3., 11., 10., 2.,
          3., 8., 10., 10., 3., 9., 11. ]
      - [ 13., 3., 15., 5., 2., 1., 16., 4., 6., 3., 2., 11., 5., 8., 6.,
          2., 2., 12., 43., 9., 29., 7., 9., 11., 16., 11., 11., 5., 8.,
          6., 30., 17., 10., 6., 5., 6., 2., 2., 8., 3., 12., 3., 6., 3.,
          4., 3., 4., 7., 5., 1. ]
      - [ 6., 0., 2., 2., 4., 3., 5., 3., 3., 2., 2., 14., 5., 3., 1.,
          3., 2., 6., 4., 5., 8., 1., 5., 2., 3., 3., 5., 1., 8., 2., 8.,
          2., 7., 7., 4., 3., 8., 2., 4., 2., 0., 1., 2., 3., 1., 4., 9.,
          0., 8., 0. ]
      - [ 37., 25., 72., 17., 19., 51., 20., 38., 7., 23., 14., 17., 45.,
          33., 35., 9., 5., 38., 37., 103., 29., 54., 25., 32., 71., 9.,
          32., 41., 21., 49., 34., 37., 23., 26., 26., 10., 25., 11.,
          26., 17., 40., 23., 36., 15., 30., 24., 34., 39., 27., 62. ]
      - [ 115., 46., 18., 13., 24., 20., 23., 23., 6., 15., 13., 54.,
          32., 43., 42., 25., 24., 22., 59., 31., 52., 22., 32., 87.,
          26., 32., 22., 29., 19., 36., 77., 37., 27., 69., 55., 19.,
          27., 29., 26., 29., 16., 15., 94., 10., 29., 28., 32., 14.,
          28., 25. ]
      - [ 11., 7., 15., 18., 8., 8., 27., 16., 6., 2., 5., 57., 5., 8.,
          2., 5., 7., 30., 97., 5., 74., 4., 17., 19., 21., 28., 12., 5.,
          24., 14., 25., 5., 25., 18., 12., 2., 20., 7., 25., 7., 12.,
          0., 54., 3., 21., 4., 16., 1., 37., 6. ]
      - [ 15., 42., 13., 26., 11., 14., 4., 17., 8., 4., 12., 74., 8.,
          9., 13., 21., 10., 24., 34., 6., 40., 10., 27., 32., 11., 21.,
          20., 9., 14., 14., 8., 6., 39., 56., 33., 20., 7., 31., 17.,
          37., 9., 4., 76., 1., 11., 5., 7., 2., 44., 11. ]
      - [ 70., 11., 25., 24., 8., 17., 28., 18., 4., 9., 8., 68., 24.,
          25., 12., 8., 5., 28., 135., 22., 109., 10., 38., 88., 26.,
          16., 42., 14., 26., 23., 114., 19., 38., 74., 34., 7., 20.,
          13., 21., 14., 18., 17., 48., 6., 20., 27., 32., 14., 50., 12. ]
      - [ 6., 1., 10., 8., 0., 4., 11., 6., 0., 3., 4., 0., 5., 6., 1.,
          4., 1., 6., 17., 2., 17., 5., 11., 6., 7., 8., 14., 3., 10.,
          10., 5., 6., 7., 13., 3., 5., 2., 3., 12., 5., 6., 3., 5., 2.,
          8., 3., 10., 3., 17., 1. ]
      - [ 13., 3., 2., 9., 4., 3., 13., 9., 0., 0., 0., 20., 6., 3., 1.,
          3., 5., 16., 62., 3., 50., 3., 45., 7., 4., 7., 43., 2., 21.,
          7., 24., 2., 12., 9., 10., 4., 9., 6., 11., 4., 4., 5., 40.,
          2., 7., 6., 14., 4., 10., 2. ]
      - [ 20., 17., 13., 17., 11., 11., 17., 6., 7., 9., 4., 35., 20.,
          13., 5., 9., 12., 20., 29., 14., 27., 9., 18., 16., 3., 12.,
          23., 5., 16., 13., 18., 11., 21., 20., 22., 8., 15., 8., 13.,
          11., 10., 6., 22., 10., 13., 22., 4., 7., 15., 12. ]
      - [ 9., 1., 7., 2., 3., 6., 21., 9., 2., 3., 2., 17., 7., 3., 3.,
          2., 4., 7., 20., 5., 18., 3., 6., 18., 18., 12., 7., 1., 10.,
          8., 10., 6., 9., 4., 10., 2., 3., 7., 6., 6., 5., 2., 13., 2.,
          10., 6., 16., 5., 13., 2. ]
      - [ 36., 15., 29., 26., 11., 16., 26., 21., 7., 6., 6., 85., 16.,
          12., 6., 16., 5., 52., 72., 7., 88., 15., 27., 29., 36., 12.,
          24., 9., 66., 20., 54., 16., 47., 26., 33., 11., 23., 35., 17.,
          15., 33., 6., 69., 10., 34., 17., 31., 28., 38., 5. ]
      - [ 7., 3., 3., 3., 0., 4., 5., 3., 1., 0., 1., 12., 5., 2., 2.,
          0., 0., 5., 9., 1., 16., 0., 2., 6., 5., 8., 7., 1., 3., 2.,
          13., 0., 7., 2., 4., 0., 0., 3., 4., 0., 4., 1., 6., 1., 0.,
          4., 5., 0., 5., 2. ]
      - [ 32., 6., 9., 4., 4., 4., 11., 3., 3., 3., 3., 20., 7., 4., 4.,
          3., 3., 16., 30., 0., 39., 3., 11., 9., 6., 11., 15., 3., 23.,
          6., 15., 2., 14., 9., 8., 10., 8., 5., 8., 6., 7., 1., 21., 7.,
          5., 3., 9., 3., 16., 2. ]
      - [ 5., 11., 8., 9., 11., 5., 15., 10., 4., 4., 5., 10., 13., 7.,
          6., 9., 3., 14., 26., 8., 17., 12., 16., 15., 20., 10., 13.,
          3., 12., 16., 12., 14., 10., 14., 15., 1., 9., 12., 7., 8., 9.,
          5., 25., 0., 13., 13., 11., 5., 18., 9. ]
      - [ 4., 1., 5., 7., 3., 2., 7., 2., 1., 0., 1., 11., 3., 2., 0.,
          4., 4., 14., 32., 2., 19., 5., 6., 1., 9., 11., 7., 2., 4., 6.,
          1., 4., 10., 4., 4., 3., 8., 4., 7., 5., 1., 2., 6., 0., 6.,
          2., 7., 1., 10., 4. ]
      - [ 351., 121., 127., 103., 93., 102., 138., 85., 57., 76., 62.,
          230., 102., 155., 141., 84., 91., 115., 173., 217., 155., 105.,
          113., 303., 150., 133., 109., 109., 81., 119., 558., 137.,
          110., 272., 183., 75., 90., 71., 112., 129., 102., 69., 207.,
          71., 103., 116., 110., 81., 152., 180. ]
      - [ 17., 18., 15., 16., 12., 23., 16., 13., 9., 2., 6., 134., 19.,
          3., 5., 16., 10., 32., 46., 0., 100., 11., 17., 34., 18., 32.,
          24., 2., 56., 19., 24., 4., 27., 31., 55., 6., 30., 26., 25.,
          19., 22., 5., 91., 11., 37., 4., 27., 17., 33., 8. ]
      - [ 204., 53., 27., 37., 50., 34., 46., 34., 23., 24., 38., 75.,
          31., 72., 59., 28., 59., 29., 47., 81., 13., 35., 49., 128.,
          40., 70., 46., 57., 11., 34., 248., 65., 24., 66., 54., 18.,
          20., 24., 47., 50., 30., 27., 96., 46., 20., 63., 45., 39.,
          45., 46. ]
      - [ 184., 57., 69., 42., 42., 74., 59., 44., 15., 38., 19., 148.,
          51., 51., 63., 27., 44., 53., 180., 101., 123., 58., 66., 105.,
          76., 49., 72., 76., 31., 61., 253., 60., 43., 43., 63., 19.,
          35., 36., 34., 55., 69., 44., 114., 15., 52., 34., 49., 69.,
          59., 68. ]
      - [ 393., 167., 436., 138., 121., 226., 174., 234., 73., 114., 60.,
          64., 239., 246., 251., 61., 116., 220., 207., 481., 177., 242.,
          187., 183., 462., 116., 187., 259., 127., 219., 541., 300.,
          152., 79., 139., 77., 154., 69., 147., 168., 206., 158., 85.,
          93., 156., 127., 196., 207., 114., 416. ]
      - [ 135., 161., 131., 63., 124., 131., 89., 90., 59., 91., 40.,
          178., 97., 105., 141., 65., 115., 104., 178., 155., 193., 144.,
          125., 112., 142., 96., 129., 140., 97., 152., 240., 109., 79.,
          49., 71., 50., 93., 52., 68., 134., 120., 98., 97., 83., 70.,
          101., 127., 123., 72., 151. ]
      - [ 41., 23., 28., 22., 21., 24., 12., 27., 17., 16., 16., 84.,
          25., 20., 15., 14., 23., 39., 99., 55., 137., 21., 31., 28.,
          35., 30., 22., 17., 33., 15., 64., 24., 33., 20., 35., 9., 35.,
          21., 23., 13., 17., 8., 39., 12., 25., 11., 27., 9., 35., 14. ]
      - [ 31., 8., 16., 7., 1., 5., 20., 7., 3., 1., 0., 49., 6., 7., 2.,
          9., 0., 14., 68., 7., 62., 9., 11., 5., 18., 11., 11., 1., 10.,
          16., 66., 9., 11., 10., 14., 0., 5., 9., 11., 6., 9., 6., 29.,
          0., 10., 8., 9., 10., 13., 9. ]
      - [ 26., 6., 28., 26., 5., 12., 13., 20., 8., 3., 6., 167., 24.,
          18., 5., 25., 2., 39., 108., 41., 64., 11., 14., 39., 29., 27.,
          17., 2., 23., 17., 21., 13., 51., 54., 34., 6., 10., 40., 13.,
          12., 13., 4., 126., 1., 14., 10., 26., 11., 42., 25. ]
      - [ 24., 46., 16., 11., 23., 14., 39., 18., 10., 15., 7., 32., 29.,
          24., 14., 15., 35., 27., 29., 19., 37., 21., 25., 28., 17.,
          24., 20., 11., 28., 31., 20., 24., 24., 27., 37., 9., 13., 24.,
          18., 49., 32., 17., 72., 12., 9., 11., 26., 15., 17., 10. ]
      - [ 15., 6., 12., 4., 2., 4., 15., 4., 3., 1., 5., 28., 8., 4., 2.,
          5., 4., 13., 15., 7., 17., 7., 6., 11., 9., 20., 15., 2., 11.,
          11., 20., 6., 13., 9., 15., 2., 2., 13., 7., 7., 6., 2., 37.,
          1., 2., 3., 10., 6., 11., 7. ]
      - [ 11., 7., 3., 4., 5., 4., 11., 8., 3., 2., 2., 1., 3., 5., 9.,
          4., 3., 7., 7., 2., 3., 4., 6., 6., 4., 3., 8., 5., 4., 11.,
          12., 3., 5., 1., 2., 1., 3., 7., 3., 6., 2., 5., 5., 4., 5.,
          1., 11., 9., 5., 1. ]
      - [ 63., 26., 13., 16., 8., 10., 15., 14., 12., 10., 11., 91., 18.,
          17., 15., 18., 9., 17., 64., 17., 62., 15., 20., 55., 15., 31.,
          23., 7., 28., 27., 81., 13., 20., 47., 27., 7., 17., 20., 14.,
          18., 17., 13., 86., 11., 10., 26., 18., 9., 30., 17. ]
      - [ 56., 15., 39., 12., 8., 10., 39., 13., 11., 6., 8., 30., 18.,
          31., 12., 10., 9., 29., 98., 22., 71., 13., 19., 38., 48., 18.,
          14., 10., 8., 20., 64., 29., 12., 34., 38., 8., 15., 8., 16.,
          20., 13., 17., 59., 5., 24., 18., 20., 19., 45., 30. ]
      - [ 133., 32., 38., 19., 9., 15., 62., 28., 11., 11., 7., 63., 26.,
          29., 13., 23., 19., 37., 184., 19., 130., 15., 59., 97., 29.,
          59., 62., 9., 31., 27., 166., 23., 49., 58., 63., 10., 24.,
          23., 32., 32., 15., 7., 95., 13., 23., 60., 25., 8., 51., 17. ]
      - [ 7., 12., 10., 9., 10., 10., 15., 4., 3., 2., 3., 120., 10., 7.,
          3., 20., 2., 30., 34., 3., 30., 9., 7., 17., 10., 19., 9., 4.,
          14., 10., 5., 5., 31., 43., 45., 6., 6., 18., 6., 13., 8., 4.,
          83., 1., 21., 9., 17., 5., 70., 1. ]
      - [ 107., 19., 20., 17., 12., 16., 54., 10., 10., 16., 5., 39.,
          20., 36., 18., 9., 24., 15., 151., 52., 68., 18., 60., 62.,
          25., 22., 43., 18., 15., 25., 272., 23., 17., 21., 29., 14.,
          32., 5., 19., 26., 8., 20., 19., 18., 21., 25., 27., 14., 99.,
          21. ]
      - [ 62., 25., 23., 13., 19., 23., 18., 15., 11., 12., 11., 46.,
          17., 23., 23., 12., 19., 19., 22., 22., 26., 17., 20., 44.,
          24., 20., 22., 23., 14., 28., 92., 23., 14., 25., 21., 9., 12.,
          10., 7., 14., 17., 22., 44., 15., 15., 16., 13., 11., 19., 19. ]
      - [ 115., 32., 64., 27., 28., 28., 72., 38., 12., 25., 13., 27.,
          49., 42., 32., 17., 17., 53., 73., 54., 80., 32., 35., 46.,
          83., 39., 40., 28., 22., 49., 100., 56., 43., 23., 35., 17.,
          35., 9., 30., 34., 34., 33., 48., 12., 41., 36., 44., 28., 44.,
          49. ]
      - [ 36., 10., 7., 5., 7., 6., 12., 8., 3., 4., 2., 5., 4., 4., 6.,
          1., 10., 5., 9., 2., 7., 6., 13., 18., 5., 9., 6., 10., 7.,
          15., 27., 8., 7., 7., 11., 3., 4., 7., 1., 7., 5., 2., 15., 4.,
          9., 8., 12., 1., 8., 3. ]
      - [ 9., 18., 3., 17., 9., 11., 11., 7., 10., 4., 10., 39., 8., 8.,
          14., 16., 11., 14., 27., 8., 31., 9., 16., 26., 9., 9., 25.,
          8., 27., 17., 15., 4., 14., 27., 20., 11., 12., 13., 26., 9.,
          8., 7., 45., 14., 14., 10., 11., 7., 17., 7. ]
      - [ 1., 5., 6., 3., 2., 3., 5., 7., 3., 1., 4., 16., 10., 3., 3.,
          7., 2., 11., 28., 0., 20., 4., 6., 13., 5., 10., 12., 3., 5.,
          2., 1., 3., 10., 5., 9., 1., 4., 10., 8., 3., 10., 0., 9., 5.,
          4., 2., 6., 6., 14., 1. ]
      - [ 13., 3., 0., 3., 2., 2., 6., 1., 2., 0., 1., 4., 4., 5., 4.,
          2., 0., 0., 17., 2., 11., 1., 10., 6., 4., 3., 17., 2., 6., 3.,
          28., 3., 1., 2., 3., 4., 1., 1., 6., 5., 0., 0., 1., 4., 1.,
          8., 4., 2., 4., 2. ]
      - [ 143., 25., 34., 8., 8., 21., 34., 15., 10., 11., 9., 75., 22.,
          35., 19., 30., 9., 35., 75., 18., 93., 20., 13., 114., 37.,
          33., 8., 21., 13., 30., 107., 33., 26., 72., 55., 14., 44.,
          27., 8., 32., 27., 12., 93., 4., 22., 51., 14., 20., 43., 16. ]
      - [ 106., 117., 66., 39., 84., 83., 51., 51., 33., 41., 39., 146.,
          43., 70., 71., 62., 96., 79., 102., 101., 142., 66., 47., 105.,
          67., 74., 61., 57., 47., 70., 118., 57., 55., 71., 87., 39.,
          82., 53., 46., 102., 84., 67., 144., 52., 64., 46., 79., 92.,
          64., 78. ]
      - [ 0., 5., 4., 6., 8., 2., 8., 4., 5., 1., 3., 67., 4., 2., 1.,
          12., 7., 21., 14., 0., 19., 3., 4., 10., 8., 26., 5., 1., 18.,
          5., 3., 0., 15., 6., 13., 3., 2., 15., 4., 3., 3., 0., 25., 1.,
          5., 3., 4., 3., 3., 0. ]
      - [ 4., 12., 11., 10., 3., 9., 20., 8., 9., 0., 5., 119., 10., 5.,
          0., 17., 5., 21., 92., 3., 103., 8., 10., 5., 10., 23., 6., 2.,
          31., 11., 12., 3., 19., 19., 15., 5., 4., 21., 8., 11., 10.,
          2., 85., 0., 15., 6., 11., 6., 33., 2. ]
      - [ 4., 2., 7., 6., 0., 4., 8., 2., 3., 0., 2., 16., 3., 2., 0.,
          1., 2., 11., 34., 1., 15., 4., 11., 4., 4., 7., 6., 0., 14.,
          3., 7., 3., 16., 3., 5., 3., 2., 2., 7., 1., 2., 0., 11., 0.,
          3., 4., 6., 1., 6., 5. ]
      - [ 42., 8., 19., 5., 0., 7., 10., 6., 2., 1., 3., 16., 8., 9., 5.,
          1., 2., 15., 49., 6., 38., 5., 11., 18., 13., 16., 15., 11.,
          10., 10., 41., 5., 14., 8., 15., 4., 18., 7., 6., 4., 11., 5.,
          20., 2., 8., 18., 14., 3., 21., 7. ]
      - [ 7., 2., 13., 16., 5., 8., 9., 4., 1., 5., 0., 12., 3., 5., 2.,
          6., 3., 14., 38., 3., 28., 7., 16., 8., 15., 8., 10., 2., 11.,
          16., 17., 3., 15., 1., 7., 1., 5., 4., 6., 3., 7., 7., 14., 1.,
          9., 4., 17., 5., 7., 7. ]
      - [ 4., 14., 16., 7., 6., 9., 30., 12., 6., 7., 2., 45., 14., 8.,
          6., 12., 7., 26., 73., 5., 57., 11., 16., 26., 16., 8., 19.,
          2., 31., 10., 24., 10., 19., 15., 14., 4., 10., 11., 9., 17.,
          13., 4., 39., 4., 10., 13., 17., 9., 23., 9. ]
      - [ 19., 1., 5., 7., 3., 6., 15., 7., 3., 1., 2., 12., 5., 2., 3.,
          6., 1., 14., 46., 3., 26., 6., 15., 11., 8., 8., 15., 3., 19.,
          14., 16., 1., 8., 3., 15., 3., 11., 5., 20., 5., 4., 0., 10.,
          0., 12., 5., 22., 1., 11., 4. ]
      - [ 22., 4., 5., 12., 7., 5., 13., 6., 5., 0., 4., 52., 7., 4., 2.,
          4., 8., 13., 90., 0., 47., 6., 4., 26., 6., 14., 4., 5., 19.,
          15., 21., 3., 12., 32., 23., 3., 7., 3., 7., 8., 6., 1., 76.,
          1., 3., 5., 12., 2., 20., 2. ]
      - [ 16., 2., 5., 7., 2., 5., 21., 5., 5., 2., 2., 13., 4., 2., 2.,
          1., 2., 9., 59., 5., 43., 5., 12., 9., 9., 9., 10., 2., 16.,
          12., 25., 4., 12., 8., 7., 3., 5., 4., 14., 0., 4., 0., 6., 4.,
          9., 7., 11., 5., 15., 3. ]
      - [ 8., 9., 2., 7., 4., 7., 17., 2., 4., 3., 3., 20., 4., 7., 2.,
          1., 1., 14., 42., 4., 51., 9., 9., 67., 9., 18., 9., 0., 34.,
          10., 38., 1., 6., 32., 13., 1., 14., 8., 9., 10., 12., 1., 14.,
          0., 13., 8., 12., 9., 19., 1. ]
      - [ 40., 7., 13., 9., 6., 1., 13., 6., 2., 2., 1., 52., 6., 7., 4.,
          3., 2., 9., 59., 1., 27., 2., 13., 58., 10., 13., 9., 4., 16.,
          5., 63., 9., 5., 24., 14., 2., 5., 1., 8., 8., 2., 2., 39., 4.,
          5., 16., 4., 5., 13., 5. ]
      - [ 25., 5., 19., 22., 2., 5., 19., 13., 3., 2., 2., 30., 15., 14.,
          3., 8., 5., 21., 68., 12., 62., 7., 19., 11., 16., 16., 19.,
          4., 15., 22., 26., 11., 17., 15., 5., 3., 6., 10., 19., 6., 3.,
          5., 34., 3., 15., 4., 16., 5., 21., 4. ]
      - [ 19., 15., 14., 16., 12., 4., 19., 7., 9., 8., 4., 38., 13.,
          17., 9., 12., 11., 18., 65., 16., 36., 13., 19., 11., 17., 12.,
          23., 6., 17., 10., 25., 9., 16., 29., 15., 5., 12., 15., 16.,
          17., 8., 5., 52., 10., 13., 12., 17., 3., 16., 15. ]
      - [ 10., 6., 11., 6., 4., 6., 5., 13., 2., 4., 2., 6., 8., 10., 3.,
          4., 4., 17., 20., 10., 13., 8., 9., 4., 12., 13., 11., 2., 6.,
          10., 17., 4., 12., 9., 9., 2., 10., 4., 9., 9., 2., 4., 7., 2.,
          6., 9., 9., 2., 18., 5. ]
      - [ 10., 3., 10., 6., 3., 6., 12., 2., 2., 1., 1., 3., 2., 5., 5.,
          3., 1., 11., 28., 16., 13., 0., 2., 4., 10., 3., 1., 1., 3.,
          1., 7., 4., 6., 8., 3., 0., 3., 3., 8., 2., 3., 2., 6., 0., 3.,
          7., 7., 2., 8., 4. ]
      - [ 18., 12., 11., 15., 10., 10., 17., 20., 5., 10., 4., 15., 20.,
          9., 8., 5., 8., 18., 24., 9., 26., 20., 23., 6., 12., 16., 16.,
          8., 9., 14., 20., 10., 12., 2., 8., 6., 14., 7., 4., 9., 12.,
          10., 11., 5., 15., 8., 16., 10., 11., 12. ]
      - [ 10., 3., 9., 8., 6., 7., 19., 11., 7., 1., 5., 8., 14., 8., 2.,
          1., 5., 9., 18., 7., 19., 10., 11., 4., 17., 4., 11., 2., 10.,
          7., 16., 3., 8., 9., 4., 5., 12., 3., 13., 3., 4., 6., 11., 1.,
          22., 2., 13., 11., 9., 5. ]
      - [ 26., 3., 14., 8., 2., 3., 12., 4., 0., 2., 2., 19., 5., 4., 1.,
          5., 3., 18., 38., 6., 34., 6., 18., 10., 17., 7., 15., 5., 19.,
          6., 21., 10., 9., 10., 5., 3., 10., 2., 17., 2., 8., 0., 16.,
          3., 13., 6., 5., 5., 11., 1. ]
      - [ 21., 3., 12., 9., 3., 5., 10., 5., 6., 2., 1., 18., 9., 6., 3.,
          7., 1., 19., 17., 7., 28., 12., 15., 13., 15., 8., 14., 5.,
          12., 10., 22., 6., 12., 14., 10., 0., 4., 4., 6., 7., 9., 9.,
          16., 4., 14., 8., 5., 7., 24., 9. ]
      - [ 21., 7., 32., 12., 10., 16., 13., 14., 1., 7., 2., 13., 10.,
          10., 8., 8., 1., 22., 23., 16., 28., 18., 14., 6., 32., 9.,
          13., 9., 7., 17., 21., 15., 17., 4., 7., 2., 7., 10., 15., 7.,
          20., 14., 8., 5., 13., 19., 17., 9., 8., 13. ]
      - [ 12., 3., 4., 5., 1., 3., 4., 2., 2., 0., 2., 6., 8., 1., 2.,
          1., 1., 8., 26., 9., 22., 7., 9., 0., 9., 1., 7., 1., 6., 8.,
          15., 4., 12., 5., 4., 1., 3., 3., 3., 4., 1., 5., 7., 0., 6.,
          5., 8., 1., 8., 1. ]
      - [ 14., 4., 16., 8., 6., 9., 12., 7., 0., 5., 0., 7., 15., 12.,
          3., 3., 3., 13., 33., 17., 15., 9., 9., 8., 15., 5., 11., 5.,
          6., 12., 9., 11., 17., 6., 12., 1., 10., 5., 7., 4., 3., 9.,
          11., 6., 7., 7., 7., 5., 10., 9. ]
      - [ 8., 1., 14., 11., 3., 8., 9., 8., 4., 2., 4., 4., 16., 8., 7.,
          3., 1., 15., 37., 9., 26., 7., 4., 7., 22., 2., 11., 3., 5.,
          8., 18., 11., 20., 1., 8., 2., 4., 5., 6., 2., 6., 11., 9., 1.,
          7., 12., 10., 9., 13., 14. ]
      - [ 22., 2., 10., 9., 3., 9., 9., 12., 3., 3., 2., 7., 11., 9., 3.,
          1., 0., 11., 26., 5., 18., 4., 9., 11., 13., 6., 14., 2., 4.,
          10., 31., 7., 11., 8., 7., 1., 6., 1., 11., 2., 3., 2., 4., 1.,
          11., 11., 11., 2., 8., 5. ]
      - [ 27., 0., 10., 5., 0., 1., 8., 2., 6., 3., 2., 5., 1., 6., 0.,
          0., 2., 5., 20., 12., 11., 4., 4., 1., 9., 3., 6., 2., 1., 1.,
          21., 3., 2., 3., 6., 1., 2., 0., 6., 0., 4., 4., 5., 2., 4.,
          7., 0., 2., 10., 3. ]
      - [ 15., 3., 7., 3., 3., 1., 15., 4., 1., 1., 1., 8., 7., 5., 2.,
          1., 0., 8., 22., 2., 22., 1., 9., 6., 12., 6., 7., 5., 2., 3.,
          21., 4., 8., 2., 5., 1., 2., 1., 8., 4., 4., 4., 5., 0., 4.,
          6., 1., 1., 4., 0. ]
      - [ 9., 3., 10., 5., 4., 4., 10., 7., 2., 3., 3., 1., 11., 3., 1.,
          2., 0., 16., 18., 8., 24., 4., 9., 6., 12., 7., 5., 0., 5., 4.,
          10., 8., 7., 4., 7., 1., 6., 1., 8., 2., 0., 5., 4., 2., 7.,
          1., 4., 1., 10., 4. ]
      - [ 14., 8., 11., 10., 5., 3., 25., 9., 8., 6., 4., 17., 11., 11.,
          6., 4., 3., 17., 30., 11., 20., 10., 10., 8., 16., 14., 10.,
          6., 13., 8., 12., 10., 6., 9., 11., 6., 10., 5., 13., 6., 7.,
          7., 19., 8., 10., 12., 16., 7., 11., 8. ]
      - [ 6., 0., 6., 3., 3., 4., 4., 4., 4., 3., 2., 10., 2., 3., 1.,
          4., 1., 5., 17., 4., 15., 5., 8., 7., 5., 14., 4., 0., 9., 3.,
          19., 3., 4., 4., 4., 1., 3., 4., 6., 1., 6., 2., 8., 0., 1.,
          6., 5., 3., 6., 4. ]
      - [ 12., 8., 7., 6., 5., 4., 16., 9., 3., 4., 3., 16., 9., 6., 4.,
          1., 0., 15., 18., 3., 14., 11., 12., 7., 6., 9., 11., 5., 17.,
          8., 19., 5., 17., 8., 4., 8., 11., 5., 8., 4., 6., 1., 20., 6.,
          5., 9., 14., 4., 15., 5. ]
   decision_functions:
      -
         sv_count: 155
         rho: -4.5438646893609663e-01
         alpha: [ 1., 2.0379195689743050e+00, 1.0349444541180650e+00,
             9.4522704468478258e-01, 6.4847522640107003e-01,
             1.5152233768198908e+00, 2.5000000000000000e+00,
             1.8554835481931489e+00, 1.5241461218655650e+00,
             1.2478421684595338e+00, 9.6378337321883123e-01,
             2.5000000000000000e+00, 1.8741904877143443e+00,
             1.4419128981035918e+00, 1.0011841423998069e+00,
             2.3223888947506612e+00, 1.5479629916212641e+00,
             1.1008482117841338e+00, 1.6954815594157218e+00,
             1.2703259640925069e+00, 2.5000000000000000e+00,
             1.9046251727041634e+00, 2.5000000000000000e+00,
             2.5000000000000000e+00, 1.2171280583702222e+00,
             1.4790053261706897e+00, 2.5000000000000000e+00,
             2.5000000000000000e+00, 1.7713435909232200e+00,
             2.5000000000000000e+00, 1.7303907389569564e+00,
             2.4831339583937670e+00, 1.3361972730176270e+00,
             2.5000000000000000e+00, 1.0978357292255745e+00,
             2.5000000000000000e+00, 2.0532864620473648e+00,
             1.4239075875958960e+00, 1.2396725535212012e+00,
             1.2160488502435951e+00, 1.7813256524082377e+00,
             1.3950142129108976e+00, 1.6980521130006787e+00,
             7.1867434759176230e-01, 3.2260455696991741e-01,
             1.4428145834980952e+00, 2.5000000000000000e+00,
             1.1600652801770586e+00, 1.4650555458819350e+00,
             2.5667914190051055e-01, 1.2839511497564049e+00,
             9.8477662318010917e-01, 1.4044072551770079e+00,
             1.6373286319204179e+00, 1.5362166267811688e+00,
             1.4145220517082293e+00, 1.5456806783033628e+00,
             2.5000000000000000e+00, 1.2828719416297778e+00,
             1.4021642707744255e+00, 1.5547729553152174e+00,
             1.3399347198229414e+00, 1.2020673621318563e+00,
             1.4988158576001931e+00, 1.2383214541675691e+00,
             1.2260788312989175e+00, 2.5000000000000000e+00,
             1.1617967943353169e+00, 1.2422840005858018e+00,
             1.2906011553572101e+00, 1.3093849060322174e+00,
             2.2433208580994894e+00, 1.2448698245147645e+00,
             1.2250072165263808e+00, 5.4871451115852299e-01,
             2.1773954430300826e+00, 1.3898184927467552e+00,
             1.1687212131431366e+00, 5.1596241659549213e-01,
             1.0955927448229921e+00, 1.5431476935916337e+00,
             2.0149394083047745e+00, 1.7237589768581258e+00,
             1.9512854888414770e+00, 1.9418181817309570e+00,
             6.4945741146707370e-01, -1., -2.5000000000000000e+00,
             -2.3223888947506612e+00, -1.2396725535212012e+00,
             -1.5479629916212641e+00, -1.1617967943353169e+00,
             -1.3361972730176270e+00, -1.4239075875958960e+00,
             -2.5000000000000000e+00, -2.5000000000000000e+00,
             -2.5000000000000000e+00, -1.9046251727041634e+00,
             -6.0683861023445451e-01, -1.5241461218655650e+00,
             -2.5000000000000000e+00, -2.5000000000000000e+00,
             -2.5000000000000000e+00, -1.3474354022935009e+00,
             -1.1008482117841338e+00, -1.3898184927467552e+00,
             -1.0908114690318156e+00, -1.2744535457824469e+00,
             -2.5000000000000000e+00, -1.4790053261706897e+00,
             -2.5000000000000000e+00, -2.5000000000000000e+00,
             -8.7858379128389230e-01, -1.9418181817309570e+00,
             -2.5000000000000000e+00, -2.5000000000000000e+00,
             -2.5000000000000000e+00, -1.3950142129108976e+00,
             -2.5000000000000000e+00, -1.4145220517082293e+00,
             -1.1687212131431366e+00, -1.7582464171812939e+00,
             -2.5000000000000000e+00, -2.5000000000000000e+00,
             -2.5000000000000000e+00, -2.5000000000000000e+00,
             -2.5000000000000000e+00, -2.5000000000000000e+00,
             -2.5000000000000000e+00, -1.7303907389569564e+00,
             -1.2260788312989175e+00, -2.5000000000000000e+00,
             -2.5000000000000000e+00, -2.5000000000000000e+00,
             -1.2250072165263808e+00, -1.2478421684595338e+00,
             -1.2255464542175531e+00, -2.5000000000000000e+00,
             -2.5000000000000000e+00, -2.5000000000000000e+00,
             -2.5000000000000000e+00, -1.4091885309681844e+00,
             -1.4428145834980952e+00, -2.5000000000000000e+00,
             -1.6214162087161077e+00, -1.3458842150923944e+00,
             -1.2448698245147645e+00, -1.2906011553572101e+00,
             -1.6954815594157218e+00, -2.5000000000000000e+00,
             -1.6980521130006787e+00, -2.5000000000000000e+00,
             -2.5000000000000000e+00, -2.5000000000000000e+00,
             -2.5000000000000000e+00 ]
         index: [ 0, 1, 2, 3, 4, 5, 6, 7, 8, 9, 10, 11, 12, 13, 14, 15,
             16, 17, 18, 19, 20, 21, 22, 23, 24, 25, 26, 27, 28, 29, 30,
             140, 141, 142, 143, 144, 107, 145, 146, 147, 148, 149, 150,
             151, 152, 153, 154, 100, 101, 102, 103, 104, 105, 106, 108,
             109, 110, 111, 112, 113, 114, 115, 116, 117, 118, 119, 120,
             121, 122, 123, 124, 125, 126, 127, 128, 129, 130, 131, 132,
             133, 134, 135, 136, 137, 138, 139, 31, 32, 33, 34, 35, 36,
             37, 38, 39, 40, 41, 42, 43, 44, 45, 46, 47, 48, 49, 50, 51,
             52, 53, 54, 55, 56, 57, 58, 59, 60, 61, 62, 63, 64, 65, 66,
             67, 68, 69, 70, 71, 72, 73, 74, 75, 76, 77, 78, 79, 80, 81,
             82, 83, 84, 85, 86, 87, 88, 89, 90, 91, 92, 93, 94, 95, 96,
             97, 98, 99 ]
